tree
version=v3
num_class=10
num_tree_per_iteration=10
label_index=0
max_feature_idx=9
objective=multiclass num_class:10
feature_names=Column_0 Column_1 Column_2 Column_3 Column_4 Column_5 Column_6 Column_7 Column_8 Column_9
feature_infos=[-1074.6074093961647:2248.8235550578684] [-1377.8358569172781:1302.5397155642509] [-1415.5985659793241:1256.3257527041415] [-1177.085515679953:1532.4660831564047] [-1276.2760638883992:1331.4525154150522] [-1136.5713099565819:1076.1421349158452] [-1213.7401911700135:978.40789714512857] [-1134.073507061855:1012.7440353144784] [-1093.1843606025095:1112.539613245453] [-875.39371897570356:910.75780618922875]
tree_sizes=2363 2258 2259 2768 2876 3069 2676 2869 2775 3379 2169 3272 2845 3146 3032 2840 2502 3240 3467 3370 2486 2215 3258 2823 2834 3060 2606 3049 3272 3464 2295 2107 2943 2728 2947 3257 2296 3135 3393 3471 2405 2315 2967 2519 3036 3058 2502 3336 3168 3471 2706 2310 2933 3275 2843 3381 3061 3158 3269 3281 2609 2417 3037 3044 2867 3162 2410 3051 3071 3173 2416 3173 3043 3052 2643 3281 2627 2853 3381 3163 2324 2316 2735 2852 2943 3278 2532 3051 3283 3161 2421 2217 2984 2956 2858 2764 2536 3037 2971 3279 2424 2630 3058 3182 2857 2839 2739 3267 3498 3078 2424 3071 2849 3065 2859 3282 2635 3265 3505 2968 2739 2541 2855 2962 2742 2548 2851 3272 2963 2861 2521 2538 3505 3282 2848 2864 2953 3271 3502 3075 2987 2644 2846 3369 2859 2761 2960 3170 2864 2645 2968 2353 2967 3055 2764 3166 2429 3260 3402 3277 2837 2547 2863 2540 2749 3274 2637 3269 3299 3080 2943 2546 2846 2745 2645 3288 2842 3162 3193 3088 3059 2551 2960 2967 3069 3472 2330 3370 2685 3191 2541 2447 3208 2862 2869 3003 2334 2961 2783 3283 2849 2780 2962 2838 2745 3209 3059 3262 3164 3167 2852 2432 3300 3066 3176 3318 2967 3165 3164 3283 2854 2738 2950 2852 2747 2985 2872 3177 2969 3074 3059 2629 3302 2964 2653 2782 2971 3062 3188 3184 3283 2532 2961 2963 2892 3054 2967 3266 3176 3070 2421 2536 3166 2867 3074 3050 2558 3074 2963 3171 2529 2528 2868 3086 3288 3161 2222 3059 3079 3376 2980 2443 3291 2751 2874 2963 2552 3173 3196 3282 2520 2257 3295 3395 3092 3172 2741 2747 3074 2982 2561 2527 3213 2985 2973 2860 2771 2862 3069 3277 2748 2535 3186 2668 2878 3300 2886 3171 2561 2969 2652 2436 3292 2649 2878 2677 2903 3082 2899 2974 2660 2856 3388 2340 3111 2982 2775 3192 2905 2866 2552 2537 3275 2440 2772 3162 2895 2865 2896 2982 2983 2634 2966 2759 2444 2866 2871 3073 2242 2963 2325 2853 2449 2560 3270 2058 2866 2878 3080 2773 3068 2970 2454 2963 2556 3068 2864 3074 2859 2780 2330 2668 2959 2666 2884 2256 2882 3071 3185 2988 2553 2967 2658 2859 2762 3171 2763 3285 2367 2782 2543 2758 2764 2973 2667 2681 2867 3387 2864 2456 3064 2458 2866 2330 2541 3050 2754 3062 2581 2983 3067 2751 3403 2259 2253 3155 2560 2980 2774 2865 2851 2869 3291 2257 2361 2726 2558 3070 2785 2978 2856 2972 3154 2264 2572 3173 2656 3173 2787 2554 2857 2867 3087 2253 2676 3274 3001 3286 2691 2981 2450 2643 2755 2142 2563 3357 2453 2241 3047 2467 2346 2743 2969 2030 2352 3240 2996 2866 3181 2463 2562 2574 3059 2562 2459 3358 2665 3086 2544 2784 2243 2650 3072 2356 2561 3384 2904 2764 2684 2907 2347 2334 3056 2364 2572 3166 2991 2986 2741 3320 2227 2858 2876 2560 2740 2460 2431 3188 2464 2250 2234 2640 2886 2766 2551 3004 2665 3170 2996 2854 2224 2847 2987 2557 2557 2915 2649 3081 2678 2258 2232 2852 2890 2340 2552 2373 2445 3170 2894 2350 2564 2752 3212 2761 2654 2159 2661 3170 3071 2257 2451 2645 3285 2854 3077 3181 2687 2873 3015 2535 2345 2765 3172 2890 2673 3181 2458 2977 2581 2237 2251 3070 2764 2674 3057 3175 2458 2872 2687 2337 2791 2654 2985 2997 2680 2973 3007 2990 2682 2252 2244 2767 2973 2987 2875 3295 2245 3107 2588 2040 2114 3190 3294 2243 2457 3065 2368 2969 2551 2684 2692 2691 3415 2666 2691 2762 2789 2966 2553 2884 2463 2458 3285 2354 2478 2561 2583 3279 2762 2572 2257 2466 3098 2667 2912 2764 2479 3185 2769 2679 2253 2683 2248 2239 2793 2657 2583 3272 2884 2580 2252 2903 2913 3181 2972 2866 2678 2891 2566 2339 2276 2931 2804 2629 3336 2346 2864 2922 2562 2239 2358 3010 2806 2529 2713 2582 3076 2925 2670 2540 2158 2714 2920 2658 3068 2912 3078 2991 2578 2956 2147 2264 2703 3179 2816 2128 2652 2889 2587 2851 2789 3094 3096 3189 3073 3255 3210 3074 3488 2629 2477 3205 2559 3293 3074 3249 3303 2872 3304 2751 2987 3043 3085 2853 3165 3260 2748 2968 2460 2865 2362 2255 2454 2972 3052 3037 2475 2871 2457 2473 2464 2401 2894 3182 3062 3170 2155 2879 3425 2853 2381 3341 3298 2154 2331 3085 2708 2991 2281 2465 2380 3221 2883 2490 1723 3168 2620 2983 2609 2376 2379 2848 3195 2157 3272 3186 2585 2877 2613 2568 2153 2732 3025 2512 1725 3284 2614 2901 2174 2468 2709 2734 3193 1962 1828 3081 2615 2758 2178 2379 2368 2729 2763 3126 2763 2657 2889 3218 3106 2387 2474 2480 2781 3124 2767 2972 3108 2776 2461 3024 2262 2487 2864 2678 2569 2585 2894 3194 2577 2374 2257 2181 2874 2688 2576 2904 2763 2751 2251 2916 2432 2185 2980 2800 2800 3026 2972 2971 2469 2054 2770 2490 2587 2900 2701 2774 2865 2979 3079 2247 2550 2400 2581 3076 2700 2782 1819 2770 3086 1936 2776 2163 2376 3010 2599 2810 2772 2990 3408 2342 2680 2157 2808 2905 2703 2813 2862 2777 2988 2450 2353 2166 2806 2603 2825 3127 2878 3196 3102 1945 2239 2488 2560 1729 2860 2622 2695 2979 2758 2913 2342 2186 3006 1848 2864 2976 2910 3003 2895 2494 2242 2484 2883 2188 2488 2618 3135 2564 3009 2390 2336 2921 2554 2303 2475 2973 3025 2280 2561 2494 3106 2314 3115 2200 2853 2909 2910 2890 3119 2495 2044 2603 2789 3082 2959 2495 2143 2880 2038 3099 2047 2601 2378 3173 3269 2592 2136 2676 2150 3282 2057 2608 2262 3195 2969 2705 2147 2786 2332 3220 2047 2492 2260 3282 2683 2775 2147 2978 2386 3077 2157 2509 2379 3282 2956 2495 1717 2461 2589 3070

Tree=0
num_leaves=22
num_cat=0
split_feature=0 3 0 1 3 1 1 0 2 1 0 9 2 1 1 1 9 8 6 7 0
split_gain=2520.93 187.936 151.267 148.358 85.1057 66.6951 95.2216 45.6851 37.4885 31.4867 13.8814 9.26355 8.70952 13.7687 7.64306 14.8627 3.13119 1.51328 3.39373 1.24099 7.10543e-15
threshold=840.14924248422108 411.73352056744704 491.24272392549148 -657.26063610082429 323.36888658066619 -484.16892201831746 374.71078087886048 1108.4592104460869 158.19998600003103 -453.79834247712353 186.29705062927962 71.977543461870653 311.76835979881582 512.46927907957456 448.94026314500792 -379.0912782303746 369.90238286409965 370.40846319698181 248.26564520546975 -692.35703227675288 386.70299840542015
decision_type=2 2 2 2 2 2 2 2 2 2 2 2 2 2 2 2 2 2 2 2 2
left_child=2 3 10 -2 5 11 -7 9 -3 -5 17 -4 -6 -14 15 -12 -9 19 -19 -1 -16
right_child=1 8 4 7 12 6 -8 16 -10 -11 14 -13 13 -15 20 -17 -18 18 -20 -21 -22
leaf_value=-2.3317349604955551 -2.293198600512282 -2.3381142903576508 -2.3654542754809191 -2.1406588422451587 -2.3654542754809191 -2.1268252771229581 -2.3654542754809191 -1.8700717466835952 -2.079573126691963 -1.9508725338575905 -2.3654542754809191 -2.2450281505331904 -2.1884278718077579 -2.3654542754809191 -2.3654542754809191 -2.3144003830735018 -1.9355330094175274 -2.3618671143122634 -2.32654737357473 -2.3642258851353684 -2.3654542754809191
leaf_weight=2.9656592756509772 2.7679486572742453 3.6576464399695388 6.9198716431856138 2.6690933480858794 16.805402562022213 19.276785291731361 5.3381866961717597 24.021840132772926 2.2736721113324165 12.060347720980642 21.550457403063774 2.0759614929556847 1.9771061837673176 2.4713827297091484 16.706547252833847 42.112361714243889 1.9771061837673176 27.877197191119194 8.9958331361412984 325.62938846647739 6.0301738604903212
leaf_count=30 28 37 70 27 170 195 54 243 23 122 218 21 20 25 169 426 20 282 91 3294 61
internal_value=-2.31553 -1.97498 -2.34907 -1.93898 -2.27068 -2.22116 -2.17858 -1.91491 -2.23901 -1.98526 -2.35859 -2.33766 -2.34899 -2.28678 -2.34057 -2.33168 -1.87505 -2.36285 -2.35325 -2.36393 -2.36545
internal_weight=0 49.4277 506.732 43.4963 54.8647 33.6108 24.615 40.7284 5.93132 14.7294 451.868 8.99583 21.2539 4.44849 86.3995 63.6628 25.9989 365.468 36.873 328.595 22.7367
internal_count=5626 500 5126 440 555 340 249 412 60 149 4571 91 215 45 874 644 263 3697 373 3324 230
is_linear=0
shrinkage=1


Tree=1
num_leaves=21
num_cat=0
split_feature=0 0 0 5 5 5 5 0 5 6 3 3 4 0 5 8 6 5 3 0
split_gain=3825.51 127.291 115.694 85.8144 84.435 59.8328 47.3562 13.5972 32.0513 18.658 12.6012 11.1375 7.32987 1.69297 2.14221 1.17481 0.53024 1.28516 0.444316 0.198642
threshold=-751.11714484447339 -682.05946938892646 -819.81079286685519 -393.34778637968162 -462.17333851281848 380.78351613451713 291.30782071750031 -520.96972160789437 -500.03205404230386 414.52442420218341 -81.534458024140989 -108.31375044517534 148.00355214077015 -882.7390419393555 291.30782071750031 22.459958506328956 -271.73253230567866 -523.37029016195629 -769.62408799194361 -1010.5959030239597
decision_type=2 2 2 2 2 2 2 2 2 2 2 2 2 2 2 2 2 2 2 2
left_child=2 3 10 -2 -4 11 15 8 -3 -10 12 -6 -1 19 -15 -5 17 -9 -18 -12
right_child=1 7 4 6 5 -7 -8 16 9 -11 13 -13 -14 14 -16 -17 18 -19 -20 -21
leaf_value=-1.8236676066430264 -1.8498791629383993 -2.0589475286276819 -1.7874706955684641 -2.1946859451572909 -2.2225297229069545 -1.8521080367730398 -1.959836938780666 -2.2173090145788925 -2.2319097189573731 -2.0815705980492836 -1.7987822302792642 -2.0833108341586373 -1.9458321815196746 -1.8273937592536431 -1.7874706955684641 -2.2399320840004942 -2.2283305099381341 -2.237254797678411 -2.2398056274917093 -1.7874706955684641
leaf_weight=2.7626667171716681 3.2046933919191352 3.3152000606060019 4.0887467414140692 2.2101333737373334 2.8731733858585349 2.320640042424202 2.320640042424202 8.840533494949339 31.162880569696426 2.2101333737373343 4.4202667474746624 2.8731733858585349 2.2101333737373352 7.5144534707069379 6.0778667777776718 4.0887467414140701 8.6195201575756055 93.378135040402412 395.39286056160927 31.825920581817634
leaf_count=25 29 30 37 20 26 21 21 80 282 20 40 26 20 68 55 37 78 845 3578 288
internal_value=-2.18926 -2.23308 -1.83302 -2.07079 -1.97257 -2.06639 -2.15292 -2.23662 -2.20722 -2.22195 -1.80207 -2.15292 -1.87796 -1.79449 -1.80954 -2.22406 -2.23875 -2.23553 -2.23956 -1.78885
internal_weight=0 554.743 66.967 11.8242 12.1557 8.06699 8.61952 542.919 36.6882 33.373 54.8113 5.74635 4.9728 49.8385 13.5923 6.29888 506.231 102.219 404.012 36.2462
internal_count=5626 5020 606 107 110 73 78 4913 332 302 496 52 45 451 123 57 4581 925 3656 328
is_linear=0
shrinkage=1


Tree=2
num_leaves=21
num_cat=0
split_feature=3 5 1 4 1 5 1 7 8 8 3 3 8 3 5 1 4 6 6 7
split_gain=755.846 504.643 471.293 238.665 214.323 122.806 261.337 69.4833 60.4265 57.6787 46.9637 46.8265 13.2446 22.3926 8.82738 15.8023 8.23035 5.63337 2.65807 0.421704
threshold=214.72671371484441 373.77653888291917 332.47573356504148 87.522105251822452 -612.24410656692874 -263.33915295561638 177.54506954860543 -90.296762707959417 610.16521309283246 -257.68784229976723 -167.33390631448171 384.59190784109052 488.74733430156289 -4.236050154473725 367.50066314318491 -788.15108858296333 197.37107442681133 -685.89669745919571 -170.22952535081478 -44.125502242840064
decision_type=2 2 2 2 2 2 2 2 2 2 2 2 2 2 2 2 2 2 2 2
left_child=8 4 3 9 11 16 -7 -5 12 -3 -10 -2 14 18 17 -16 -6 -1 -14 -4
right_child=1 2 19 7 5 6 -8 -9 10 -11 -12 -13 13 -15 15 -17 -18 -19 -20 -21
leaf_value=-2.3392306812559895 -2.1821674991784157 -2.1520401395531756 -2.388755108037206 -2.0168974120913834 -2.3839729874617714 -2.1653296376413356 -2.366557299062408 -2.3409339022828566 -2.3662999331612506 -1.8892592462424784 -2.051063824325722 -1.8722860858902304 -2.3112847547151598 -2.177472326249807 -2.2315688839055179 -2.3673839760862969 -2.3050033747160747 -2.3843796252640752 -2.3795324469274388 -2.3629316569298573
leaf_weight=7.0672196075320235 1.9362245500087727 2.3234694600105312 8.6161992475390417 2.4202806875109673 41.822450280189514 30.882781572639942 33.787118397653103 5.2278062850236884 2.2266582325100899 20.620791457593445 2.5170919150114051 3.2915817350149155 1.9362245500087736 2.1298470050096494 2.226658232510089 56.15051195025444 3.5820154175162306 308.53738204389811 5.4214287400245667 1.9362245500087727
leaf_count=73 20 24 89 25 432 319 349 54 23 213 26 34 20 22 23 580 37 3187 56 20
internal_value=-2.33895 -2.24621 -2.09589 -1.9965 -2.29986 -2.31471 -2.27046 -2.23839 -2.37639 -1.91587 -2.19903 -1.98706 -2.37858 -2.32024 -2.38006 -2.3622 -2.37774 -2.38337 -2.36157 -2.38402
internal_weight=0 156.447 41.1448 30.5923 115.302 110.074 64.6699 7.64809 388.213 22.9443 4.74375 5.22781 383.469 9.4875 373.982 58.3772 45.4045 315.605 7.35765 10.5524
internal_count=5626 1616 425 316 1191 1137 668 79 4010 237 49 54 3961 98 3863 603 469 3260 76 109
is_linear=0
shrinkage=1


Tree=3
num_leaves=26
num_cat=0
split_feature=1 7 3 2 1 7 2 3 0 5 1 7 3 8 3 7 1 8 8 1 2 1 4 7 0
split_gain=714.765 915.7 194.819 151.64 146.286 288.917 78.5907 90.7465 52.0771 50.5034 42.9057 84.6629 103.094 39.4642 22.773 16.3417 15.6823 13.4325 10.1405 7.56904 7.34006 3.77697 6.42576 3.15544 3.55271e-15
threshold=-544.36036361722324 -164.08956033915402 309.26056767035755 539.32144315549874 196.42184178426575 -25.799519603726779 437.46545421957569 -205.10888302735654 196.44845011765898 -290.06195837587683 -321.71705063555987 -114.78559282246431 34.586521991299442 -191.96015906035629 -864.0524207857369 4.6741422868228666 -752.01504670667748 93.530923805175448 293.03934468680472 269.30414298224696 -41.45833415876087 374.71078087886048 -65.108642462168646 -93.074623291227311 330.73646824388709
decision_type=2 2 2 2 2 2 2 2 2 2 2 2 2 2 2 2 2 2 2 2 2 2 2 2 2
left_child=1 2 13 10 5 8 18 -8 -5 -7 11 12 -2 16 -12 -9 -1 -13 23 -16 -15 22 -6 -3 -23
right_child=3 6 -4 4 21 9 7 15 -10 -11 14 17 -14 20 19 -17 -18 -19 -20 -21 -22 24 -24 -25 -26
leaf_value=-1.9380554262404677 -2.0955484660473789 -2.2845245281610653 -2.2994831036962884 -1.9020041948246522 -2.2187326981013822 -2.1021723692554874 -1.9348936750981531 -2.1519047762297361 -2.1442234058996616 -2.2871238462156405 -2.1830911397698376 -2.32868794164601 -2.3190997268299598 -1.9174208398379944 -2.3136939312448828 -2.3184442005765371 -2.1340839970639638 -2.2746878231605785 -2.2373963519574276 -2.3284713373882675 -1.8532151039216964 -2.3301125678874595 -2.3301125678874595 -2.3301125678874595 -2.3301125678874595
leaf_weight=2.0405188202857971 11.937035098671915 4.3871154636144594 3.2648301124572745 8.8762568682432157 2.2445707023143768 4.3871154636144665 3.1628041714429855 2.2445707023143751 2.9587522894144049 23.261914551258087 3.0607782304286948 35.09692370891571 9.0803087502717954 5.8154786378145245 200.99110379815102 4.285089522600174 2.0405188202857998 17.140358090400696 3.7749598175287238 152.32472993433475 18.976825028657913 17.038332149386409 3.0607782304286983 28.159159719944004 4.3871154636144629
leaf_count=20 117 43 32 87 22 43 31 22 29 228 30 344 89 57 1970 42 20 168 37 1493 186 167 30 276 43
internal_value=-2.27999 -2.13818 -1.93339 -2.30087 -2.23044 -2.16929 -2.28121 -2.15472 -1.96256 -2.25778 -2.31172 -2.27687 -2.19213 -1.89199 -2.31889 -2.2612 -2.03607 -2.31097 -2.31497 -2.32006 -1.86828 -2.32076 -2.28299 -2.32397 -2.33011
internal_weight=0 78.1519 32.1382 495.846 66.2148 39.484 46.0137 9.69246 11.835 27.649 429.631 73.2546 21.0173 28.8733 356.377 6.52966 4.08104 52.2373 36.3212 353.316 24.7923 26.7308 5.30535 32.5463 21.4254
internal_count=5626 766 315 4860 649 387 451 95 116 271 4211 718 206 283 3493 64 40 512 356 3463 243 262 52 319 210
is_linear=0
shrinkage=1


Tree=4
num_leaves=27
num_cat=0
split_feature=1 6 6 9 3 3 2 6 1 9 6 5 1 0 6 4 1 4 2 6 7 4 9 0 6 9
split_gain=913.091 1592.45 119.385 73.2861 100.74 63.2742 109.954 45.6674 36.9438 27.5418 23.2383 22.504 22.1038 41.5157 56.856 29.6493 17.9654 14.0583 6.52837 3.61757 2.01926 1.71998 1.68444 21.1328 0.376533 0.247301
threshold=259.17679597614006 243.79741256689735 80.028261899479318 -43.012186799158201 -78.374416363249793 -49.783011053359665 561.15753344476764 357.58448186067329 593.55241211306804 -43.012186799158201 -157.19174646952692 306.67003169021649 -9.6888343365618859 -313.47546302503395 291.80900507551013 143.08964676447394 400.13521401828763 95.223429314699914 368.88496295131273 535.63081982797655 -295.64637139141615 -315.71110444752696 -276.81307013646341 -374.76499741133432 642.74335839801927 603.2527641015007
decision_type=2 2 2 2 2 2 2 2 2 2 2 2 2 2 2 2 2 2 2 2 2 2 2 2 2 2
left_child=12 2 10 16 8 9 -7 -6 -5 -4 21 -12 22 14 17 -16 -3 -14 -18 20 -15 -2 23 -1 25 -24
right_child=1 3 5 4 7 6 -8 -9 -10 -11 11 -13 13 19 15 -17 18 -19 -20 -21 -22 -23 24 -25 -26 -27
leaf_value=-2.200387778371911 -2.3056089965345228 -1.9975640995261721 -2.1793213595616936 -2.3301125678874595 -2.0536620192902215 -2.0351621719724773 -2.3199027464904027 -1.9058225404339195 -2.0662279533173686 -2.3242783842319983 -2.2898720988034578 -2.1793213595616936 -2.2388247530431844 -2.2974411394168768 -1.9380554262404674 -2.2075947111227747 -1.8437821440887099 -2.3244795629787385 -1.9064915038197352 -2.2566018538286485 -2.3279771804057221 -2.3281244485079111 -2.3295608927350484 -2.3301125678874595 -2.3096929250933456 -2.3164994726913837
leaf_weight=3.4688819944858542 10.202594101428984 2.8567263484001186 5.3053489327430716 2.6526744663715389 7.9580233991146114 11.018801629543303 4.8972451686859122 15.201865211129187 2.6526744663715363 8.5701790452003497 34.790845885872841 5.3053489327430716 10.406645983457571 6.1215564608573905 2.0405188202857962 2.0405188202857971 13.365398272871973 8.8762568682432157 6.0195305198431006 2.0405188202857962 46.829906925559044 50.298788920044899 271.89913280308247 33.056404888629913 2.4486225843429557 3.6729338765144339
leaf_count=34 100 28 52 26 78 108 48 149 26 84 341 52 102 60 20 20 131 87 59 20 459 493 2665 324 24 36
internal_value=-2.27999 -2.18627 -2.27873 -1.94851 -2.00164 -2.19081 -2.12277 -1.95662 -2.19817 -2.26885 -2.30476 -2.27524 -2.32197 -2.29821 -2.24237 -2.07283 -1.88051 -2.27825 -1.86326 -2.32193 -2.32445 -2.32433 -2.32789 -2.31779 -2.32921 -2.32939
internal_weight=0 181.096 130.389 50.7069 28.4652 29.7916 15.916 23.1599 5.30535 13.8755 100.598 40.0962 392.902 78.3559 23.3639 4.08104 22.2417 19.2829 19.3849 54.992 52.9515 60.5014 314.546 36.5253 278.021 275.572
internal_count=5626 1775 1278 497 279 292 156 227 52 136 986 393 3851 768 229 40 218 189 190 539 519 593 3083 358 2725 2701
is_linear=0
shrinkage=1


Tree=5
num_leaves=29
num_cat=0
split_feature=5 1 3 7 0 0 3 5 7 9 3 2 5 4 1 4 5 8 3 7 4 4 1 8 5 5 0 0
split_gain=248.957 148.271 202.368 183.339 177.235 90.5791 144.629 80.5595 25.1705 76.6827 41.082 16.418 21.523 7.1519 6.75004 11.6728 6.56212 10.2082 14.3133 5.45023 11.1081 2.92041 0.775342 0.537033 1.38538 0.324858 3.55271e-15 8.88178e-16
threshold=51.50046335054892 253.24710190584759 -284.60545010605773 -56.165411650510329 942.0742794651643 -656.38307722381694 214.72671371484441 -480.55212445446381 222.15904213145788 209.62999818598396 -178.17820507491456 787.65012973724379 150.18639737876597 110.78655676627783 374.71078087886048 287.42932999111025 150.18639737876597 -278.18218912020001 -41.702661909966146 254.08710175107518 742.82337114571635 233.67415665103303 467.67430927479046 -243.1972677769925 339.32874676639693 157.97066582141909 -733.50876469333173 354.70135971030294
decision_type=2 2 2 2 2 2 2 2 2 2 2 2 2 2 2 2 2 2 2 2 2 2 2 2 2 2 2 2
left_child=1 2 3 7 -5 26 -7 -1 14 13 -11 16 -13 -10 15 -3 17 18 -2 27 -21 -19 -16 24 -18 -25 -4 -14
right_child=11 8 5 4 -6 6 -8 -9 9 10 -12 12 19 -15 22 -17 23 21 -20 20 -22 -23 -24 25 -26 -27 -28 -29
leaf_value=-2.1737687444071936 -2.3197954874629128 -2.471638373912032 -2.4895022429060458 -2.1093830552291868 -2.4295049051231201 -2.3421101554517962 -2.4582486967839219 -2.4226885596607177 -2.484865446309239 -2.0369508950576911 -2.3665263331646451 -2.2944370067645137 -2.4895022429060458 -2.3763644059439573 -2.473788654439089 -2.348079946703435 -2.4711555666419236 -2.4857435107810595 -2.4616814633252044 -2.3197954874629128 -2.4895022429060458 -2.4538281501702524 -2.4895022429060458 -2.4728643257057388 -2.4895022429060458 -2.4895022429060458 -2.4895022429060458 -2.4895022429060458
leaf_weight=3.8006735742092159 2.6516327261924744 8.396836966276167 27.31181707978249 16.705286175012592 5.8335919976234427 60.722389429807663 47.994552344083786 22.450490415096283 10.783306419849398 1.7677551507949831 2.0329184234142295 2.5632449686527243 3.535510301589964 1.7677551507949818 9.5458778142929059 2.4748572111129752 16.351735144853592 26.604715019464493 5.3916532099246961 1.7677551507949831 2.1213061809539795 9.8110410869121534 44.193878769874573 3.0051837563514701 27.753755867481232 123.56608504056931 4.3310001194477072 2.0329184234142303
leaf_count=43 30 95 309 189 66 687 543 254 122 20 23 29 40 20 108 28 185 301 61 20 24 111 500 34 314 1398 49 23
internal_value=-2.44021 -2.4088 -2.38456 -2.29684 -2.19224 -2.41505 -2.39338 -2.38665 -2.46542 -2.41 -2.21324 -2.47982 -2.42295 -2.46958 -2.47944 -2.44351 -2.48299 -2.46589 -2.41491 -2.45778 -2.41236 -2.47714 -2.48671 -2.48745 -2.4827 -2.48911 -2.4895 -2.4895
internal_weight=0 270.113 189.15 48.79 22.5389 140.36 108.717 26.2512 80.9632 16.3517 3.80067 227.157 12.0207 12.5511 64.6115 10.8717 215.136 44.459 8.04329 9.45749 3.88906 36.4158 53.7398 170.677 44.1055 126.571 31.6428 5.56843
internal_count=5626 3056 2140 552 255 1588 1230 297 916 185 43 2570 136 142 731 123 2434 503 91 107 44 412 608 1931 499 1432 358 63
is_linear=0
shrinkage=1


Tree=6
num_leaves=25
num_cat=0
split_feature=5 2 5 2 6 1 8 9 1 1 0 6 6 0 9 2 8 0 0 6 5 2 8 0
split_gain=1142.64 458.604 156.829 171.12 175.384 83.8476 78.7658 61.8445 95.7036 37.9016 37.2565 36.1002 31.1338 42.8925 83.2529 11.9887 14.2385 8.88135 6.1359 6.07791 3.74324 6.66341 1.40785 1.13687e-13
threshold=-567.96558129922914 -32.802998708557567 -343.52281542067573 -167.53781922884488 30.612838088807873 -295.49408834844854 -180.17483443206274 -140.02097896050324 -80.430490663278022 -305.37432326030756 -108.8512533733186 195.55030059780364 -3.0143719513895388 89.886933045292992 -41.503108081562402 -415.89262030596404 -6.0602619634845061 317.03139579525077 -188.87393927226873 140.71233477429391 -136.54267153316246 -616.01977879686694 -660.85356459979403 77.974908565090303
decision_type=2 2 2 2 2 2 2 2 2 2 2 2 2 2 2 2 2 2 2 2 2 2 2 2
left_child=1 5 3 4 9 6 -1 8 -5 -2 -6 17 13 18 -15 23 -17 -3 -4 -9 21 -14 -22 -7
right_child=2 11 12 7 10 15 -8 19 -10 -11 -12 -13 20 14 -16 16 -18 -19 -20 -21 22 -23 -24 -25
leaf_value=-1.9252575298731036 -2.1915736506491483 -2.3398814304825146 -2.3321484363757468 -2.3127188334434363 -2.0809313387099704 -1.845522164371294 -2.3003326891936169 -2.3398814304825146 -2.0618043432949529 -1.9536632538331233 -2.3130140790634264 -2.1338984029361723 -2.255134127720591 -2.2155044176710925 -2.3194533616349435 -2.0338495038422351 -1.8867187698805621 -2.2275270518208732 -2.3071226839329757 -2.2965165825780214 -2.2986848249732459 -2.3262366948998268 -2.3370042072405974 -1.8455221643712938
leaf_weight=3.1353716403245926 2.0228204131126395 8.3947047144174558 90.521213486790657 9.203832879662512 2.1239614337682715 4.1467818468809154 2.5285255163908031 27.004652515053749 6.4730253219604483 9.7095379829406756 9.304973900318144 3.6410767436027518 3.5399357229471198 31.758280485868454 48.952253997325897 2.1239614337682724 7.2821534872055036 2.2251024544239035 33.57881885766983 11.530076354742048 2.4273844957351676 47.637420728802681 191.15652903914452 8.5969867557287198
leaf_count=31 20 83 895 91 21 41 25 267 64 96 92 36 35 314 484 21 72 22 332 114 24 471 1890 85
internal_value=-2.28981 -2.03923 -2.30999 -2.24424 -2.13048 -1.92102 -2.0927 -2.29284 -2.20912 -1.99468 -2.26988 -2.26976 -2.32131 -2.30692 -2.27855 -1.87713 -1.91994 -2.31634 -2.32538 -2.32691 -2.33334 -2.32132 -2.33652 -1.84552
internal_weight=0 42.0747 526.945 77.3729 23.1613 27.8138 5.6639 54.2116 15.6769 11.7324 11.4289 14.2609 449.572 204.811 80.7105 22.1499 9.40611 10.6198 124.1 38.5347 244.761 51.1774 193.584 12.7438
internal_count=5626 416 5210 765 229 275 56 536 155 116 113 141 4445 2025 798 219 93 105 1227 381 2420 506 1914 126
is_linear=0
shrinkage=1


Tree=7
num_leaves=27
num_cat=0
split_feature=1 6 4 3 3 4 7 2 7 3 7 7 1 0 5 4 5 7 0 3 0 4 2 5 0 6
split_gain=950.743 1062.1 405.75 392.827 219.544 140.431 98.1271 78.0923 45.6681 102.376 39.9756 35.3604 29.3216 77.9991 76.2896 25.7555 5.89913 4.51397 3.8637 17.2237 5.69004 2.50747 1.35972 0.447816 1.37997 0.171955
threshold=299.47108139127334 -226.43053706604223 176.89645805146856 345.57978061856682 110.22270865184655 -309.25641712293225 191.97639576636857 648.93840986249063 -313.34270628869001 -152.47802033231176 149.45366258446992 43.576191181609779 6.3423296937280105 -443.95540792716969 282.41833170780399 224.67655773041858 624.77594324371194 -141.38761256322707 -630.25883622900039 -195.95533738730285 -656.38307722381694 -143.69123209410972 299.33934131775442 733.83793182720672 98.880475374216701 -713.72793843567638
decision_type=2 2 2 2 2 2 2 2 2 2 2 2 2 2 2 2 2 2 2 2 2 2 2 2 2 2
left_child=12 3 8 5 6 11 -4 -6 9 -3 -7 -2 18 14 15 -14 17 -15 19 -1 -21 -10 -5 25 -25 -20
right_child=1 2 4 22 7 10 -8 -9 21 -11 -12 -13 13 16 -16 -17 -18 -19 23 20 -22 -23 -24 24 -26 -27
leaf_value=-2.1495455697144279 -1.993711501234289 -1.9005404391544278 -1.8508636051274951 -2.2787053381844529 -2.2462555448683448 -1.8330652334181468 -2.1850645060436849 -1.9219783586005743 -2.2766696679205229 -2.2372713416619892 -2.0203858012444029 -2.2591968314884592 -2.2430811085656823 -2.2454993693402088 -1.9235159748918842 -2.1018282108074464 -2.1850645060436849 -2.276712980053798 -2.2695248644451618 -2.272740953971665 -2.1935773089655726 -2.2593122664393235 -2.2318849221140686 -2.2318849221140686 -2.2787053381844529 -2.2785054218049892
leaf_weight=3.0969395637512198 2.4561934471130362 2.7765665054321298 12.387758255004885 5.6599240303039542 10.785892963409422 35.454618453979492 2.6697754859924308 2.2426114082336417 49.123868942260742 12.067385196685787 3.0969395637512198 2.5629844665527344 9.8247737884521502 15.057533740997313 3.0969395637512198 4.8055958747863761 2.1358203887939444 50.191779136657715 5.4463419914245597 67.064760208129883 2.349402427673339 36.095364570617676 2.1358203887939453 2.1358203887939435 5.9802970886230469 250.104567527771
leaf_count=29 23 26 116 53 101 332 25 21 460 113 29 24 92 141 29 45 20 470 51 628 22 338 20 20 56 2342
internal_value=-2.22827 -2.13109 -2.20808 -1.93899 -2.04015 -1.8805 -1.91012 -2.19044 -2.25522 -2.17429 -1.84811 -2.12928 -2.2685 -2.24228 -2.14896 -2.19668 -2.26683 -2.26951 -2.27514 -2.26491 -2.27006 -2.26932 -2.26588 -2.27795 -2.26638 -2.27831
internal_weight=0 179.516 128.149 51.3665 28.086 43.5707 15.0575 13.0285 100.063 14.844 38.5516 5.01918 421.291 85.1124 17.7273 14.6304 67.3851 65.2493 336.178 72.5111 69.4142 85.2192 7.79574 263.667 8.11612 255.551
internal_count=5626 1681 1200 481 263 408 141 122 937 139 361 47 3945 797 166 137 631 611 3148 679 650 798 73 2469 76 2393
is_linear=0
shrinkage=1


Tree=8
num_leaves=26
num_cat=0
split_feature=7 4 3 2 1 4 1 0 4 7 1 3 1 1 4 7 1 7 6 2 2 0 1 8 0
split_gain=363.486 414.549 225.2 184.058 160.672 86.4091 134.502 59.5764 47.8138 64.8007 59.6878 52.6359 21.619 17.9412 28.6407 54.2585 16.6748 40.8205 13.397 4.07201 1.58506 0.422058 0.372114 1.25657 2.84217e-14
threshold=185.77600215106341 -398.9407572474492 329.36781476895857 -758.05744991216841 351.5372807275279 217.26282062866707 -74.096035256149619 304.42889900303419 -447.53837504419471 78.867715516505399 342.49084167362224 219.96098463332942 -166.26830655960561 165.31386774086482 7.2357176734740856 -13.49874814363379 -131.06283963099091 -114.78559282246431 -49.673826050659834 -758.05744991216841 -106.70202949852393 552.6574765465258 322.13249013993146 -444.42449484110585 257.50793229718528
decision_type=2 2 2 2 2 2 2 2 2 2 2 2 2 2 2 2 2 2 2 2 2 2 2 2 2
left_child=8 2 4 12 7 6 -5 -2 9 16 11 -11 -3 14 15 -10 17 -1 -6 -16 -7 -18 23 -15 -24
right_child=1 3 -4 5 18 20 -8 -9 13 10 -12 -13 -14 22 19 -17 21 -19 -20 -21 -22 -23 24 -25 -26
leaf_value=-2.4047870824098538 -1.9446904111948871 -1.9331716449957737 -2.4262993655199696 -2.243971141207838 -2.2553484224049152 -2.4017374484057377 -2.3834759829761185 -2.1320903148690604 -2.4049936257484297 -2.0186038597357108 -2.4096049374813902 -2.3461661109347878 -2.159188516902697 -2.3852053888096201 -2.3784586165138912 -2.3194550260730606 -2.4262993655199696 -2.257597776919587 -2.4262993655199696 -2.4198905362472334 -2.4262993655199696 -2.4020165611002176 -2.4262993655199696 -2.4235023932831399 -2.4262993655199696
leaf_weight=13.945521503686903 12.354421734809884 2.4334467053413391 5.6156462430953971 27.42307248711586 2.3398526012897491 8.1426870524883253 46.703457921743393 6.4579931795597068 63.363208442926407 3.5565759539604169 2.9950113296508789 1.8718820810317991 1.8718820810317982 2.4334467053413418 6.2708049714565268 26.20634913444519 13.664739191532133 7.1131519079208401 2.2462584972381583 109.22431942820549 33.974659770727158 2.0590702891349784 84.515475958585739 17.876473873853683 21.901020348072052
leaf_count=149 132 26 60 293 25 87 499 69 677 38 32 20 20 26 67 280 146 76 24 1167 363 22 903 191 234
internal_value=-2.37669 -2.31163 -2.14196 -2.35247 -2.07371 -2.36436 -2.33187 -2.00902 -2.40375 -2.35551 -2.23042 -2.13156 -2.03144 -2.41033 -2.40119 -2.37997 -2.38416 -2.35507 -2.33908 -2.41764 -2.42155 -2.42312 -2.42512 -2.41891 -2.4263
internal_weight=0 149.563 29.0142 120.549 23.3985 116.244 74.1265 18.8124 376.997 45.206 8.42347 5.42846 4.30533 331.791 205.065 89.5696 36.7825 21.0587 4.58611 115.495 42.1173 15.7238 126.726 20.3099 106.416
internal_count=5626 1598 310 1288 250 1242 792 201 4028 483 90 58 46 3545 2191 957 393 225 49 1234 450 168 1354 217 1137
is_linear=0
shrinkage=1


Tree=9
num_leaves=32
num_cat=0
split_feature=1 7 3 6 6 9 8 2 7 6 5 1 0 3 6 2 0 2 2 0 5 9 3 9 0 2 6 2 5 6 1
split_gain=774.077 224.355 221.23 237.106 135.969 134.832 84.9593 82.5845 65.0023 59.9096 28.1791 26.4339 58.0747 82.8118 26.2146 17.2442 9.05756 5.79461 5.76155 5.55193 3.2195 4.59419 2.76872 1.12689 6.90969 9.68948 0.718327 0.565302 2.29439 0.400241 0.0971391
threshold=231.94025347562641 -44.125502242840064 -81.534458024140989 -262.66428922717358 266.40577988761197 -41.503108081562402 -16.140923404210792 299.33934131775442 -402.67139728270269 408.77805093334706 -83.208050178244619 -14.707640331677601 -381.00955219650126 -115.50530292123581 -199.18478433883479 577.81531662047416 -198.7331333929902 -363.65341503310026 453.78765190466623 -449.6777648961525 243.8891153747189 -167.32409228079578 -209.45962959443008 -228.90050530047517 -528.57073002922368 -172.40297779601823 326.34004925278981 453.78765190466623 -243.79767767272062 -287.29780148339142 -48.469414338660087
decision_type=2 2 2 2 2 2 2 2 2 2 2 2 2 2 2 2 2 2 2 2 2 2 2 2 2 2 2 2 2 2 2
left_child=11 6 3 10 -5 19 8 -7 18 -10 -3 23 13 14 -13 22 -17 -15 -2 -4 26 -22 -8 24 25 -1 -14 30 -29 -26 -25
right_child=1 2 5 4 -6 7 15 -9 9 -11 -12 12 20 17 -16 16 -18 -19 -20 -21 21 -23 -24 27 29 -27 -28 28 -30 -31 -32
leaf_value=-2.2087546040316468 -2.3597139318272369 -2.1200959511993167 -2.2729556974619554 -1.9950547961184808 -2.2573686248471758 -2.2339144919975786 -2.355118518500126 -2.0348647454316637 -2.1580189621829913 -2.3414158314883773 -2.3213750549267695 -2.2548810653025217 -2.3597139318272369 -2.2590743799635105 -2.053848627143362 -2.3093941558953737 -2.1584348280997836 -2.3538627950909738 -2.2953514277283418 -2.3471965746302557 -2.2590743799635105 -2.3406534106409249 -2.3284417546944405 -2.3597139318272369 -2.3451284895281459 -2.3597139318272369 -2.3391752477734151 -2.329761684248747 -2.3597139318272369 -2.3583161602735738 -2.3546311261775537
leaf_weight=1.9872902333736417 5.8625061884522429 2.086654745042325 2.8815708383917835 31.399185687303543 5.8625061884522429 15.500863820314409 21.76082805544138 7.8497964218258849 24.046211823821071 5.4650481417775145 10.433273725211617 2.3847482800483704 33.883298479020596 1.9872902333736426 5.0675900951027897 1.9872902333736422 1.9872902333736409 8.5453480035066569 8.5453480035066587 19.972266845405102 1.9872902333736426 13.116115540266033 17.587518565356731 211.54704534262419 6.8561513051390639 2.2853837683796874 4.8688610717654219 8.3466189801692945 27.325240708887577 35.771224200725555 9.837086655199526
leaf_count=20 59 21 29 316 59 156 219 79 242 55 105 24 341 20 51 20 20 86 86 201 20 132 177 2129 69 23 49 84 275 360 99
internal_value=-2.30975 -2.22546 -2.17271 -2.09958 -2.03633 -2.2515 -2.28349 -2.167 -2.23448 -2.19198 -2.28783 -2.3508 -2.32352 -2.24573 -2.11818 -2.33317 -2.23391 -2.33598 -2.32154 -2.33784 -2.3495 -2.32992 -2.34319 -2.35725 -2.35012 -2.2895 -2.35713 -2.35855 -2.35271 -2.3562 -2.35949
internal_weight=0 183.228 95.9861 49.7816 37.2617 46.2045 87.242 23.3507 43.9191 29.5113 12.5199 375.797 71.8405 17.985 7.45234 43.3229 3.97458 10.5326 14.4079 22.8538 53.8556 15.1034 39.3483 303.956 46.9 4.27267 38.7522 257.056 35.6719 42.6274 221.384
internal_count=5626 1844 966 501 375 465 878 235 442 297 126 3782 723 181 75 436 40 106 145 230 542 152 396 3059 472 43 390 2587 359 429 2228
is_linear=0
shrinkage=1


Tree=10
num_leaves=20
num_cat=0
split_feature=0 4 4 1 0 4 3 0 4 5 4 0 5 1 0 1 8 8 0
split_gain=1751.91 393.886 243.984 87.2061 53.5432 92.5654 46.5582 40.1015 23.798 17.4032 14.1424 38.5174 8.43784 4.63205 3.78729 2.79904 2.45978 2.43484 1.25877
threshold=840.14924248422108 742.82337114571635 134.53894243755033 276.96994638979533 552.6574765465258 186.3174794819416 323.36888658066619 1270.5681387670443 -160.85864911241256 -278.5058338753758 569.96597935563352 166.22822739449057 -29.149093092414038 177.54506954860543 192.27561576940772 -573.28902947893994 157.30657353628348 -138.59310848115481 1083.8856300506411
decision_type=2 2 2 2 2 2 2 2 2 2 2 2 2 2 2 2 2 2 2
left_child=1 4 7 16 10 9 -7 8 12 -6 14 -12 -2 15 -1 -4 17 -3 -17
right_child=2 3 13 -5 5 6 -8 -9 -10 -11 11 -13 -14 -15 -16 18 -18 -19 -20
leaf_value=-0.048034094486723342 0.044517618030921635 0.38682290446327761 0.2544369024362248 0.041481662732583413 0.033700358769783188 0.24358819383668873 -0.027177967764582003 0.22790384516784293 0.13789391555416761 -0.047739810296300644 -0.04968122115472539 0.14785617389386999 -0.050904026199088119 0.23608861755270563 -0.036508526015585165 0.3226314451085987 0.41382603112842076 0.31393743402955765 0.30280780211730146
leaf_weight=339.6553779989481 4.7118140906095505 2.3984754160046577 2.6114334464073172 2.7422537282109261 9.5462768375873583 5.7749967798590651 2.1895639970898628 3.7447502464056006 4.485439822077752 20.968723490834236 8.1513276696205121 3.5391873866319647 4.5577094927430153 2.6019228845834723 90.205532737076283 10.674577780067919 2.4764975756406784 2.1940285190939885 32.055048048496246
leaf_count=3601 42 21 21 29 95 52 22 28 37 208 86 36 41 20 933 82 23 20 229
internal_value=0 -0.0328002 0.242638 0.280817 -0.0392102 0.0173568 0.169151 0.082842 0.0433493 -0.0222622 -0.0441398 0.0101213 -0.00240002 0.300966 -0.0456155 0.304689 0.373661 0.352003 0.30776
internal_weight=0 489.842 65.4427 9.81126 480.031 38.4796 7.96456 17.4997 13.755 30.515 441.551 11.6905 9.26952 47.943 429.861 45.3411 7.069 4.5925 42.7296
internal_count=5626 5126 500 93 5033 377 74 148 120 303 4656 122 83 352 4534 332 64 41 311
is_linear=0
shrinkage=0.05


Tree=11
num_leaves=30
num_cat=0
split_feature=4 1 3 2 7 5 9 6 1 3 4 5 8 1 3 6 5 4 4 8 3 7 5 8 8 8 1 7 7
split_gain=445.656 559.218 485.395 334.014 232.383 43.5158 49.7266 25.4167 41.7961 62.4775 45.1149 22.0529 44.5747 49.8512 18.4781 27.6934 3.23836 3.64454 3.15357 8.03688 1.65414 1.62865 1.07824 1.05778 1.04675 0.37231 0.268049 3.18168e-05 1.91588e-05
threshold=87.522105251822452 -56.576072155958073 -78.374416363249793 305.5063450570978 -129.26496365444996 -443.56198567247804 213.68811802670774 -293.71060740848498 -89.951971694190945 144.27885654305803 -180.42716010442675 650.36415868026745 -195.39871415280558 -321.71705063555987 -218.76556091239303 -233.13653782906729 -383.09221707741182 318.35330210351339 1.0000000180025095e-35 -528.51138920520225 -753.28075434429104 178.58094983578084 -599.79072570993173 -461.39528862455001 -695.8527876827543 65.87212626059609 286.95191615607661 247.63613304648746 -114.78559282246431
decision_type=2 2 2 2 2 2 2 2 2 2 2 2 2 2 2 2 2 2 2 2 2 2 2 2 2 2 2 2 2
left_child=7 2 14 4 -4 6 26 8 9 10 -1 18 13 -13 23 -16 17 -7 24 -20 -18 -11 -10 -2 -9 -14 -3 -24 -5
right_child=1 5 3 28 -6 16 -8 11 22 21 -12 12 25 -15 15 -17 20 -19 19 -21 -22 -23 27 -25 -26 -27 -28 -29 -30
leaf_value=0.018552908386926383 -0.020730915798066862 -0.050326417353428944 -0.029661606791519191 -0.050233749109292736 0.23076744252597156 -0.050310264247182372 0.20094528403023679 -0.021817783778469723 -0.020445418429144602 -0.050368537446543786 0.17768923314002671 0.26875733906742594 -0.026687275980083622 -0.050293600706024691 0.13090221400232255 -0.022109779700460439 -0.0070333307617146323 0.040859351932552239 0.056685672707969696 -0.039424115674467304 -0.049857697097187965 -0.0030845764932741931 -0.050329962077262903 -0.05036196984695606 -0.049490854626110997 -0.050286149858571084 -0.026321330316001524 -0.050448329045027752 -0.050394155910096453
leaf_weight=9.3874156177043897 3.373750992119315 2.6274910792708379 9.5526084005832654 2.1771253198385248 82.913578994572163 2.2007896378636351 3.9417811632156372 3.4682923257350913 3.3251547291874877 13.110483534634112 8.474110499024393 2.9524646699428558 2.1095220819115612 2.091703601181508 4.1091611683368674 10.54730101674795 2.3101576492190352 2.1840002909302711 2.3144183009862891 36.151536986231804 94.294776417315006 2.1148945540189734 24.703249722719193 28.083031021058559 231.94619932770729 8.0460777282714826 2.0863019078969955 7.3712403774261466 12.840424254536625
leaf_count=86 32 25 88 21 581 21 29 32 31 124 65 21 20 20 34 98 22 20 20 338 891 20 235 266 2199 77 20 69 121
internal_value=0 0.0485495 0.110122 0.168341 0.203863 -0.0377045 0.0698897 -0.0371725 -0.00978472 0.0306176 0.0940525 -0.043661 0.0149603 0.136454 -0.0255796 0.0207895 -0.0469261 -0.0049 -0.0469144 -0.0336414 -0.0488336 -0.0438005 -0.0475475 -0.047184 -0.0490832 -0.0453842 -0.0397019 -0.0503572 -0.0503709
internal_weight=0 263.242 153.597 107.484 92.4662 109.645 8.65557 357.567 68.4865 33.0869 17.8615 289.08 15.1998 5.04417 46.1132 14.6565 100.99 4.38479 273.88 38.466 96.6049 15.2254 35.3996 31.4568 235.414 10.1556 4.71379 32.0745 15.0175
internal_count=5626 2269 1241 811 669 1028 74 3357 630 295 151 2727 138 41 430 132 954 41 2589 358 913 144 335 298 2231 97 45 304 142
is_linear=0
shrinkage=0.05


Tree=12
num_leaves=26
num_cat=0
split_feature=3 1 5 4 9 7 8 3 1 4 9 1 5 5 4 3 0 2 2 8 1 3 8 5 4
split_gain=638.582 341.988 485.698 218.602 134.825 78.3051 52.0049 60.4541 22.4776 10.6939 10.6743 10.2137 33.2688 9.48359 14.8173 36.9261 4.26583 7.57683 3.99061 3.65095 3.13347 4.00448 0.817906 0.638372 1.73965e-05
threshold=214.72671371484441 221.638443220911 -263.33915295561638 294.24490534593178 -326.12292989189933 -189.76861322230425 498.88920121627717 82.260360720841348 -447.16571689292317 197.37107442681133 -167.32409228079578 332.47573356504148 380.78351613451713 367.50066314318491 126.76840506670358 12.04974556476677 -259.40825376528363 334.16277468560486 -240.7539495948233 -130.32868922812295 -267.99627278354791 -27.378549106804481 -199.59190748733906 186.33633342502074 224.67655773041858
decision_type=2 2 2 2 2 2 2 2 2 2 2 2 2 2 2 2 2 2 2 2 2 2 2 2 2
left_child=6 2 8 4 -4 -5 13 10 -2 -10 -8 12 19 20 15 -15 17 -13 -12 -3 21 -1 -18 -22 -16
right_child=1 11 3 5 -6 -7 7 -9 9 -11 18 16 -14 14 24 -17 22 -19 -20 -21 23 -23 -24 -25 -26
leaf_value=-0.043538785024059418 0.12704053194937048 0.029693734844164228 -0.028849058902557123 0.26289808100085404 0.25375568392840875 -0.017967642262156271 0.10551295072797812 0.27585202530367747 -0.044722738665808302 0.057393521160437527 0.043282315238254494 0.084146271135393275 0.18236015869002678 -0.030336992773983662 -0.049685304254993068 0.094267853778419064 -0.033974791401397059 -0.049625399163962004 -0.03513747931401854 -0.049599452446105488 -0.048925070368525184 -0.022779990854493837 -0.04962334325961483 -0.040829045959740774 -0.049595308535708156
leaf_weight=75.112828589975834 2.2450422197580329 1.890071928501128 4.5312371626496306 3.0254087969660786 61.515907250344753 13.806157432496546 2.2471350580453864 2.598781742155551 31.148511976003647 2.7937530949711791 2.1312123760580999 1.8692025542259205 2.3491471484303466 23.293947339057926 7.5831493362784412 7.983465462923049 12.800417140126223 2.4406494200229645 6.7936004251241684 6.2589602544903746 164.69058431684971 33.634646028280258 24.01789598166943 28.572682216763496 18.397455714643002
leaf_count=814 20 20 40 26 492 128 22 22 337 28 20 20 19 247 80 83 137 26 70 67 1784 364 256 307 197
internal_value=0 0.0800423 0.126645 0.193374 0.234367 0.0325169 -0.0367156 0.0586399 -0.026183 -0.0363177 0.00811279 -0.0274375 0.0165813 -0.0403706 -0.0217137 0.00146802 -0.0386735 0.00839199 -0.0164111 -0.0312083 -0.0439077 -0.0371183 -0.0441829 -0.0477281 -0.0496216
internal_weight=0 170.692 119.066 82.8787 66.0471 16.8316 373.039 13.7707 36.1873 33.9423 11.1719 51.6263 10.4982 359.269 57.258 31.2774 41.1282 4.30985 8.92481 8.14903 302.011 108.747 36.8183 193.263 25.9806
internal_count=5626 1616 1071 686 532 154 4010 134 385 365 112 545 106 3876 607 330 439 46 90 87 3269 1178 393 2091 277
is_linear=0
shrinkage=0.05


Tree=13
num_leaves=29
num_cat=0
split_feature=1 7 3 2 1 7 2 7 0 1 3 7 5 3 2 8 3 3 7 2 7 7 1 4 7 6 4 4
split_gain=574.366 594.709 114.91 110.638 102.152 166.873 77.6196 61.3886 57.1595 36.7705 51.7755 108.24 30.4694 21.9836 21.6742 19.1697 18.7087 18.6195 24.3716 5.25522 4.7278 3.81668 3.7205 5.82729 2.56085 2.37212 2.19151 1.46766e-05
threshold=-510.97514277367071 -164.08956033915402 214.72671371484441 539.32144315549874 196.42184178426575 93.999089244778574 561.15753344476764 40.401669003236641 71.985230975078792 -251.43386345313394 -27.378549106804481 72.291151813602923 -357.79585613900718 -864.0524207857369 -252.62783788502435 -1.0000000180025095e-35 -188.74934880360635 -301.14693308670405 137.16277850011667 279.53006975159099 -284.66858780972245 -489.92997051142754 374.71078087886048 -65.108642462168646 -93.074623291227311 1.0000000180025095e-35 -109.76181729023939 233.67415665103303
decision_type=2 2 2 2 2 2 2 2 2 2 2 2 2 2 2 2 2 2 2 2 2 2 2 2 2 2 2 2
left_child=1 2 14 9 5 8 17 16 -5 10 11 -2 -7 -11 15 -1 -8 18 -3 -15 -16 -12 23 -6 -19 -9 -4 -24
right_child=3 6 26 4 22 12 7 25 -10 13 21 -13 -14 19 20 -17 -18 24 -20 -21 -22 -23 27 -25 -26 -27 -28 -29
leaf_value=0.070062988835126336 0.11017854382267329 0.14130192089872096 -0.050101468934564276 0.25545797663340397 0.055947854779899275 0.16170597868126407 0.32600222471286666 0.023272385273222423 0.070406758819331047 0.090793822125311785 0.021729095801104218 -0.037092323697799363 -0.029146741894652911 -0.044235961339149477 0.29101556727909633 0.25492538949301918 0.14326776614732828 -0.009916394057084256 -0.049990805182349718 -0.026815501920255808 0.25073371375814446 -0.047499794193965321 -0.049828526442868892 -0.049836033931759172 -0.048369634458757936 -0.050508066357290118 0.023468537259121409 -0.049730926949893783
leaf_weight=2.4650049433112144 23.004969872534275 3.3846490904688826 2.0121404752135277 12.839758113026621 2.3499679267406464 2.3490249961614635 2.775771476328373 2.0412323027849197 6.1822044178843489 3.1819342374801627 2.0913489684462538 27.26151604950428 19.057587951421738 257.25374498218298 26.455935761332508 3.2530071362853041 2.8274661228060705 4.976417511701583 3.2772670835256577 52.052101247012615 10.051735363900663 41.452594883739948 15.161653921008112 2.9189531952142742 33.31687942892313 2.3363347575068474 2.0369521826505652 5.163704425096511
leaf_count=20 211 31 20 99 22 20 21 20 55 29 21 276 187 2628 187 24 24 49 33 532 73 421 156 30 341 22 20 54
internal_value=0 0.109291 0.241349 -0.0219627 0.0380686 0.0875537 -0.00194692 0.124188 0.195316 -0.0317177 -0.00426483 0.0303077 -0.00820378 -0.0399592 0.265748 0.175232 0.233792 -0.0299509 0.0471973 -0.0413043 0.279925 -0.0441748 -0.0400977 -0.00265584 -0.0433724 -0.0161047 -0.0130911 -0.0498037
internal_weight=0 101.211 46.2748 472.321 66.0229 40.4286 54.936 9.9808 19.022 406.298 93.8104 50.2665 21.4066 312.488 42.2257 5.71801 5.60324 44.9552 6.66192 309.306 36.5077 43.5439 25.5943 5.26892 38.2933 4.37757 4.04909 20.3254
internal_count=5626 885 344 4741 623 361 541 87 154 4118 929 487 207 3189 304 44 45 454 64 3160 260 442 262 52 390 42 40 210
is_linear=0
shrinkage=0.05


Tree=14
num_leaves=28
num_cat=0
split_feature=1 6 6 3 2 6 2 5 1 0 6 3 4 1 6 4 3 9 7 6 7 9 0 4 6 7 0
split_gain=779.877 983.98 94.9362 60.3183 66.2406 35.0741 53.822 44.8469 21.9099 38.4002 41.3398 19.7342 16.5978 14.0022 13.3488 12.9294 11.7448 9.11185 5.84039 3.444 2.00738 1.73315 19.3075 1.71207 0.380217 0.253633 3.25714e-05
threshold=259.17679597614006 234.52711076660367 11.146420399577199 -86.582381246058773 608.72454078798398 403.09396395680892 173.20659916803496 135.99405170825653 -9.6888343365618859 -313.47546302503395 291.80900507551013 -78.374416363249793 143.08964676447394 342.49084167362224 -157.19174646952692 95.223429314699914 -4.236050154473725 -512.94683454845153 2.374843649861115 535.63081982797655 -295.64637139141615 -276.81307013646341 -374.76499741133432 -315.71110444752696 642.74335839801927 -742.5267538513998 813.97218941104927
decision_type=2 2 2 2 2 2 2 2 2 2 2 2 2 2 2 2 2 2 2 2 2 2 2 2 2 2 2
left_child=8 2 14 17 -5 6 11 -8 21 10 15 -3 -12 -7 23 -10 -16 -4 -15 20 -11 22 -1 -2 25 -23 -24
right_child=1 5 3 4 -6 13 7 -9 9 19 12 -13 -14 18 16 -17 -18 -19 -20 -21 -22 24 26 -25 -26 -27 -28
leaf_value=0.070900896810202063 -0.024906509247422354 0.17200237116211792 0.091221700506447817 0.16021904431100328 -0.04058727187799737 0.15677457753678758 0.046876833603080641 0.2300736000204954 0.03850036951563484 -0.016918628105739977 0.24948551429973206 0.2886942153665672 0.063500826919028572 0.29198440729529768 -0.024534347035027628 -0.044023334586934575 0.042817256358768506 -0.01908048502981308 0.2490673135153649 0.021520655910779569 -0.047628518056669573 -0.035848123227255412 -0.049825784485367342 -0.047692514298367183 -0.029010199276607498 -0.049243970557653914 -0.049686903596084631
leaf_weight=3.7043893560767165 9.9693468734621984 5.1350440531969115 2.1184140369296101 18.202841140329841 5.3033900931477538 2.6316040307283393 8.127497658133505 5.6721487119793883 10.696584895253187 6.0378667265176764 2.6514174640178672 12.305114388465881 2.1907933056354523 21.898462824523449 19.582545980811123 8.5324001237750036 9.6685353815555555 16.116706825792789 12.425103195011614 2.0890171378850928 44.833215907216072 3.5824388936161986 26.327331289649013 47.627669863402843 2.38583780825138 258.70641914010048 5.0280157923698416
leaf_count=34 100 41 20 154 53 20 67 44 102 60 20 90 20 157 194 87 93 159 90 20 459 37 271 493 24 2664 53
internal_value=0 0.0814272 5.23096e-06 0.0619751 0.114914 0.234958 0.195957 0.122177 -0.041384 -0.0175997 0.0347638 0.254336 0.165339 0.267926 -0.029779 0.00188246 -0.00227222 -0.00626644 0.276448 -0.0413998 -0.0439836 -0.0474965 -0.03705 -0.0437485 -0.0488803 -0.049061 -0.0498035
internal_weight=0 196.784 128.589 41.7414 23.5062 68.195 31.2398 13.7996 376.766 77.0313 24.0712 17.4402 4.84221 36.9552 86.8481 19.229 29.2511 18.2351 34.3236 52.9601 50.8711 299.734 35.0597 57.597 264.675 262.289 31.3553
internal_count=5626 1775 1266 386 207 509 242 111 3851 768 229 131 40 267 880 189 287 179 247 539 519 3083 358 593 2725 2701 324
is_linear=0
shrinkage=0.05


Tree=15
num_leaves=26
num_cat=0
split_feature=5 6 1 0 3 7 4 6 1 3 2 5 3 2 6 0 5 8 6 2 8 5 4 3 5
split_gain=227.622 236.731 154.533 102.665 103.915 39.4128 28.7309 25.7997 18.2697 25.0368 15.8221 17.2342 15.7018 10.4374 9.27095 8.36071 6.60254 9.94534 12.8753 2.8818 0.561238 1.41034 0.495877 0.45524 0.33125
threshold=51.50046335054892 69.457258303494811 286.95191615607661 813.97218941104927 205.29529423345045 385.43020420512829 159.7183935022295 -70.81825831531556 383.59891937767259 163.58697805869181 787.65012973724379 150.18639737876597 -417.92017171956894 881.40833394250478 230.97094111976281 -367.89095739897914 150.18639737876597 -123.33928543033794 -70.81825831531556 546.24010506968591 -243.1972677769925 339.32874676639693 427.28327533667721 -112.30820631825648 157.97066582141909
decision_type=2 2 2 2 2 2 2 2 2 2 2 2 2 2 2 2 2 2 2 2 2 2 2 2 2
left_child=1 7 3 4 -3 12 -5 13 9 -9 16 -12 -4 15 23 -1 17 18 -2 -19 21 -18 -10 -13 -22
right_child=10 2 5 6 -6 -7 -8 8 22 -11 11 14 -14 -15 -16 -17 20 19 -20 -21 24 -23 -24 -25 -26
leaf_value=-0.046609017279581985 -0.04924108955998116 0.16973224256216191 0.10383788452612658 0.14523854760007052 0.028462859906680141 0.21100741412646334 -0.049459366638060991 0.060627214249293862 -0.049150674057179641 -0.02754046363398609 0.12300358116927451 -0.019719699262077214 -0.032292418167225966 0.079387943619028997 0.081029915997434754 -0.017179652226806584 -0.030126483050958996 -0.04719823936185541 0.046325946915772465 0.0075828094917502545 -0.031993856756107462 -0.049028650188203862 -0.01910976333876983 -0.04922477057712131 -0.049054651267357877
leaf_weight=37.772924736142159 5.8396855220198622 58.690344586968422 2.2807540446519843 2.3098945245146743 16.727509133517742 1.9135536178946484 10.544601418077944 26.746785312891006 7.7039194181561452 11.519931048154829 2.8904264867305747 1.7011828944087017 29.731733314692974 2.321243777871131 1.9187754616141317 66.835662230849266 15.79360046982765 25.962983436882499 8.8891796544194204 2.6453340351581565 2.9155633822083464 26.303418323397636 1.6717843562364576 5.6469273790717116 117.72606621682644
leaf_count=435 67 589 25 25 191 19 116 286 90 132 29 20 350 24 22 754 185 304 101 31 34 314 20 65 1398
internal_value=0 0.0292713 0.0812794 0.116137 0.138399 -0.00941775 -0.014473 -0.0118441 0.0187589 0.0340849 -0.0390194 0.0164095 -0.0225937 -0.0254793 -0.0168382 -0.0278062 -0.0422894 -0.0249463 0.00843563 -0.0421328 -0.0469078 -0.0419371 -0.0437941 -0.042394 -0.0486423
internal_weight=0 276.771 122.198 88.2723 75.4179 33.926 12.8545 154.572 47.6424 38.2667 218.233 12.1573 32.0125 106.93 9.26689 104.609 206.076 43.3372 14.7289 28.6083 162.739 42.097 9.3757 7.34811 120.642
internal_count=5626 3056 1315 921 780 394 141 1741 528 418 2570 136 375 1213 107 1189 2434 503 168 335 1931 499 110 85 1432
is_linear=0
shrinkage=0.05


Tree=16
num_leaves=23
num_cat=0
split_feature=3 5 5 3 3 9 7 6 6 4 9 5 3 2 2 2 3 5 2 2 8 2
split_gain=1302.83 696.867 200.496 200.825 132.665 80.2374 69.6876 55.0509 39.1451 34.0224 15.6976 15.5936 43.0201 35.0302 15.0634 10.1626 4.39908 9.97737 2.61177 1.6099 0.925442 0.000256093
threshold=448.22372280126064 -15.561879959762999 -588.30477796259709 140.13243118405418 984.10467997145668 302.6309692816605 254.08710175107518 -276.57023053313264 251.43318728730739 313.54608861324908 94.758200443842838 -462.17333851281848 188.64684179013986 4.5307857952884669 -172.40297779601823 -87.851013793256499 336.99750499005461 -29.149093092414038 -91.427716537712939 -479.58979468336304 45.904535923104788 -8.4276215311471407
decision_type=2 2 2 2 2 2 2 2 2 2 2 2 2 2 2 2 2 2 2 2 2 2
left_child=2 5 3 14 6 8 9 -6 10 -3 -2 12 18 -14 -1 20 19 -18 -4 -13 -5 -16
right_child=1 4 11 15 7 -7 -8 -9 -10 -11 -12 16 13 -15 21 -17 17 -19 -20 -21 -22 -23
leaf_value=0.073834547451729668 0.3157515820926623 -0.042523930032578448 -0.0050130147564393327 0.32256990301032268 0.42623887012347544 0.020890468824006605 0.22390134546690127 0.08678916398998425 0.1122541391691036 0.078391095528257793 0.22772062024120912 -0.039894777000951738 0.25033739246637104 -0.025558467933274123 -0.050630080037846553 0.19648689668774122 0.035925427639891393 -0.043620421371068321 -0.044375186995522869 -0.048813065160057803 0.28653964396951848 -0.050018075007755791
leaf_weight=3.1935613751411447 43.903170093894005 34.122185923159122 5.4814686775207582 3.3338374868035316 2.6229162961244583 2.8044937923550597 3.1006801053881636 2.1930905357003203 2.7637284696102133 7.0133389085531226 5.724384367465972 59.775636292994022 2.6500633060932151 2.03324044495821 2.147598274052144 3.2306990027427656 5.2236490473151234 16.06714790314436 18.228535853326321 329.76581624150276 3.8291843384504318 8.3762008622288686
leaf_count=27 343 350 51 25 25 27 30 22 26 71 47 606 22 20 20 28 51 165 187 3372 27 84
internal_value=0 0.159583 -0.0360521 0.10433 0.0224525 0.281451 -0.00467897 0.271662 0.295398 -0.0219087 0.305597 -0.0437582 -0.00792194 0.130558 -0.0212796 0.270105 -0.046235 -0.024104 -0.0352751 -0.0474445 0.303309 -0.050143
internal_weight=0 104.248 463.337 24.1111 49.0522 55.1958 44.2362 4.81601 52.3913 41.1355 49.6276 439.226 28.3933 4.6833 13.7174 10.3937 410.832 21.2908 23.71 389.541 7.16302 10.5238
internal_count=5626 941 4685 211 498 443 451 47 416 421 390 4474 280 42 131 80 4194 216 238 3978 52 104
is_linear=0
shrinkage=0.05


Tree=17
num_leaves=30
num_cat=0
split_feature=1 6 4 3 3 7 4 6 7 5 1 0 6 4 5 7 8 5 7 0 3 1 0 4 8 5 8 4 6
split_gain=805.766 665.136 273.56 219.581 120.192 115.275 100.026 38.4407 34.5389 76.4508 28.8617 69.4786 59.7993 21.6752 19.5057 18.7918 9.76685 5.61716 4.48823 4.01058 16.1694 20.0305 7.00379 2.94853 2.90358 0.46601 1.43417 0.33839 0.179919
threshold=299.47108139127334 -199.18478433883479 176.89645805146856 200.97809510341969 364.21127668841046 58.238128588259507 -268.49046662142473 -399.90357415618217 -313.34270628869001 87.209704786351196 6.3423296937280105 -443.95540792716969 -103.59259549460062 213.58539557965463 131.04029095024612 -199.72440353421808 35.377622832512778 624.77594324371194 -141.38761256322707 -630.25883622900039 -69.915133986336272 -317.01866715045276 -656.38307722381694 485.12778415519966 435.41922130555201 733.83793182720672 65.87212626059609 -375.29745251463572 -713.72793843567638
decision_type=2 2 2 2 2 2 2 2 2 2 2 2 2 2 2 2 2 2 2 2 2 2 2 2 2 2 2 2 2
left_child=10 3 8 6 5 -4 7 -2 9 -3 19 12 14 -14 -12 -5 -8 18 -13 20 21 -1 -22 -6 -10 28 -27 -17 -21
right_child=1 2 4 15 23 -7 16 -9 24 -11 11 17 13 -15 -16 27 -18 -19 -20 25 22 -23 -24 -25 -26 26 -28 -29 -30
leaf_value=-0.050336491134533583 0.19142052294475315 0.1799176191359827 0.2628778999985309 0.11617382234496709 -0.050332994884723231 0.0081539045521310232 0.23218853892430871 -0.037723078949776508 -0.041750124371341124 -0.050402335340543607 0.10980011920940787 -0.016603184166131102 -0.043973325861580773 0.090282601771631943 0.28694771153666337 -0.027477068661746342 0.28135552598614261 0.04086373908106232 -0.048070335358048569 -0.040502373299726106 -0.048370362668286961 0.097878626205371674 0.044586705461893264 0.018870645404732555 0.015465026333203326 -0.0013821224466055325 -0.050133430747462751 -0.050640270282379787 -0.049906152052911983
leaf_weight=4.4102986231446266 3.4945811852812767 6.0469536855816832 17.735353052616126 2.3851964026689529 5.3550841435790053 5.9255446195602408 13.66766147315502 3.84305715560913 77.377551704645157 8.9144634827971441 3.1187594011425999 14.824950546026228 7.6778887659311277 4.9410269260406494 3.0970417484641075 2.1902502626180649 38.701843835413456 2.1865956559777251 48.09291448444128 5.1973056197166434 58.198624484241009 4.7182480245828611 2.0994171202182761 2.1600111424922943 2.2828583195805541 2.0497774407267562 5.7137307524681091 5.6290300264954549 238.39444402605295
leaf_count=42 28 50 127 20 51 53 95 35 756 84 29 141 72 41 24 21 267 20 470 51 574 44 19 20 22 20 56 52 2342
internal_value=0 0.0840198 0.0153039 0.207666 0.143757 0.199086 0.244299 0.0714075 -0.0270189 0.042686 -0.0395528 -0.0134506 0.0711237 0.00859555 0.198064 -0.00667745 0.268524 -0.037918 -0.0406559 -0.0463829 -0.0357452 0.0262711 -0.0451338 -0.0304423 -0.0401105 -0.0493212 -0.0372618 -0.0441521 -0.0497055
internal_weight=0 195.709 125.798 69.9116 31.176 23.6609 59.7071 7.33764 94.6218 14.9614 404.721 83.9392 18.8347 12.6189 6.2158 10.2045 52.3695 65.1045 62.9179 320.782 69.4266 9.12855 60.298 7.5151 79.6604 251.355 7.76351 7.81928 243.592
internal_count=5626 1681 1163 518 251 180 425 63 912 134 3945 797 166 113 53 93 362 631 611 3148 679 86 593 71 778 2469 76 73 2393
is_linear=0
shrinkage=0.05


Tree=18
num_leaves=32
num_cat=0
split_feature=7 5 4 1 2 9 4 7 5 4 2 4 0 1 1 4 7 1 7 2 0 2 5 2 5 7 5 1 5 4 4
split_gain=314.409 387.29 301.558 157.164 117.998 109.827 44.4751 49.7511 45.5371 38.5606 22.5028 20.0186 41.8791 91.9207 17.868 27.7935 47.687 15.5802 32.9263 14.0454 7.71203 4.04878 2.51569 2.50225 1.78363 4.54745 0.489839 0.37914 1.84614 0.373274 2.30504e-05
threshold=185.77600215106341 1.0000000180025095e-35 -217.94396753339788 332.47573356504148 -628.19795466178994 -223.37662241767327 -447.53837504419471 78.867715516505399 -71.503654226534721 244.93720274745993 279.53006975159099 -109.76181729023939 -35.544506446241392 61.939183570883735 165.31386774086482 7.2357176734740856 -13.49874814363379 -131.06283963099091 -114.78559282246431 -1.0000000180025095e-35 179.77465529728158 -758.05744991216841 -284.3312476778928 184.49403330255521 -79.117995414731311 261.80322821231056 386.36655038140651 322.13249013993146 453.92938978425877 131.29223837127569 155.06641353792787
decision_type=2 2 2 2 2 2 2 2 2 2 2 2 2 2 2 2 2 2 2 2 2 2 2 2 2 2 2 2 2 2 2
left_child=6 11 3 10 5 -4 7 17 22 -6 -3 12 13 -2 15 16 -8 18 -1 -5 -10 -17 -9 -14 29 -26 -19 28 -16 -13 -29
right_child=1 2 4 19 9 -7 14 8 20 -11 -12 24 23 -15 27 21 -18 26 -20 -21 -22 -23 -24 -25 25 -27 -28 30 -30 -31 -32
leaf_value=-0.027151164989782147 0.21476289573638885 0.3268707524734325 -0.049720721541663841 -0.036716203399362345 0.059186179801903362 0.35237913985785474 -0.027395807730619826 -0.049848114045370942 0.15373968027955953 -0.043201983907350916 0.22509622791531531 -0.039310132292062656 -0.049748297787263127 -0.043026149157251205 -0.046572492682381068 -0.0010861328135207268 0.051829683125285235 -0.049357333896192609 0.10133703169038999 0.11746388177413014 0.26977313972530254 -0.042696565127109468 0.030625506625918508 -0.011995562113540323 0.040182543987356774 -0.049526509816136197 -0.02152176853376897 -0.04933185651878795 0.0068434036198382793 -0.049455531208284005 -0.04928249366972498
leaf_weight=13.472767390310763 6.4008798003196699 20.344781577587131 2.4670193567872047 3.8623651042580605 21.10244058072567 5.4488814845681182 61.283351697027683 2.0217393860220914 2.9299416765570623 16.297605276107788 7.4091717749834052 14.214721880853174 13.480361714959146 7.521256759762764 17.723467193543915 6.1915661171078673 27.524478659033775 13.231303676962851 7.9154245629906681 2.3918879330158225 2.8009521663188934 104.74713895469904 1.8688919395208357 6.5080623030662528 2.2281263545155516 3.8598041236400604 1.794899359345435 62.899588726460934 1.7800310477614392 25.031747795641422 37.898550570011139
leaf_count=149 58 167 26 41 219 46 677 21 26 183 61 146 142 80 197 67 280 148 76 25 23 1167 20 62 24 42 20 707 20 276 430
internal_value=0 0.0580399 0.136142 0.248676 0.0516881 0.227063 -0.0262458 0.0197055 0.120826 0.0145691 0.299701 -0.0201401 0.00891663 0.0754957 -0.0328554 -0.023687 -0.00284121 -0.0070128 0.0204002 0.0222487 0.210451 -0.0403743 -0.011192 -0.0374563 -0.0418749 -0.0166938 -0.0460323 -0.0480786 -0.0416974 -0.045781 -0.0493133
internal_weight=0 158.569 79.3242 34.0082 45.3159 7.9159 366.084 46.0359 9.62153 37.4 27.754 79.245 33.9106 13.9221 320.048 199.747 88.8078 36.4144 21.3882 6.25425 5.73089 110.939 3.89063 19.9884 45.3344 6.08793 15.0262 120.302 19.5035 39.2465 100.798
internal_count=5626 1598 768 294 474 72 4028 483 90 402 228 830 342 138 3545 2191 957 393 225 66 49 1234 41 204 488 66 168 1354 217 422 1137
is_linear=0
shrinkage=0.05


Tree=19
num_leaves=31
num_cat=0
split_feature=1 4 6 6 3 6 9 3 1 0 3 6 3 9 2 2 6 2 2 5 5 5 9 0 3 6 2 5 6 1
split_gain=671.717 287.037 206.244 236.501 114.531 27.0698 45.3594 26.8399 26.0511 52.1298 62.0165 15.3781 12.8031 17.1038 10.0156 7.32625 9.69151 5.28561 4.67739 3.62139 3.18316 4.42689 1.16483 6.68809 9.18562 0.724098 0.587064 2.35067 0.417811 0.0995949
threshold=231.94025347562641 122.8428396247032 257.88438071624546 -262.66428922717358 555.72740531940769 431.86929039407335 -35.849555042874265 -704.78827009095755 -14.707640331677601 -381.00955219650126 -115.50530292123581 -199.18478433883479 22.022067246485292 335.10197255016624 173.20659916803496 -507.9984122887933 -134.79384182850103 -363.65341503310026 355.46077870938717 -326.87295449146745 243.8891153747189 367.50066314318491 -228.90050530047517 -528.57073002922368 -14.03614999935448 326.34004925278981 453.78765190466623 -243.79767767272062 -287.29780148339142 -48.469414338660087
decision_type=2 2 2 2 2 2 2 2 2 2 2 2 2 2 2 2 2 2 2 2 2 2 2 2 2 2 2 2 2 2
left_child=8 2 3 7 -5 6 -4 -2 22 10 11 -10 15 14 -14 16 -3 -12 -7 -17 25 -22 23 24 -1 -11 29 -28 -25 -24
right_child=1 12 5 4 -6 18 -8 -9 9 20 17 -13 13 -15 -16 19 -18 -19 -20 -21 21 -23 26 28 -26 -27 27 -29 -30 -31
leaf_value=0.096206549587072643 0.1408715420644778 -0.050369202014468886 -0.036702804701091683 0.2203755015030264 -0.0025766097496244321 -0.045401275196301487 0.11973087215259276 -0.001757393827650973 0.050656333834107559 -0.049685884433434156 0.045529963071728012 0.19795694112186057 -0.035231583055619846 0.14379352628256797 0.034287884828040557 -0.00086502092501939765 0.098132048223024335 -0.043600378600557078 0.0043789572705202765 -0.046667496625740497 0.017750517498357942 -0.039530036233893957 -0.049665464993222885 -0.03440349690014198 -0.049927608031050334 -0.028789622782503351 -0.018782992053519146 -0.049670391342897462 -0.048198639657010302 -0.044408197790776337
leaf_weight=2.049203559756279 3.9237122759223011 2.0692421719431877 7.536703102290633 65.140038631856441 6.3189975172281256 10.987307019531729 12.031244389712809 20.697683207690716 2.4785514250397682 32.345460310578346 2.0874445065855971 6.2145562246441859 10.09416856616736 2.3131188601255408 10.6439301520586 5.0570613145828238 2.3423897922039023 8.1872432306408864 8.2709652930498105 29.432531282305717 5.1682466045022002 9.7108569890260679 201.24451966583729 6.5438394099473944 2.262721672654151 4.7551970332860938 8.0706272944807989 26.017393976449966 34.039443381130695 9.4307570010423643
leaf_count=20 38 20 76 549 63 111 110 206 24 341 20 51 100 21 103 49 20 86 83 295 52 100 2129 69 23 49 84 275 360 99
internal_value=0 0.0743998 0.115314 0.154614 0.20066 0.0180619 0.0594796 0.0209722 -0.0404361 -0.0132817 0.0576684 0.155959 -0.0146942 0.0148337 0.000449622 -0.0321913 0.0284787 -0.0254923 -0.0240219 -0.0399517 -0.0391719 -0.0196337 -0.0470872 -0.0396838 0.0195213 -0.0470076 -0.0484451 -0.0423575 -0.0459742 -0.0494301
internal_weight=0 196.859 134.907 96.0804 71.459 38.8262 19.5679 24.6214 360.606 70.9476 18.9678 8.69311 61.9524 23.0512 20.7381 38.9012 4.41163 10.2747 19.2583 34.4896 51.9798 14.8791 289.659 44.8952 4.31193 37.1007 244.763 34.088 40.5833 210.675
internal_count=5626 1844 1236 856 612 380 186 244 3782 723 181 75 608 224 203 384 40 106 194 344 542 152 3059 472 43 390 2587 359 429 2228
is_linear=0
shrinkage=0.05


Tree=20
num_leaves=23
num_cat=0
split_feature=0 4 4 5 3 1 1 0 4 3 1 4 0 4 1 2 5 0 0 9 8 0
split_gain=1341.64 228.321 224.156 41.5694 44.3745 59.7068 40.1419 26.2658 53.0101 30.883 21.5253 10.7744 29.5675 7.61918 8.78345 4.75722 3.54904 2.47587 2.20587 1.45045 0.275 0.00129054
threshold=720.86577192140123 742.82337114571635 134.53894243755033 51.50046335054892 268.75369796001615 -258.73652761280204 276.96994638979533 491.24272392549148 186.3174794819416 273.31078014493937 269.30414298224696 569.96597935563352 166.22822739449057 331.89556458349165 -341.43300680905674 -745.21491528805495 226.8039468193042 863.90258843407184 192.27561576940772 108.78822395292427 -23.028185319250468 840.14924248422108
decision_type=2 2 2 2 2 2 2 2 2 2 2 2 2 2 2 2 2 2 2 2 2 2
left_child=1 7 3 4 5 -2 19 11 15 -10 13 18 -13 14 -4 -9 -5 -15 -1 -3 -6 -18
right_child=2 6 10 16 20 -7 -8 8 9 -11 -12 12 -14 17 -16 -17 21 -19 -20 -21 -22 -23
leaf_value=-0.047697509044182324 0.030820807990493523 0.23393873105208823 0.11948577279056075 0.014462196086352887 -0.050425610421611235 0.24622477364357384 0.038845173229853563 0.026250368188324925 0.18289300735778255 -0.029910787811635399 0.081409269207942003 -0.049456488306565273 0.12781355438544686 0.26984374463286198 0.21945467866591281 -0.03742026531764344 -0.049815208997541063 0.23214185388456385 -0.038160874352245487 0.2792924066191228 -0.025340196579095975 -0.051203751554470746
leaf_weight=323.94255129992962 6.075565546751025 2.9620403051376325 3.1820567473769188 3.028425417840479 2.3881615847349167 6.8375651165843037 2.8185091093182564 3.2760727703571346 5.3192986398935309 2.5091154351830482 2.6099651157855979 7.8238707333803159 3.3634952902793884 4.7844664305448523 7.0994130149483663 28.071036227047443 2.9624555706977844 48.459590882062912 74.599680446088314 4.3543487191200256 2.0137718021869651 3.8455988243222237
leaf_count=3601 52 21 23 26 23 47 29 33 42 26 20 86 31 31 43 290 31 282 806 29 20 34
internal_value=0 -0.0355157 0.172478 0.0515142 0.0981445 0.144878 0.199169 -0.0408142 -0.00170041 0.114686 0.222139 -0.044554 0.00383997 0.22792 0.188515 -0.0307661 -0.0305685 0.23553 -0.0459124 0.260931 -0.0389497 -0.0505995
internal_weight=0 459.04 93.287 27.1515 17.3151 12.9131 10.1349 448.905 39.1755 7.82841 66.1355 409.73 11.1874 63.5255 10.2815 31.3471 9.83648 53.2441 398.542 7.31639 4.40193 6.80805
internal_count=5626 4994 632 233 142 99 79 4915 391 68 399 4524 117 379 66 323 91 313 4407 50 43 65
is_linear=0
shrinkage=0.05


Tree=21
num_leaves=20
num_cat=0
split_feature=0 1 0 5 1 1 5 0 7 0 5 1 3 1 6 5 3 1 1
split_gain=2191.84 121.276 32.1873 30.8158 20.7865 12.1463 51.4328 26.8908 7.51496 5.18255 17.7651 7.74565 2.54696 1.10129 0.410761 3.86915 0.466268 0.000254113 0.000177515
threshold=-708.07206686386246 44.786954260108807 -616.34910290317691 -456.60693171340063 -207.69488056835513 -341.43300680905674 -203.96931176915291 -927.80929495757152 120.05266483357089 -493.82766180622173 -505.86539309411074 -418.00309684274436 -78.374416363249793 -809.52118151971774 -639.07834732461413 -189.4388083611324 -716.84915010765553 -25.912580957036205 215.65562737025044
decision_type=2 2 2 2 2 2 2 2 2 2 2 2 2 2 2 2 2 2 2
left_child=1 5 3 -2 -5 12 8 -8 -7 10 -4 -12 -1 -14 15 -11 -16 -6 -3
right_child=2 18 9 4 17 6 7 -9 -10 14 11 -13 13 -15 16 -17 -18 -19 -20
leaf_value=0.25869501080485718 0.15991574077462398 -0.050814523313202832 0.093335420626398324 0.085052956096694249 -0.050763989814899303 0.14703197254121125 0.20891428008057764 0.021990140083785553 0.22463441536550544 0.023106689746403522 0.025470905770624781 -0.050220818274905057 0.24971185201006796 0.21917760932793864 -0.041066171436768779 -0.050077813069131373 -0.049615221628167248 -0.050163482007732289 -0.050197601885532996
leaf_weight=4.7867044731974593 3.2850987091660526 2.4089178070425978 2.7547690868377712 4.0129722356796274 2.3164997696876526 3.4668293893337241 2.8286392241716385 6.0163073018193227 31.158949308097363 2.0472414493560818 3.9260708540678086 24.294815056025978 3.1166682541370383 56.245147883892059 16.574725620448589 15.325965583324431 422.63976211100817 7.3555965349078143 2.2600117623806
leaf_count=30 24 22 22 32 21 22 16 45 177 20 35 236 19 315 163 152 4181 72 22
internal_value=0 0.198959 -0.0452955 0.0223968 -0.0106146 0.209782 0.189377 0.081769 0.216865 -0.0476517 -0.0278602 -0.0396906 0.22361 0.220781 -0.0489943 -0.0414538 -0.0492926 -0.0503073 -0.0505159
internal_weight=0 112.288 504.534 16.9702 13.6851 107.619 43.4707 8.84495 34.6258 487.563 30.9757 28.2209 64.1485 59.3618 456.588 17.3732 439.214 9.6721 4.66893
internal_count=5626 668 4958 149 125 624 260 61 199 4809 293 271 364 334 4516 172 4344 93 44
is_linear=0
shrinkage=0.05


Tree=22
num_leaves=30
num_cat=0
split_feature=3 1 5 4 7 7 5 3 4 1 1 4 2 9 1 5 2 6 1 0 1 3 0 1 3 6 0 9 6
split_gain=556.27 262.888 341.524 132.537 100.217 56.0118 23.085 29.8804 54.1146 36.6082 11.2796 10.8016 9.89279 23.5385 29.1928 8.84322 13.9755 5.0054 7.48947 10.738 3.24793 2.82514 2.34813 2.04089 17.1989 0.551217 0.511156 0.454233 0.00011625
threshold=214.72671371484441 221.638443220911 -296.55374801580598 294.24490534593178 254.08710175107518 -189.76861322230425 243.8891153747189 12.04974556476677 126.76840506670358 156.13299952118666 -434.29802144551968 197.37107442681133 200.42663014841395 -2.0469457071917256 593.55241211306804 750.36330911785024 -240.7539495948233 -320.04849822518332 -267.99627278354791 -751.11714484447339 -161.72666792283508 -218.76556091239303 500.47406142372671 -724.50834411057428 -14.03614999935448 502.80390166470261 -341.7767776335827 -65.279955928318074 243.79741256689735
decision_type=2 2 2 2 2 2 2 2 2 2 2 2 2 2 2 2 2 2 2 2 2 2 2 2 2 2 2 2 2
left_child=6 2 10 4 -4 -5 17 15 9 -9 -2 -12 13 27 -15 21 -17 18 19 -1 -10 -8 -20 24 -19 -25 -14 -3 -28
right_child=1 12 3 5 -6 -7 7 8 20 -11 11 -13 26 14 -16 16 -18 23 22 -21 -22 -23 -24 25 -26 -27 28 -29 -30
leaf_value=-0.049307405198860371 0.077497323077878821 -0.049435702903477541 0.20004989155088382 0.2016140736250725 0.0039419487876273911 -0.017222348497749819 -0.046943690585020417 0.1452686177777659 -0.045928374664099013 -0.026835663643124431 -0.045763582228789838 0.057292902478015356 -0.02187367021274406 0.12576059461979991 -0.04929613855477577 -0.04942267150309395 0.13697383301505003 -0.049225249454614137 -0.049267362494846034 0.041848677185429541 0.019938719334882501 -0.023705698091273347 -0.0040420724312675701 -0.048335209652290004 0.11542648431981165 -0.037625745889075801 -0.049486726996109662 -0.022633394313234495 -0.049269049153066229
leaf_weight=5.579429492354393 2.3257509469985953 11.674928419291971 73.394845463335514 3.7289786636829403 7.149197317659854 13.545547679066656 40.373504258692265 10.444276556372644 14.313729092478754 4.3879737704992285 28.643381848931316 2.7902807667851439 1.8132880032062555 5.9453563168644887 3.9730256423354149 2.169272780418396 1.8746579289436329 12.361948944628237 21.251866571605209 7.6743272095918638 2.1531129628419867 19.34674035012722 3.3182550370693198 199.79323729872704 1.8194472268223751 12.783877484500406 12.801445685327055 1.8283519819378877 11.775262296199797
leaf_count=63 20 130 486 26 57 128 447 94 159 47 327 27 20 57 45 24 20 142 242 86 23 211 38 2250 20 144 140 19 134
internal_value=0 0.0713304 0.108366 0.15569 0.182643 0.0300169 -0.0360641 -0.0149305 0.0250805 0.0943533 -0.0287541 -0.0366155 -0.0265003 -0.00284794 0.0556378 -0.0345702 0.0369858 -0.0436573 -0.0268186 0.00347473 -0.037316 -0.0394156 -0.0431596 -0.046466 -0.0281007 -0.0476912 -0.0474923 -0.0458067 -0.0493824
internal_weight=0 181.39 131.578 97.8186 80.544 17.2745 359.646 95.0633 31.2991 14.8323 33.7594 31.4337 49.8117 23.4217 9.91838 63.7642 4.04393 264.582 37.8239 13.2538 16.4668 59.7202 24.5701 226.759 14.1814 212.577 26.39 13.5033 24.5767
internal_count=5626 1616 1071 697 543 154 4010 1025 323 141 374 354 545 251 102 702 44 2985 429 149 182 658 280 2556 162 2394 294 149 274
is_linear=0
shrinkage=0.05


Tree=23
num_leaves=26
num_cat=0
split_feature=1 3 2 9 1 0 9 0 1 3 8 8 9 4 2 4 3 8 3 5 3 1 4 6 4
split_gain=478.028 304.708 100.82 86.8945 85.1078 114.213 56.8434 42.0026 35.3248 49.6576 84.966 29.4173 28.7783 25.7459 23.6894 16.2409 16.0846 14.0078 13.1632 10.0552 7.41729 4.9846 3.70506 0.911659 0.904915
threshold=-510.97514277367071 -121.7984724793434 539.32144315549874 -242.483161743332 196.42184178426575 89.886933045292992 271.01486242826104 770.09716267344959 -237.63843779333607 -195.95533738730285 58.67811417996591 174.87442181633 285.34781783666875 -226.42269626983696 -240.7539495948233 -360.32556273305596 -864.0524207857369 56.073704260102019 128.60821706769801 -152.53035825754674 -10.646298676942614 269.30414298224696 -557.20870991989887 -141.83116864719611 -369.40872296360584
decision_type=2 2 2 2 2 2 2 2 2 2 2 2 2 2 2 2 2 2 2 2 2 2 2 2 2
left_child=1 6 8 11 5 12 7 14 9 10 -2 19 -4 -9 -1 -7 -10 24 -19 -3 -11 -18 -6 -24 -5
right_child=2 3 4 17 22 15 -8 13 16 20 -12 -13 -14 -15 -16 -17 21 18 -20 -21 -22 -23 23 -25 -26
leaf_value=0.11017110195374445 -0.0261821379504747 0.24087507414479417 0.13027242365109259 -0.022987521634531438 0.026433555045581005 0.075853798297555453 -0.013139452905350894 0.17829851559275198 0.070249737198666992 -0.0045164660898819944 0.12044029286919866 0.0089984338755633528 0.280031241559691 -0.0053456387576379088 0.21529459020361347 -0.029137823978308691 -0.034633919746818856 0.081054502857758948 -0.03181795872220735 0.12180658353504988 -0.045026147420811263 -0.047739399636226254 -0.022322192519286316 -0.04959459532029481 -0.049680733105628448
leaf_weight=6.148277796804904 22.658941209316254 4.0748568847775459 18.247049182653431 3.6142598763108245 1.9640744701027895 4.7420577034354237 3.8990281447768202 3.4329486712813377 3.2941789701580992 15.299979209899901 17.520635552704334 3.3084466978907585 3.8921568840742102 4.2978601455688468 41.753871813416481 16.497712381184101 152.76302330940962 4.8581322953104955 5.5155511200428009 3.1390374377369863 43.218627348542213 138.18557293713093 3.6578065976500538 18.883877672255039 26.125346161425117
leaf_count=49 217 29 132 35 20 44 34 22 28 150 160 29 26 37 254 159 1611 39 56 23 459 1493 39 203 278
internal_value=0 0.0947244 -0.0212112 0.00456059 0.0350556 0.0771343 0.171414 0.184349 -0.0309319 -0.0050471 0.0377538 0.132447 0.156601 0.0762035 0.201802 -0.00569707 -0.0396144 -0.0289861 0.0210417 0.189064 -0.0344347 -0.0408583 -0.0394304 -0.0451691 -0.0464367
internal_weight=0 110.168 460.826 50.6356 67.8847 43.379 59.532 55.633 392.941 98.6982 40.1796 10.5223 22.1392 7.73081 47.9021 21.2398 294.243 40.1133 10.3737 7.21389 58.5186 290.949 24.5058 22.5417 29.7396
internal_count=5626 885 4741 489 623 361 396 362 4118 986 377 81 158 59 303 203 3132 408 95 52 609 3104 262 242 313
is_linear=0
shrinkage=0.05


Tree=24
num_leaves=26
num_cat=0
split_feature=1 6 6 3 3 9 8 5 6 1 0 6 4 3 9 9 8 8 8 6 8 8 3 7 8
split_gain=684.219 694.685 89.085 48.4873 32.3904 30.0309 28.2547 41.5218 13.4601 11.8054 22.9334 26.0795 22.3605 9.89182 9.15242 7.53749 5.28808 3.88422 1.74426 1.5138 6.49464 1.23343 2.93306 0.56118 0.397545
threshold=215.65562737025044 234.52711076660367 11.146420399577199 -86.582381246058773 -362.70240786289543 -246.11478440251395 -18.94891810396874 -98.436163498013272 -157.19174646952692 -9.6888343365618859 -329.46304330166669 105.44597235788019 266.5141046124939 -4.236050154473725 -43.012186799158201 229.25140038828135 -695.8527876827543 -380.81645977713691 -142.26500548806624 535.63081982797655 -112.8761616509026 -435.56494057736603 255.66688947378063 -73.231708036045333 -540.31089271716587
decision_type=2 2 2 2 2 2 2 2 2 2 2 2 2 2 2 2 2 2 2 2 2 2 2 2 2
left_child=9 2 8 14 -3 -5 7 -6 17 16 11 18 -13 -10 -4 -8 -1 -2 -11 24 -21 22 -12 -23 -18
right_child=1 4 3 5 6 -7 15 -9 13 10 21 12 -14 -15 -16 -17 19 -19 -20 20 -22 23 -24 -25 -26
leaf_value=0.020822391907637919 0.007446339605193703 -0.02446364313216768 0.034035609919817113 0.2133647541973685 0.066464428540747564 0.074543905388469625 0.22387643358283726 0.1845690930659393 -0.024264979743208213 -0.0055714859706511854 -0.049597810978354778 0.12721992965075843 -0.050037534781392314 0.034769489672685228 -0.035876061952736155 0.156788085019825 -0.037869392633313459 -0.046859920260186781 -0.050046288406537812 0.053589422794194035 -0.049664205163555658 -0.036430304733623922 0.029465756512547354 -0.049624135880723792 -0.04881050861623483
leaf_weight=2.8353630155324927 3.5007345750927916 1.8632394522428501 8.2873515561223048 4.7085117772221592 9.6260810419917089 22.571428135037422 35.994925856590271 32.79727616161108 19.493055403232578 3.3633763343095779 3.0791457742452613 6.9825264140963537 2.3874748945236206 11.157361768186091 10.759043544530867 4.7377787455916396 8.570386551320551 55.391464650630951 6.3986176028847712 1.9332759752869604 7.1753666847944242 11.241193667054175 1.8949048221111295 28.473119616508484 265.49634902179241
leaf_count=30 37 16 78 37 71 186 216 206 198 33 33 58 24 106 111 31 93 597 64 20 76 117 20 304 2864
internal_value=0 0.0696164 -0.000525278 0.0557624 0.18171 0.0985044 0.186329 0.157771 -0.0296466 -0.0427828 -0.0233385 0.0224695 0.0820548 -0.00277526 -0.00545652 0.216073 -0.0471216 -0.0436318 -0.034723 -0.0478019 -0.027749 -0.0429498 -0.0194779 -0.0458896 -0.0484684
internal_weight=0 220.888 135.869 46.3263 85.0193 27.2799 83.1561 42.4234 89.5426 349.831 63.8204 19.132 9.37 30.6504 19.0464 40.7327 286.011 58.8922 9.76199 283.175 9.10864 44.6884 4.97405 39.7143 274.067
internal_count=5626 1890 1350 412 540 223 524 277 938 3736 653 179 82 304 189 247 3083 634 97 3053 96 474 53 421 2957
is_linear=0
shrinkage=0.05


Tree=25
num_leaves=28
num_cat=0
split_feature=5 6 1 0 7 7 3 1 0 2 7 5 9 1 7 5 8 6 8 6 2 8 5 0 3 5 5
split_gain=208.238 195.41 119.172 68.2619 84.5082 38.404 22.8847 37.2949 39.5393 15.3062 15.547 49.6966 11.3523 9.42983 8.02177 6.6463 9.53648 11.7664 3.99963 3.83947 2.82793 0.578869 1.43287 0.418451 0.350792 0.34044 0.00048156
threshold=51.50046335054892 56.224562353488317 357.48905814216317 922.14656245439278 219.24275373678213 422.36378121164955 -17.785236292124413 299.47108139127334 -443.95540792716969 787.65012973724379 72.291151813602923 294.35621413407824 -526.34017836907344 -453.79834247712353 277.6676611951994 150.18639737876597 -123.33928543033794 154.50312261772277 -195.39871415280558 34.682111455461218 546.24010506968591 -243.1972677769925 339.32874676639693 346.86169752540422 1.0000000180025095e-35 157.97066582141909 191.35674322823544
decision_type=2 2 2 2 2 2 2 2 2 2 2 2 2 2 2 2 2 2 2 2 2 2 2 2 2 2 2
left_child=1 6 3 4 -3 14 7 8 -1 15 23 -12 -8 -5 -4 16 17 -2 -9 -14 -18 22 -17 26 -13 -23 -11
right_child=9 2 5 13 -6 -7 12 18 -10 10 11 24 19 -15 -16 21 20 -19 -20 -21 -22 25 -24 -25 -26 -27 -28
leaf_value=-0.038666639344106343 -0.027200516492847729 0.083137873631155851 -0.039284525495047663 0.056866504705346023 0.1940840304820293 0.19503206206577564 0.072682035094327704 0.00021875096556475183 0.061547759495249599 -0.050162220269220958 0.25741321995526806 -0.018802331632147846 -0.039210934650660487 -0.049223916494764687 0.044949534937923238 -0.029379482922923191 -0.046892110129705226 0.064412130800122661 -0.048919333353943481 0.019535065289304845 0.0074343751124850551 -0.031219341908669804 -0.048799108624845294 -0.020531335364002777 -0.049068838572264128 -0.048822823116492074 -0.049102619902731459
leaf_weight=13.764466755092142 9.0806308388710004 71.100324407219887 25.871443539857871 2.8198104575276366 22.625750452280045 2.0267794057726851 2.4555240273475638 5.0749094933271435 34.544031582772732 2.0150337815284711 2.2745761722326279 1.6554325297474863 65.838135175406933 8.1436639130115491 3.1730590760707846 15.310345254838465 24.802967876195911 5.7080136314034453 22.507512211799622 2.9040262252092353 2.6515171676874152 2.8155944049358359 25.023973070085049 1.7377635985612867 2.2701840102672577 111.96396753937006 2.2918632030487061
leaf_count=152 105 679 316 31 198 17 27 61 356 20 22 20 781 94 35 185 304 63 276 33 31 34 314 20 27 1398 27
internal_value=0 0.0273327 0.0705909 0.0961119 0.109921 -0.0153979 -0.012594 0.00650855 0.0329938 -0.0384264 0.0158182 0.0714469 -0.0329557 -0.0219374 -0.0300821 -0.041792 -0.0242095 0.00815947 -0.0398784 -0.0367292 -0.0416453 -0.0465803 -0.0414277 -0.041242 -0.0363055 -0.048391 -0.0495984
internal_weight=0 282.849 135.761 104.69 93.7261 31.0713 147.089 75.8909 48.3085 209.602 12.2449 6.20019 71.1977 10.9635 29.0445 197.357 42.2431 14.7886 27.5824 68.7422 27.4545 155.114 40.3343 6.04466 3.92562 114.78 4.3069
internal_count=5626 3056 1370 1002 877 368 1686 845 508 2570 136 69 841 125 351 2434 503 168 337 814 335 1931 499 67 47 1432 47
is_linear=0
shrinkage=0.05


Tree=26
num_leaves=24
num_cat=0
split_feature=3 5 5 3 3 6 9 7 4 6 5 3 2 1 1 8 7 1 3 5 1 2 2
split_gain=1060.46 431.856 177.089 138.004 94.4568 70.8348 45.5863 37.9943 23.5706 20.0345 15.3325 36.5751 24.3688 13.423 9.95274 9.93967 9.62648 8.71227 4.44465 9.26502 2.1333 1.64097 0.00110202
threshold=448.22372280126064 -15.561879959762999 -588.30477796259709 105.96576723235127 891.13567224357473 -87.734635226054905 302.6309692816605 254.08710175107518 562.55207811201183 251.43318728730739 -462.17333851281848 163.58697805869181 4.5307857952884669 -251.43386345313394 -83.780899538549917 -199.59190748733906 33.086447627200606 -326.15268123391547 336.99750499005461 -29.149093092414038 -213.2118511070091 -479.58979468336304 -46.665358918968955
decision_type=2 2 2 2 2 2 2 2 2 2 2 2 2 2 2 2 2 2 2 2 2 2 2
left_child=2 6 3 15 7 16 9 8 -3 13 11 20 -13 -2 17 -1 -6 -5 21 -20 -4 -12 -17
right_child=1 4 10 14 5 -7 -8 -9 -10 -11 18 12 -14 -15 -16 22 -18 -19 19 -21 -22 -23 -24
leaf_value=0.056990636306489074 0.13664016926528016 -0.038029408797442134 -0.018591555838636878 0.15915135471368488 0.18302116230022608 -0.020656742016320461 0.01928707850622427 0.15357881127299186 0.1147029786729335 0.09748443754839195 -0.039301529899494453 0.18586454866296478 -0.026881354851894131 0.23505358292145995 0.12402965843301986 -0.050871828873684771 0.31157676273491225 0.25782221651647691 0.033183547173247376 -0.043064415885107829 -0.049794428546807566 -0.048481986476414371 -0.049722553388351499
leaf_weight=2.7689997702836981 3.681840054690837 34.320079192519188 9.5887829884886777 3.2795736342668524 2.3446871936321259 3.4210332706570608 2.8614951819181433 3.1695550233125678 2.7267922013998023 3.0243095830082884 57.599582493305206 3.5529587492346755 2.1669699475169182 58.785626627504826 3.07934496551752 2.9663686230778685 3.8429654389619827 7.0382213145494452 5.3810879513621357 15.346393026411532 12.776617027819157 314.18499175459146 7.0269863083958652
leaf_count=24 26 363 99 22 20 35 27 26 26 26 606 25 22 364 20 27 28 44 51 165 134 3372 74
internal_value=0 0.133028 -0.035399 0.0908271 0.021078 0.16192 0.214633 -0.0125726 -0.0267877 0.223168 -0.0432498 -0.00756113 0.105267 0.229253 0.202916 -0.0268365 0.262863 0.226459 -0.0458034 -0.0232696 -0.0364167 -0.0470597 -0.0500637
internal_weight=0 118.178 446.757 26.1595 49.8251 9.60869 68.3533 40.2164 37.0469 65.4918 420.597 28.0853 5.71993 62.4675 13.3971 12.7624 6.18765 10.3178 392.512 20.7275 22.3654 371.785 9.99335
internal_count=5626 941 4685 211 498 83 443 415 389 416 4474 280 47 390 86 125 48 66 4194 216 233 3978 101
is_linear=0
shrinkage=0.05


Tree=27
num_leaves=28
num_cat=0
split_feature=1 6 4 3 7 7 4 6 5 4 1 5 4 9 7 3 9 2 6 3 1 6 5 7 1 1 5
split_gain=698.972 478.97 166.61 161.107 106.347 72.9806 48.7523 38.1678 38.1119 28.7255 28.4528 44.0198 22.7301 59.4174 12.918 39.4608 7.60472 3.07939 2.23095 4.15555 8.67358 1.87391 0.584615 1.64207 0.369858 0.0652509 0.000170007
threshold=299.47108139127334 -99.68908094235077 176.89645805146856 364.21127668841046 107.44882187113684 -232.68162997514477 -35.21734945675329 34.682111455461218 87.209704786351196 -350.09500355594668 6.3423296937280105 624.77594324371194 197.37107442681133 -242.483161743332 -313.34270628869001 144.27885654305803 451.61322974379237 348.69495913967813 -210.36626692182799 -69.915133986336272 -317.01866715045276 1.0000000180025095e-35 392.53641547469141 30.9883371749882 -20.729946142062335 -43.356121949866655 -314.78915581782934
decision_type=2 2 2 2 2 2 2 2 2 2 2 2 2 2 2 2 2 2 2 2 2 2 2 2 2 2 2
left_child=10 3 14 4 9 8 -6 -7 -4 -2 18 12 16 -14 15 -3 -12 26 19 20 -1 -16 25 -24 -21 -20 -5
right_child=1 2 5 17 6 7 -8 -9 -10 -11 11 -13 13 -15 21 -17 -18 -19 22 24 -22 -23 23 -25 -26 -27 -28
leaf_value=-0.04980377878424222 0.086825671043127411 0.12997117089295299 0.23310316196544401 -0.049726973586712846 -0.026552352047725849 0.1733943249361474 0.1577254063218316 -0.015566742838358075 0.031799521716129354 0.21060079755315608 -0.044983735291003073 0.14147418135490447 0.17434876616360645 -0.019585762088806771 -0.021966700772772744 -0.05021075541031015 0.04022465818724958 0.016767594912503792 -0.049841160410761975 -0.047675812236232476 0.0095982910253842937 -0.044714834258207825 -0.049813113974797818 -0.029551539688698666 -0.026384748323092257 -0.046205765281048944 -0.050220042160493396
leaf_weight=12.94626232981682 5.0363187491893759 4.6597524210810652 10.909538790583612 2.6751341372728348 8.2019878402352315 3.5165396854281417 6.3817202746868125 11.131844900548456 2.9972034320235243 67.67886509001255 49.544228672981262 4.3746635243296614 4.8608731329441097 21.065269581973553 10.716990210115908 8.7345713153481466 2.7646529972553244 2.2202901989221573 173.58356811106205 47.145940236747265 11.697733514010904 58.311122961342335 30.998724311590195 14.761413767933844 2.1320074051618567 13.287952378392218 5.0453553795814496
leaf_count=134 40 36 64 28 75 24 44 97 26 388 497 33 40 200 108 85 27 20 1785 488 114 597 320 151 22 134 49
internal_value=0 0.0745817 0.00359617 0.155596 0.177314 0.10768 0.0540862 0.0297959 0.189718 0.202028 -0.0389196 -0.0128758 -0.0215066 0.0167749 -0.0324636 0.0124728 -0.0404803 -0.0351256 -0.0459379 -0.0383711 -0.0216075 -0.0411831 -0.0483423 -0.0432771 -0.0467547 -0.0495827 -0.0500492
internal_weight=0 208.217 110.978 97.2397 87.2989 28.5551 14.5837 14.6484 13.9067 72.7152 389.163 82.6097 78.235 25.9261 82.4224 13.3943 52.3089 9.94078 306.554 73.9219 24.644 69.0281 232.632 45.7601 49.2779 186.872 7.72049
internal_count=5626 1681 1037 644 547 211 119 121 90 428 3945 797 764 240 826 121 524 97 3148 758 248 705 2390 471 510 1919 77
is_linear=0
shrinkage=0.05


Tree=28
num_leaves=30
num_cat=0
split_feature=7 5 9 0 1 1 1 7 0 5 5 1 0 2 6 9 2 6 7 5 2 1 8 1 3 0 2 7 1
split_gain=275.831 300.054 175.276 175.514 94.9362 29.4698 26.6959 26.5335 56.4153 36.055 18.9867 29.7554 36.3775 15.1686 11.7922 9.55758 6.62159 11.5576 6.1716 4.55043 17.309 2.57551 2.42099 2.25494 2.52836 2.03245 1.96968 0.580985 0.000112521
threshold=156.48617830237745 -4.1662619602894964 -196.65815050568901 720.86577192140123 569.28942701960545 -111.46859412008661 12.320793719419862 -31.744459864033931 -520.96972160789437 -152.53035825754674 -199.31187059087247 84.09605741323449 407.81425353331878 -41.45833415876087 -52.883189914030687 471.50263701897859 248.82283249656297 26.704191955826467 -232.68162997514477 614.1317832414353 153.75691869059474 -460.45613123700036 -176.12679795009237 322.13249013993146 373.08936557511851 -751.11714484447339 9.1859039568977785 143.59382906782582 276.96994638979533
decision_type=2 2 2 2 2 2 2 2 2 2 2 2 2 2 2 2 2 2 2 2 2 2 2 2 2 2 2 2 2
left_child=5 10 6 4 -4 7 14 15 25 -10 16 12 -12 -5 -3 18 21 -18 -1 23 28 -2 -13 24 -7 -9 -8 -25 -21
right_child=1 2 3 13 -6 19 26 8 9 -11 11 22 -14 -15 -16 -17 17 -19 -20 20 -22 -23 -24 27 -26 -27 -28 -29 -30
leaf_value=-0.043230741182098763 0.0034458566447248119 -0.0077332168087360003 0.20216012055544719 0.08772849443705498 -0.013985419741824651 -0.029209638996364459 -0.049583055813110129 -0.049172284717728748 -0.01194917183991223 0.09181247005141685 0.12284055388681255 0.0020984923349771163 -0.040178251145515258 -0.049216774182087669 0.13540375069327679 0.054997011646665685 0.054136652404353391 -0.043136714530834216 -0.018150961026374576 -0.049471147328978678 0.11909885016381663 -0.046084407127711016 -0.049358679612653084 -0.049058680529484859 -0.049300362090537495 -0.0090395373110457936 -0.007648387569081181 -0.019487100207838032 -0.049026050737552125
leaf_weight=50.054541371762753 2.7898537516593924 2.3357786759734154 55.22010313719511 2.5228634700179109 5.5949067622423163 42.143630556762218 13.968742318451406 21.842580504715446 13.219154067337511 22.832569658756256 9.4886951223015803 2.9079534113407126 5.3525529876351348 10.185962550342079 3.7473648935556438 3.3456581234931937 5.2672563642263395 7.2661938667297363 48.102714218199253 3.265988513827323 2.0742773190140724 44.307032980024815 10.684289582073687 97.159592650830746 24.919569656252861 3.6872800439596167 3.5022752359509459 1.6898359432816494 2.5120581537485123
leaf_count=575 28 23 410 24 59 474 151 254 139 220 87 32 59 119 33 36 53 74 544 36 23 493 120 1154 283 39 34 20 30
internal_value=0 0.0483076 0.108933 0.14696 0.182275 -0.0276643 -0.00976709 -0.0123987 0.0134939 0.053766 -0.0185236 0.0150977 0.0640472 -0.0220314 0.0804426 -0.0281076 -0.0345552 -0.00225701 -0.0309402 -0.0419917 -0.00479915 -0.0431504 -0.0383498 -0.0437519 -0.036675 -0.0433759 -0.0411767 -0.0485532 -0.0492776
internal_weight=0 185.142 97.078 73.5238 60.815 336.849 23.5542 163.084 61.5816 36.0517 88.0638 28.4335 14.8412 12.7088 6.08314 101.503 59.6303 12.5335 98.1573 173.765 7.85232 47.0969 13.5922 165.913 67.0632 25.5299 17.471 98.8494 5.77805
internal_count=5626 1799 853 612 469 3827 241 1807 652 359 946 298 146 143 56 1155 648 127 1119 2020 89 521 152 1931 757 293 185 1174 66
is_linear=0
shrinkage=0.05


Tree=29
num_leaves=32
num_cat=0
split_feature=1 4 3 2 7 7 9 5 1 0 3 9 7 3 9 3 7 4 5 8 5 5 5 9 0 1 2 5 8 8 1
split_gain=590.421 221.74 126.296 107.653 97.8696 50.0865 44.627 28.2108 25.7199 46.8891 47.9779 19.0168 17.3489 12.0122 14.2736 13.2122 6.9489 9.91111 5.01888 3.64294 3.16604 4.15956 1.45269 1.19836 6.4399 8.01447 0.613576 2.37744 0.421226 0.353789 0.101933
threshold=231.94025347562641 122.8428396247032 -86.582381246058773 348.69495913967813 -141.38761256322707 -173.88894494400498 166.76354605518787 282.41833170780399 -14.707640331677601 -381.00955219650126 -115.50530292123581 -153.42428067735216 281.51874855348012 22.022067246485292 -10.023717397674956 632.31499905540898 110.21391970946236 298.11068566742046 166.89193831381314 -233.86601552414638 243.8891153747189 367.50066314318491 -410.95119834093634 -228.90050530047517 -528.57073002922368 -245.96290767497035 453.78765190466623 -243.79767767272062 -494.79196030770322 389.28438422685002 -48.469414338660087
decision_type=2 2 2 2 2 2 2 2 2 2 2 2 2 2 2 2 2 2 2 2 2 2 2 2 2 2 2 2 2 2 2
left_child=8 2 4 6 11 -5 -4 -6 23 10 12 -2 -10 16 19 -16 22 -18 -12 -15 29 -22 -3 24 25 -1 30 -28 -26 -11 -25
right_child=1 13 3 5 7 -7 -8 -9 9 20 18 -13 -14 14 15 -17 17 -19 -20 -21 21 -23 -24 26 28 -27 27 -29 -30 -31 -32
leaf_value=-0.049964223888675913 0.15567990927826253 -0.00079227277817069954 -0.027856251106258223 0.067825539017654868 0.19052552078704268 0.19630016843235906 0.079193139435223436 0.094954936886928715 0.078816830834486831 -0.047940072948147623 -0.043283783656855916 0.0013315559973688244 0.21570431157452474 0.022872453604202293 0.082753357517518084 -0.035118229828813075 0.068972058546884846 -0.05104342208364248 0.04284276198177181 -0.043723419123576135 0.016695860997440481 -0.038935024219227954 -0.044499757173022285 -0.049401877972634511 -0.022102283584342484 0.08552326913230715 -0.017809867972763793 -0.049382856047749751 -0.046700656797524782 -0.027597952779586515 -0.043975765146927429
leaf_weight=2.1595495641231537 2.412943236529828 2.0366485193371799 31.116844996809959 16.435429669916633 49.041963800787926 14.089760489761828 14.168870732188223 9.1645201593637449 6.1034092009067553 33.148551397025585 7.8609501570463163 11.538028605282303 3.7287094667553902 2.739554025232791 8.9885959401726705 3.2322547137737265 3.7466317266225806 3.1805644035339355 2.1552671417593956 8.2002351135015505 5.2423566728830329 9.3585613146424276 28.559523478150368 191.74891459941864 1.8265352770686138 2.2068874314427367 7.8613577559590331 24.68276709318161 36.894341036677361 2.2847549691796294 9.0643461495637876
leaf_count=22 20 21 302 150 353 111 120 73 47 365 84 107 28 27 82 30 33 28 22 85 52 100 302 2129 20 21 84 275 409 25 99
internal_value=0 0.0666123 0.0996214 0.0545547 0.14697 0.127127 0.00563707 0.175478 -0.0398595 -0.0127587 0.0522682 0.0280275 0.13073 -0.0138751 0.0144402 0.0515779 -0.0313522 0.013868 -0.0247513 -0.0270464 -0.0385546 -0.0189611 -0.0415903 -0.0467103 -0.0390491 0.018514 -0.0481248 -0.0417561 -0.0455403 -0.0466284 -0.049157
internal_weight=0 208.652 147.968 75.8109 72.1575 30.5252 45.2857 58.2065 346.327 69.8826 19.8483 13.951 9.83212 60.684 23.1606 12.2209 37.5234 6.9272 10.0162 10.9398 50.0342 14.6009 30.5962 276.445 43.0873 4.36644 233.357 32.5441 38.7209 35.4333 200.813
internal_count=5626 1844 1236 683 553 261 422 426 3782 723 181 127 75 608 224 112 384 61 106 112 542 152 323 3059 472 43 2587 359 429 390 2228
is_linear=0
shrinkage=0.05


Tree=30
num_leaves=21
num_cat=0
split_feature=0 4 4 1 0 4 1 9 0 3 1 4 0 4 0 2 3 0 7 3
split_gain=1095.59 189.918 152.831 35.8972 25.8845 45.9309 40.3576 25.2114 20.3906 13.6785 23.4645 11.5921 17.2224 6.17781 18.1853 4.37958 1.71228 1.49961 1.26491 0.00111065
threshold=720.86577192140123 742.82337114571635 -77.223814355057769 332.47573356504148 407.81425353331878 186.3174794819416 165.31386774086482 -19.868406265524811 1270.5681387670443 110.22270865184655 -255.17543104489116 331.89556458349165 863.90258843407184 569.96597935563352 166.22822739449057 -745.21491528805495 219.96098463332942 -90.730007940652527 93.999089244778574 490.45840425499625
decision_type=2 2 2 2 2 2 2 2 2 2 2 2 2 2 2 2 2 2 2 2
left_child=1 4 8 11 13 15 -7 -3 9 10 -2 12 -4 17 -15 -6 -13 -1 -9 -11
right_child=2 7 3 -5 5 6 -8 18 -10 19 -12 16 -14 14 -16 -17 -18 -19 -20 -21
leaf_value=-0.04868782303586669 -0.02613436384049251 0.043460832169927563 0.06671483510068614 0.00037538970516587362 0.012993102811755987 0.15118490275540319 -0.038745134362497338 0.18402738869377683 0.16289516850331384 -0.050874612235315954 0.12104161388477389 0.18784148506349171 0.17498817068169689 -0.049242558174654311 0.095163184718761687 -0.037835259324340759 0.21318213285168902 -0.042165306606078062 0.22397177954364722 -0.049564532567059401
leaf_weight=216.51326444000006 6.1134824529290235 3.1449152603745469 5.0067405104637173 2.8597676530480376 4.7660269588232032 7.3502337560057622 4.5149177387356758 3.148844957351681 2.2759230062365523 2.4963159263133994 4.8619482517242449 55.292730838060379 13.784636102616785 7.4999920651316625 3.0736701041460037 38.252185359597206 7.5800993144512168 148.60644565522671 5.3480849489569664 4.5969037562608719
leaf_count=2527 57 27 38 23 49 56 48 22 13 23 34 276 77 86 26 415 41 1708 30 50
internal_value=0 -0.0348685 0.144887 0.1745 -0.0402564 -0.00818176 0.0789129 0.164405 0.0218545 0.00408905 0.0390623 0.180598 0.14614 -0.044942 -0.00726509 -0.0322039 0.190897 -0.0460331 0.209169 -0.0500256
internal_weight=0 442.219 104.869 84.524 430.577 54.8834 11.8652 11.6418 20.3446 18.0687 10.9754 81.6642 18.7914 375.693 10.5737 43.0182 62.8728 365.12 8.49693 7.09322
internal_count=5626 4994 632 455 4915 568 104 79 177 164 91 432 115 4347 112 464 317 4235 52 73
is_linear=0
shrinkage=0.05


Tree=31
num_leaves=19
num_cat=0
split_feature=0 1 0 5 6 0 9 3 1 1 0 8 1 6 5 3 5 1
split_gain=1773.58 101.19 19.1933 26.5367 19.779 9.83264 24.2158 11.2624 2.61036 1.84595 1.50525 2.45561 0.985184 0.42727 3.75305 0.475396 0.417136 0.000122959
threshold=-695.81163745978677 44.786954260108807 -544.57211672500887 -480.55212445446381 425.02909866900359 -819.81079286685519 -104.48395757353238 205.29529423345045 -207.69488056835513 -83.780899538549917 -493.82766180622173 163.74268605350557 -341.43300680905674 -639.07834732461413 -189.4388083611324 -716.84915010765553 191.35674322823544 221.638443220911
decision_type=2 2 2 2 2 2 2 2 2 2 2 2 2 2 2 2 2 2
left_child=1 5 3 -2 8 9 -7 -8 -5 12 11 16 -1 14 -12 -15 -4 -3
right_child=2 17 10 4 -6 6 7 -9 -10 -11 13 -13 -14 15 -16 -17 -18 -19
leaf_value=0.18272952192594996 0.11537027326776539 -0.050472283029031673 -0.050110681772961845 -0.0093885172232267087 0.11107070796948598 0.011784997148381151 0.17624613568224751 0.073421904399984 -0.047319750321920186 0.14451825907840249 0.022204602221904221 0.0027953530109050468 0.1717890524090967 -0.040493840235512335 -0.049754323015385758 -0.049291659246564222 -0.024007289454926375 -0.049994237541439814
leaf_weight=67.423246830701828 3.8488944768905666 2.6114852651953688 7.7385809794068319 5.9703701734542909 2.4366606026887885 3.08425244688988 18.587788142263893 3.108401656150817 18.875801987946033 3.9493224471807471 2.0703715085983303 3.7363971769809714 29.615667879581451 15.964477136731146 14.518943682312964 402.09476877748966 1.9077651798725126 2.7738985791802406
leaf_count=327 27 25 77 51 18 23 101 20 192 21 20 35 146 163 152 4181 19 28
internal_value=0 0.162013 -0.045497 -0.00753449 -0.0248731 0.171102 0.142879 0.161515 -0.0382051 0.178027 -0.0481349 -0.0316184 0.179391 -0.0486434 -0.0407737 -0.0489557 -0.0449482 -0.0502261
internal_weight=0 131.154 479.163 31.1317 27.2828 125.769 24.7804 21.6962 24.8462 100.988 448.031 13.3827 97.0389 434.649 16.5893 418.059 9.64635 5.38538
internal_count=5626 691 4935 288 261 638 144 121 243 494 4647 131 473 4516 172 4344 96 53
is_linear=0
shrinkage=0.05


Tree=32
num_leaves=27
num_cat=0
split_feature=3 1 5 8 7 9 8 3 6 5 1 4 2 9 1 5 4 3 6 1 1 6 9 1 6 4
split_gain=489.474 209.534 254.54 95.2482 96.1729 94.571 46.7177 34.6568 15.8943 15.4925 10.5452 10.1403 9.66276 21.366 24.1304 9.29842 13.6488 26.068 6.09968 9.0687 3.18921 0.49881 0.452563 0.382853 0.000175022 6.13773e-05
threshold=214.72671371484441 221.638443220911 -296.55374801580598 -26.533334169566295 243.99976852684415 176.2186619655435 498.88920121627717 82.260360720841348 46.976283493040903 186.33633342502074 -439.76090655178183 197.37107442681133 200.42663014841395 -2.0469457071917256 593.55241211306804 367.50066314318491 126.76840506670358 12.04974556476677 -685.89669745919571 383.59891937767259 -685.44709590198624 -407.10259893942663 -65.279955928318074 -724.50834411057428 243.79741256689735 224.67655773041858
decision_type=2 2 2 2 2 2 2 2 2 2 2 2 2 2 2 2 2 2 2 2 2 2 2 2 2 2
left_child=6 2 10 5 -5 -4 15 8 9 -8 -2 -12 13 22 -15 18 17 -17 19 -1 -20 -14 -3 -10 -23 -18
right_child=1 12 3 4 -6 -7 7 -9 23 -11 11 -13 21 14 -16 16 25 -19 20 -21 -22 24 -24 -25 -26 -27
leaf_value=0.070164040316734996 0.073207666516234157 -0.049153232086795035 0.010676717974877287 0.18335115406294836 -0.033183401056997928 0.17279097246897016 -0.024748704223419293 0.19031865243739907 -0.023049838217517844 0.16048431148978082 -0.04532281918809767 0.053080035173683919 -0.0220557610809161 0.10970993348287346 -0.049057154097878634 -0.02880076164919634 -0.04926121505934225 0.070497338831558148 -0.02544996139254432 -0.049125159387219453 -0.045691328701026782 -0.049265153619872312 -0.022107032420116138 -0.049857544876174886 -0.048990565279942569 -0.049084793971251289
leaf_weight=2.9247065037488928 2.3919418081641188 11.04155809432268 25.055395118892193 64.818115048110485 5.5684098899364463 14.035609930753706 1.9961094632744769 3.4703131392598143 1.8917152062058438 2.5980250462889671 27.234882198274139 2.8964704796671858 1.8366768211126352 6.5081807151436788 3.7851168513298035 21.911090433597568 7.0000034943223026 9.4643835797905904 21.105097606778145 3.4997456297278404 249.66344131529331 11.132085070014002 1.7986570149660135 4.500059425830842 12.122971564531325 16.671444706618786
leaf_count=32 19 130 186 374 49 88 21 22 21 23 328 27 21 57 45 247 80 83 248 41 2948 127 19 47 146 197
internal_value=0 0.0643966 0.0949778 0.131465 0.166221 0.0688838 -0.035415 0.0525753 0.00906393 0.0800023 -0.0278418 -0.0358635 -0.0256507 -0.00234146 0.0513271 -0.0392436 -0.0204732 0.00115242 -0.0429711 0.00518078 -0.0441136 -0.0471408 -0.0453646 -0.0419235 -0.049122 -0.049137
internal_weight=0 190.226 142.001 109.478 70.3865 39.091 346.696 14.4562 10.9859 4.59413 32.5233 30.1314 48.2252 23.1335 10.2933 332.24 55.0469 31.3755 277.193 6.42445 270.769 25.0917 12.8402 6.39177 23.2551 23.6714
internal_count=5626 1616 1071 697 423 274 4010 134 112 44 374 355 545 251 102 3876 607 330 3269 73 3196 294 149 68 273 277
is_linear=0
shrinkage=0.05


Tree=33
num_leaves=25
num_cat=0
split_feature=1 7 3 2 2 8 7 2 5 3 3 9 2 1 3 8 4 5 5 8 2 7 6 9
split_gain=414.855 414.603 181.41 55.0752 47.1855 47.5991 46.8582 46.026 34.6658 32.7808 19.8128 17.7585 15.636 36.7705 14.3362 23.9939 11.6778 8.26059 5.47765 4.5414 1.92836 1.8876 0.649109 0.432108
