tree
version=v3
num_class=10
num_tree_per_iteration=10
label_index=0
max_feature_idx=9
objective=multiclass num_class:10
feature_names=Column_0 Column_1 Column_2 Column_3 Column_4 Column_5 Column_6 Column_7 Column_8 Column_9
feature_infos=[-1074.6074093961647:2248.8235550578684] [-1377.8358569172781:1302.5397155642509] [-1415.5985659793241:1256.3257527041415] [-1177.085515679953:1532.4660831564047] [-1276.2760638883992:1331.4525154150522] [-1136.5713099565819:1076.1421349158452] [-1213.7401911700135:978.40789714512857] [-1134.073507061855:1012.7440353144784] [-1093.1843606025095:1112.539613245453] [-875.39371897570356:910.75780618922875]
tree_sizes=2569 2262 2470 2766 2972 2870 2885 2979 2981 3392 2589 3267 2524 3033 3153 2939 2501 3139 3254 3475 2492 2208 3267 3255 3040 3060 2603 3053 3278 3377 2500 2417 2960 3039 3150 3256 2515 3131 3376 3484 2509 2309 2942 3045 3151 2948 2823 3130 3166 3487 2805 2305 2853 3266 3051 3077 3170 3256 3372 3369 2709 2520 3063 3057 3170 2951 2814 2963 3369 3478 2516 3171 3146 2850 2958 2953 2623 3365 3389 3278 2327 2433 3062 3178 3153 2852 2622 3141 3387 3379 2215 2224 2972 3061 3172 2646 2743 3375 3391 3277 2524 2730 2738 3294 3065 2844 2733 3262 3496 3068 2727 3294 2838 3069 3063 3397 2941 3047 3287 3281 2732 2432 2950 3169 3058 2550 2741 3265 3381 3277 2730 2435 3400 3272 3153 2746 2937 3172 3086 3268 2768 2431 3057 2962 2967 2446 3071 3159 3072 2657 2979 2540 2939 3373 3177 3075 2943 3272 3063 3169 3055 2545 3058 2739 3069 3189 3163 3273 2999 3074 3048 2539 3168 3067 3063 2443 3057 3279 2978 3070 3155 2533 2966 3071 2855 2444 3143 3271 2999 3269 2647 2536 3202 3274 2869 3179 2955 2957 3001 3292 3171 2776 3181 2747 3286 2753 3082 3371 3163 3377 3169 2429 3311 3278 3377 3176 3052 3172 3183 3485 3159 2535 2970 3378 2961 2988 3169 3282 3165 3384 3059 2426 3074 3191 3296 3163 3163 3175 3169 3183 2957 2852 3277 3377 3078 3000 2861 3388 3392 3163 2626 2448 2969 3079 3192 3375 2871 3171 3206 3278 2626 2749 2954 3192 3282 2954 2754 3070 2986 2972 2981 2552 3164 3079 2765 3076 2566 3080 2877 3380 2640 2563 3170 2784 3069 2755 2960 3062 2875 3165 2428 2562 2852 2898 2772 2884 2557 3393 2872 3189 2893 2864 3069 2658 2962 3083 2767 3173 3088 2965 2650 2854 3086 2558 3084 2690 3092 3394 3086 2863 2647 2948 3273 2981 2956 3105 2766 3300 2987 2893 2550 2855 3064 2674 3170 2870 3086 3190 3198 2773 2890 2867 3168 2652 3399 3085 2668 3079 3094 3180 2544 3073 2971 2769 3168 2272 2560 3184 2870 3077 2768 2867 3066 2874 2348 2269 2865 3086 2659 2647 2540 2755 3073 2876 2765 2917 3075 3291 2433 2963 2984 2876 3088 3104 2869 2590 2451 2961 2778 2340 2738 2548 3172 2882 2864 2713 2553 3069 2880 2972 2986 2570 3186 2344 2888 2550 2761 3189 2456 2882 2566 2841 3416 2352 2555 2885 2867 3184 2578 2769 2773 2861 3183 2353 2867 2679 2648 3068 2564 2879 2439 2947 3094 2564 2660 2751 2665 3398 2369 2672 2764 2844 3204 2354 2782 3388 2672 3081 2364 2890 2780 2226 3057 2859 2796 2978 2670 3391 2432 2974 2554 2863 3174 2334 2792 3316 2897 2977 2866 3082 2552 2576 2965 2446 2782 3216 2792 2971 2882 3001 2776 2862 3062 2243 3537 2814 3105 2665 3193 3090 2562 2760 2972 2887 3246 2701 2796 3175 2770 3195 2673 2985 2961 2781 2241 2681 2867 3086 3207 3076 2879 2768 2870 2776 2978 3116 2444 3186 3316 2569 2991 3186 2463 2542 3182 2696 3083 3188 2768 2983 2882 3176 2442 2782 3191 2801 2863 3301 2795 2362 2875 2241 2848 2759 2664 2796 2779 3405 2151 3198 2664 2443 3403 3072 3327 3178 3097 3328 3242 2894 2855 2965 3298 3180 2661 3184 3098 2569 2819 2773 2452 2862 2650 2658 3039 2970 3112 2980 2724 2356 3019 2551 2686 2671 3011 2852 3220 2983 2820 2373 2656 2458 3291 3169 2569 3393 3096 2987 3167 2375 2137 2876 2876 2923 3107 2975 2969 3079 3197 3183 2594 2646 2663 2681 2997 2972 2788 2766 2578 2760 2474 2777 2483 2773 3000 2759 2887 3082 2882 3491 2369 2773 2669 2599 2987 2974 2033 2959 3102 2767 2688 2671 2467 2501 2989 2972 2252 3093 3196 2542 1916 2885 2754 2361 2049 3068 2688 3105 2253 3097 2263 2895 3176 2244 2247 3277 3185 2999 2556 3282 1928 2890 2656 2144 1921 3280 3199 3095 2660 3275 2343 3009 2800 2587 1918 2978 3095 3110 2253 3189 2796 2592 2886 3074 2027 2471 2864 3217 2793 2742 2563 2678 2689 1851 3276 2938 3172 3291 2254 3005 2571 3010 2686 2181 3263 2946 3069 3413 2149 2691 2128 3299 2700 2593 3118 2842 3201 3301 3000 3118 2468 2780 2564 2402 3359 2842 3323 3209 3186 2340 2570 3058 2461 2585 3412 2847 3198 3209 2359 2908 2265 2773 3326 2130 3307 2860 3003 2884 1955 2776 2263 3054 3108 2261 3199 2864 2777 2999 2596 2262 2376 3163 2788 2354 3409 2350 2681 3287 2700 2989 2264 2382 2581 2387 3304 2247 2691 2892 2287 2766 2702 3049 3319 2067 2048 2478 2909 2890 1845 2676 2661 2843 2238 3179 2689 2681 2483 3080 3034 2162 2151 2492 2250 2781 2681 2688 2597 3084 2464 2161 2768 2494 2231 2268 2690 3282 2485 2968 2931 2280 2773 2960 3076 2163 3098 3483 2577 2759 2937 2498 2874 2969 2457 2846 2911 3162 2795 2868 2462 2378 1933 2283 2879 2956 2367 3009 2384 3094 2801 3172 1944 2280 3020 2966 2468 3016 2271 2655 3031 3272 2363 2159 3135 2976 2834 2906 2689 2975 3334 3175 2987 2581 3131 2234 2841 3149 2278 2538 3112 2036 1829 2166 3111 2238 2934 3010 2697 3096 3113 2554 2160 2375 2993 2770 3071 2745 2584 3071 3082 1843 1939 2187 2049 2574 2232 2967 2696 3180 2774 3173 2151 2712 3001 2802 2554 2964 2704 3069 2991 2469 2557 2474 2372 2283 2028 2931 2261 3182 2451 1936 1933 2708 2266 2295 2494 2963 2601 2563 2370 1949 2755 2488 3322 3074 2688 2043 2891 3137 2443 2229 2772 2185 3235 3173 2802 3095 1840 3339 2252 2246 2765 3051 2953 3072 2803 2397 2788 3126 2346 2037 1951 2954 2521 1960 2155 3078 2691 3147 2484 2439 2880 2921 2271 3172 2700 2693 3135 3034 2268 2372

Tree=0
num_leaves=24
num_cat=0
split_feature=0 3 0 1 3 1 1 0 1 2 0 2 1 1 1 9 7 9 0 7 3 0 2
split_gain=2771.19 225.339 178.056 168.334 93.3584 75.2884 113.77 60.0732 42.0872 38.6058 17.8873 12.0234 16.956 9.99113 16.2824 7.12972 4.05382 3.05137 1.7622 1.96579 0.454179 0.210349 7.10543e-15
threshold=840.14924248422108 411.73352056744704 491.24272392549148 -657.26063610082429 323.36888658066619 -484.16892201831746 374.71078087886048 1108.4592104460869 -453.79834247712353 205.27907030755441 186.29705062927962 368.88496295131273 585.70823065109755 448.94026314500792 -379.0912782303746 71.977543461870653 137.16277850011667 -238.02966139702102 -45.858530012976694 -692.35703227675288 435.75398282575424 -223.28796648301025 -56.718907704619632
decision_type=2 2 2 2 2 2 2 2 2 2 2 2 2 2 2 2 2 2 2 2 2 2 2
left_child=2 3 10 -2 5 15 -7 8 -5 16 18 20 -13 14 -12 -4 -3 -9 21 -20 -6 -1 -15
right_child=1 9 4 7 11 6 -8 17 -10 -11 13 12 -14 22 -16 -17 -18 -19 19 -21 -22 -23 -24
leaf_value=-2.3652401392722906 -2.300191085186666 -2.3654542754809191 -2.3590518739014197 -2.1631383855687347 -2.340164789241896 -2.1229523526409722 -2.3654542754809191 -1.9319202256690962 -1.9558358363981514 -2.0619804406126425 -2.3633291085700767 -2.1631383855687347 -2.3654542754809191 -2.3654542754809191 -2.3125951034239445 -2.2600814161516563 -2.2734925073390171 -1.8689964644417951 -2.3180364887827509 -2.3581011538330205 -2.3654542754809191 -2.3622367835930027 -2.3654542754809191
leaf_weight=233.49624030292034 3.0645145848393431 2.6690933480858794 7.8095694258809072 2.9656592756509808 1.9771061837673247 21.649312712252144 6.2278844788670531 2.0759614929556873 14.037453904747961 1.9771061837673185 23.527563586831093 1.9771061837673176 2.1748168021440506 8.995833136141302 48.241390883922577 2.3725274205207825 2.1748168021440506 26.789788790047169 3.1633698940277091 95.197662748396397 17.398534417152405 77.700273022055626 16.904257871210575
leaf_count=2362 31 27 79 30 20 219 63 21 142 20 238 20 22 91 488 24 22 271 32 963 176 786 171
internal_value=-2.31553 -1.97894 -2.34831 -1.94141 -2.26803 -2.21963 -2.17713 -1.91744 -1.99199 -2.24817 -2.35806 -2.34633 -2.26911 -2.33883 -2.32923 -2.33599 -2.32417 -1.87352 -2.36265 -2.35681 -2.36287 -2.36449 -2.36545
internal_weight=0 55.7544 568.813 48.9334 61.5869 38.0593 27.8772 45.8689 17.0031 6.82102 507.227 23.5276 4.15192 97.669 71.769 10.1821 4.84391 28.8658 409.558 98.361 19.3756 311.197 25.9001
internal_count=6318 564 5754 495 623 385 282 464 172 69 5131 238 42 988 726 103 49 292 4143 995 196 3148 262
is_linear=0
shrinkage=1


Tree=1
num_leaves=21
num_cat=0
split_feature=0 0 0 5 5 6 5 0 5 5 3 0 0 5 0 8 2 2 4 8
split_gain=4281.76 130.913 114.987 93.9673 92.4773 72.5584 52.1559 18.485 18.3887 16.0638 12.6902 17.0707 3.22333 17.7751 2.94135 2.92507 2.47483 0.948014 0.792533 0.399638
threshold=-751.11714484447339 -682.05946938892646 -819.81079286685519 -393.34778637968162 -462.17333851281848 69.457258303494811 392.53641547469141 -595.03848687488528 -456.60693171340063 473.52383672032391 -58.844614773165453 -890.69427666159152 -493.82766180622173 -505.86539309411074 -832.42328797108178 -71.804145101800529 -23.416662263816601 -116.51370768324456 244.93720274745993 254.90847282421609
decision_type=2 2 2 2 2 2 2 2 2 2 2 2 2 2 2 2 2 2 2 2
left_child=2 3 10 -2 -4 16 15 8 -3 -10 11 17 13 -9 18 -5 -6 -1 -12 -14
right_child=1 7 4 6 5 -7 -8 12 9 -11 14 -13 19 -15 -16 -17 -18 -19 -20 -21
leaf_value=-1.7874706955684643 -1.8673168229388222 -2.062881975483613 -1.7874706955684641 -2.1720628757356897 -2.149439806314088 -1.9005860426764716 -1.9458321815196746 -2.0891116211898177 -2.226221132835887 -2.0815705980492836 -1.8012863104824191 -1.9725685362906582 -2.239475167677917 -2.232971139563078 -1.8464873984074246 -2.2399320840004942 -2.2210795261491594 -1.8327168344116673 -1.7874706955684641 -2.2362368458009585
leaf_weight=2.4311467111110687 3.757226735353469 2.5416533797979382 4.8622934222221366 2.2101333737373343 2.2101333737373343 3.9782400727272034 2.2101333737373352 2.3206400424242046 14.586880266666414 2.2101333737373343 14.476373597979544 2.4311467111110678 437.71691466867924 28.731733858585358 2.5416533797979346 5.6358401030302039 2.6521600484848014 2.2101333737373352 36.688214004039764 121.77834889292717
leaf_count=22 34 23 44 20 20 36 20 21 132 20 131 22 3961 260 23 51 24 20 332 1102
internal_value=-2.18926 -2.23288 -1.83178 -2.08067 -1.96262 -2.05895 -2.16038 -2.23632 -2.18822 -2.20719 -1.80228 -1.86524 -2.2379 -2.22222 -1.79399 -2.22081 -2.18852 -1.80902 -1.79138 -2.23877
internal_weight=0 623.7 74.4815 13.8133 13.7028 8.84053 10.0561 609.886 19.3387 16.797 60.7787 7.07243 590.548 31.0524 53.7062 7.84597 4.86229 4.64128 51.1646 559.495
internal_count=6318 5644 674 125 124 80 91 5519 175 152 550 64 5344 281 486 71 44 42 463 5063
is_linear=0
shrinkage=1


Tree=2
num_leaves=23
num_cat=0
split_feature=3 5 1 4 1 8 5 1 8 8 3 3 5 1 7 6 1 4 8 7 8 0
split_gain=817.664 547.331 659.241 386.755 230.189 155.893 97.7739 183.301 73.1916 70.4123 66.826 18.6827 18.0047 39.9666 20.9128 6.97251 9.56789 6.64936 3.30406 0.659322 1.18678 1.77636e-15
threshold=214.72671371484441 249.15490550653274 332.47573356504148 87.522105251822452 -612.24410656692874 332.8999464025614 -263.33915295561638 177.54506954860543 -52.555793763949737 610.16521309283246 -27.378549106804481 411.73352056744704 367.50066314318491 -852.1858345127979 -167.21354958545587 -320.04849822518332 -267.99627278354791 197.37107442681133 498.88920121627717 -62.061370513977437 -157.11273499470977 565.66939368625174
decision_type=2 2 2 2 2 2 2 2 2 2 2 2 2 2 2 2 2 2 2 2 2 2
left_child=9 4 3 8 11 -5 17 -8 -3 12 -11 -2 15 -14 -15 16 -1 -6 -17 21 -21 -4
right_child=1 2 19 5 6 -7 7 -9 -10 10 -12 -13 13 14 -16 18 -18 -19 -20 20 -22 -23
leaf_value=-2.336558770692565 -2.0788736947490207 -2.0697595355346623 -2.388755108037206 -2.3198925717509429 -2.3844779318703577 -1.9207050567165092 -2.1856493128108672 -2.3671663707770434 -1.8808939029260132 -2.3313696611319865 -1.9706611377277494 -1.8722860858902304 -2.1305205969637182 -2.2721330707782115 -2.3700977706197457 -2.3862784343376524 -2.3807478363760128 -2.3198925717509429 -2.3502126436978794 -2.3371082058225086 -2.388755108037206 -2.388755108037206
leaf_weight=18.200510770082474 1.9362245500087727 6.5831634700298336 11.617347300052645 11.617347300052641 46.759822882711887 3.0979592800140372 25.84859774261713 30.108291752636433 23.234694600105286 3.4852041900157928 2.0330357775092116 2.5170919150114059 1.9362245500087727 6.0022961050271979 58.958037547767162 302.82551962137222 37.465945042669773 4.3565052375197402 6.4863522425293914 1.9362245500087736 2.6139031425118437 2.0330357775092116
leaf_count=188 20 68 120 120 483 32 267 311 240 36 21 26 20 62 609 3128 387 45 67 20 27 21
internal_value=-2.33895 -2.24787 -2.12972 -2.0261 -2.31433 -2.23585 -2.32898 -2.28332 -1.92259 -2.37595 -2.19848 -1.96211 -2.37822 -2.35437 -2.36105 -2.38259 -2.3663 -2.37897 -2.38552 -2.38326 -2.36678 -2.38876
internal_weight=0 174.26 62.7337 44.5332 111.527 14.7153 107.073 55.9569 29.8179 437.393 5.51824 4.45332 431.875 66.8966 64.9603 364.978 55.6665 51.1163 309.312 18.2005 4.55013 13.6504
internal_count=6318 1800 648 460 1152 152 1106 578 308 4518 57 46 4461 691 671 3770 575 528 3195 188 47 141
is_linear=0
shrinkage=1


Tree=3
num_leaves=26
num_cat=0
split_feature=1 7 3 2 1 7 2 3 0 1 7 3 5 8 1 3 3 7 2 8 3 2 4 7 6
split_gain=799.976 1003.64 227.241 145.576 149.628 297.774 86.0016 100.242 81.0782 55.3493 92.3423 113.766 37.2892 34.7424 19.036 18.7714 17.9056 14.3415 12.1125 11.4449 16.7764 8.26452 3.51763 2.88859 0.710248
threshold=-544.36036361722324 -164.08956033915402 244.08322091436588 539.32144315549874 196.42184178426575 40.401669003236641 437.46545421957569 -205.10888302735654 89.886933045292992 -321.71705063555987 -99.276371407548439 34.586521991299442 -314.78915581782934 -191.96015906035629 -738.32892513093623 -681.53260183376858 -864.0524207857369 4.6741422868228666 29.102987721061485 293.03934468680472 -81.534458024140989 279.53006975159099 -590.35697211443141 -93.074623291227311 -141.83116864719611
decision_type=2 2 2 2 2 2 2 2 2 2 2 2 2 2 2 2 2 2 2 2 2 2 2 2 2
left_child=1 2 13 9 5 8 19 -8 -5 10 11 -2 -7 14 -1 -12 -11 -9 -15 23 -21 -18 -6 -3 -24
right_child=3 6 -4 4 22 12 7 17 -10 16 15 -13 -14 18 -16 -17 21 -19 -20 20 -22 -23 24 -25 -26
leaf_value=-1.9252709542302395 -2.1009424760974014 -2.2884043613292691 -2.2924147658060181 -1.9389152006739039 -2.2601023640219253 -2.1366633203642729 -1.9291450366575815 -2.166755425534546 -2.1763646692023646 -2.2109060045488471 -2.1793213595616936 -2.3162426218386276 -2.3042057083072618 -1.9238691480887673 -2.1340839970639638 -2.315510812146417 -2.3235041882397169 -2.3184442005765371 -1.8501457063350852 -2.1340839970639638 -2.3301125678874595 -2.3040367799062436 -2.3088051145370798 -2.3301125678874595 -2.3301125678874595
leaf_weight=2.3465966433286667 14.181605800986292 4.7952192276716188 3.9790116995573035 11.630957275629045 2.1425447613000896 3.8769857585430172 3.3668560534715652 2.4486225843429548 5.2033229917287818 3.7749598175287238 2.6526744663715354 10.814749747514723 23.159888610243797 7.7539715170860317 2.0405188202857998 54.787930324673653 332.9106455296278 4.285089522600174 19.793032556772232 2.0405188202857971 2.3465966433286658 65.194576308131218 4.6931932866573396 30.91386012732983 23.465966433286663
leaf_count=23 139 47 39 114 21 38 33 24 51 37 26 106 227 76 20 537 3263 42 194 20 23 639 46 303 230
internal_value=-2.27999 -2.13792 -1.93611 -2.30164 -2.23641 -2.17739 -2.2823 -2.1519 -2.01231 -2.31163 -2.27431 -2.19409 -2.28018 -1.89171 -2.02239 -2.30922 -2.31929 -2.26328 -1.8709 -2.31515 -2.23894 -2.32032 -2.32186 -2.32451 -2.32656
internal_weight=0 86.1099 35.9131 558.49 74.1729 43.8712 50.1968 10.1006 16.8343 484.317 82.437 24.9964 27.0369 31.9341 4.38712 57.4406 401.88 6.73371 27.547 40.0962 4.38712 398.105 30.3017 35.7091 28.1592
internal_count=6318 844 352 5474 727 430 492 99 165 4747 808 245 265 313 43 563 3939 66 270 393 43 3902 297 350 276
is_linear=0
shrinkage=1


Tree=4
num_leaves=28
num_cat=0
split_feature=1 6 6 1 3 2 9 6 9 6 9 6 1 0 6 6 3 4 6 0 9 0 4 0 7 7 9
split_gain=964.529 1665.03 153.819 111.866 70.4279 104.41 63.0556 70.3686 55.3614 43.965 23.2311 15.6786 14.7953 34.9172 49.2691 12.5426 10.9723 3.67475 2.82335 9.02763 1.34488 16.7405 1.27646 1.07788 1.86039 0.464413 0.242576
threshold=215.65562737025044 243.79741256689735 11.146420399577199 438.9346763482481 -86.582381246058773 486.46855695195967 -41.503108081562402 378.31087656053518 205.46349656568327 437.45073334206603 -542.4778190520052 -157.19174646952692 -9.6888343365618859 -329.46304330166669 291.80900507551013 91.232237227417983 -91.303876083608245 250.7189327893426 570.97763598091694 -148.30381526339303 -294.88394124437667 -374.76499741133432 -315.71110444752696 7.1324535663922735 -73.231708036045333 -418.68655537997222 603.2527641015007
decision_type=2 2 2 2 2 2 2 2 2 2 2 2 2 2 2 2 2 2 2 2 2 2 2 2 2 2 2
left_child=12 2 11 8 10 -6 17 -8 9 -3 -4 22 18 14 15 -14 -13 -5 20 -20 21 -1 -2 24 -15 -25 -22
right_child=1 3 4 6 5 -7 7 -9 -10 -11 -12 16 13 23 -16 -17 -18 -19 19 -21 26 -23 -24 25 -26 -27 -28
leaf_value=-2.2148016438736384 -2.3114075515875077 -2.1179920994590495 -2.1095804257110267 -1.8520674335172775 -2.0778272770347357 -2.2865506632600159 -2.0780758339715364 -1.90906528548488 -2.2688536395051173 -1.9217197120051761 -2.2864428367634133 -2.3092584646083645 -2.3158386428274964 -2.2865506632600159 -2.069762122262504 -2.2292155093753663 -2.251837270510022 -1.9154367449916025 -2.2075947111227747 -2.3301125678874595 -2.3296203635750472 -2.3301125678874595 -2.328470787562305 -2.3056089965345228 -2.3250602851342768 -2.3301125678874595 -2.3168673941831694
leaf_weight=3.4688819944858542 13.365398272871969 6.8357380479574186 2.0405188202857998 16.63022838532925 17.242384031414989 9.1823346912860853 10.712723806500437 14.487683624029158 3.2648301124572745 4.8972451686859131 20.609240084886551 19.180876910686493 10.50867192447186 4.5911673456430444 3.2648301124572745 6.9377639889717093 14.691735506057737 2.6526744663715354 2.0405188202857971 5.713452696800231 304.7514858096838 33.974638357758522 60.909486785531044 2.0405188202857962 9.8965162783861125 36.933390647172928 3.7749598175287238
leaf_count=34 131 67 20 163 169 90 105 142 32 48 202 188 103 45 32 68 144 26 20 56 2987 333 597 20 97 362 37
internal_value=-2.27999 -2.19398 -2.27923 -1.96865 -2.20581 -2.15036 -1.92884 -1.98091 -2.08674 -2.03607 -2.27051 -2.31254 -2.32345 -2.30315 -2.24803 -2.28139 -2.28435 -1.86078 -2.32771 -2.29787 -2.32838 -2.31943 -2.3254 -2.3245 -2.31286 -2.32883 -2.32946
internal_weight=0 216.703 157.222 59.4811 49.0745 26.4247 44.4833 25.2004 14.9978 11.733 22.6498 108.147 427.897 74.1729 20.7113 17.4464 33.8726 19.2829 353.724 7.75397 345.97 37.4435 74.2749 53.4616 14.4877 38.9739 308.526
internal_count=6318 2124 1541 583 481 259 436 247 147 115 222 1060 4194 727 203 171 332 189 3467 76 3391 367 728 524 142 382 3024
is_linear=0
shrinkage=1


Tree=5
num_leaves=27
num_cat=0
split_feature=5 1 3 7 0 0 3 5 7 9 3 2 5 4 1 4 5 8 3 7 4 4 1 8 5 5
split_gain=284.466 175.812 226.801 205.862 197.882 105.241 166.187 89.253 25.5971 89.595 64.0534 14.1165 19.7914 7.40493 7.30008 12.4373 6.94775 12.5703 16.2461 4.94608 12.0526 2.76296 0.706581 0.607274 1.58805 0.284887
threshold=51.50046335054892 253.24710190584759 -284.60545010605773 -56.165411650510329 942.0742794651643 -656.38307722381694 214.72671371484441 -488.47239491883317 222.15904213145788 209.62999818598396 -213.85313310653507 787.65012973724379 150.18639737876597 138.99644856330727 374.71078087886048 202.57616474607875 150.18639737876597 -278.18218912020001 12.04974556476677 254.08710175107518 631.98800036493355 233.67415665103303 467.67430927479046 -243.1972677769925 339.32874676639693 157.97066582141909
decision_type=2 2 2 2 2 2 2 2 2 2 2 2 2 2 2 2 2 2 2 2 2 2 2 2 2 2
left_child=1 2 3 7 -5 -4 -7 -1 14 13 -11 16 -13 -10 15 -3 17 18 -2 -14 -21 -19 -16 24 -18 -25
right_child=11 8 5 4 -6 6 -8 -9 9 10 -12 12 19 -15 22 -17 23 21 -20 20 -22 -23 -24 25 -26 -27
leaf_value=-2.1626596027933451 -2.3257501104609175 -2.4778385483738719 -2.4895022429060458 -2.1060302474335817 -2.4329333244250018 -2.3406746923684323 -2.4578683082291461 -2.4168799826938945 -2.4855738457893066 -1.9803819765766466 -2.3807158612117298 -2.3127243726527822 -2.4895022429060458 -2.3763644059439573 -2.4752411710200684 -2.3682831318752364 -2.4709983910664519 -2.4860944767324891 -2.4637890981419348 -2.3197954874629128 -2.4895022429060458 -2.4562264085054317 -2.4895022429060458 -2.474213346019277 -2.4895022429060458 -2.4891430751696584
leaf_weight=3.9774490892887142 3.3587347865104658 8.5736124813556653 35.620266288518906 18.384653568267826 6.1871430277824393 69.207614153623581 53.73975658416748 26.162776231765747 12.727837085723879 1.7677551507949827 2.2980816960334769 2.8284082412719718 6.3639185428619367 1.7677551507949818 10.518143147230147 3.7122858166694632 18.914980113506317 29.344735503196716 5.8335919976234436 1.7677551507949827 2.5632449686527252 10.518143147230147 49.850695252418518 3.2703470289707175 29.96344980597496 139.2107181251049
leaf_count=45 38 97 403 208 70 783 608 296 144 20 26 32 72 20 119 42 214 332 66 20 29 119 564 37 339 1575
internal_value=-2.44021 -2.40838 -2.38354 -2.29576 -2.18834 -2.41382 -2.3919 -2.38333 -2.46648 -2.41408 -2.20666 -2.48005 -2.43035 -2.47226 -2.47987 -2.44474 -2.48285 -2.46606 -2.41335 -2.46145 -2.42023 -2.47821 -2.48702 -2.48715 -2.48234 -2.4888
internal_weight=0 304.496 213.28 54.712 24.5718 158.568 122.947 30.1402 91.2162 18.5614 4.06584 253.938 13.5233 14.4956 72.6547 12.2859 240.415 49.0552 9.19233 10.6949 4.331 39.8629 60.3688 191.359 48.8784 142.481
internal_count=6318 3445 2413 619 278 1794 1391 341 1032 210 46 2873 153 164 822 139 2720 555 104 121 49 451 683 2165 553 1612
is_linear=0
shrinkage=1


Tree=6
num_leaves=27
num_cat=0
split_feature=5 2 5 2 6 1 9 1 1 2 0 6 0 1 0 9 2 0 2 9 6 5 1 6 7 0
split_gain=1261.62 505.717 171.506 159.109 205.566 83.03 77.1494 107.882 58.2144 43.2395 54.5749 32.0853 55.9502 89.9077 23.6751 17.456 11.3015 11.4511 8.65718 5.52621 4.77829 3.70879 4.70786 1.99054 0.507035 8.88178e-16
threshold=-567.96558129922914 -102.90838834857081 -301.85013738866513 -167.53781922884488 30.612838088807873 -345.68968400823195 -140.02097896050324 -89.951971694190945 -305.37432326030756 129.03480711135185 -467.71670712409031 -81.195319806620873 89.886933045292992 1.0000000180025095e-35 -108.8512533733186 -183.56546664582521 -415.89262030596404 311.55212718740432 -637.13857649341992 -183.56546664582521 140.71233477429391 -126.55924372094951 61.939183570883735 98.859215021457487 -121.7824920070405 7.1324535663922735
decision_type=2 2 2 2 2 2 2 2 2 2 2 2 2 2 2 2 2 2 2 2 2 2 2 2 2 2
left_child=1 5 3 4 8 -1 7 -5 -2 10 -3 12 18 -14 -6 -12 24 -18 -4 -11 -8 22 -13 -23 -7 -21
right_child=2 9 11 6 14 16 20 -9 -10 19 15 21 13 -15 -16 -17 17 -19 -20 25 -22 23 -24 -25 -26 -27
leaf_value=-2.124391493972495 -2.2200367599100974 -2.3239343573821523 -2.2594043406504554 -2.3136322659102371 -2.1707585236549916 -1.8645359822986487 -2.3370963078565357 -2.0814663595607401 -1.9856554996469153 -2.2601460649807046 -1.9443940175935379 -2.3078840669801699 -2.3245127486344974 -2.2141484379455565 -2.3110137361110561 -2.1353189755399407 -1.8891420996164012 -2.0174732134534574 -2.331382417311548 -2.3398814304825146 -2.3036284176343584 -2.3282574919985715 -2.3362464358787554 -2.3381200554251111 -1.8455221643712938 -2.3398814304825146
leaf_weight=3.9444998055696514 3.3376536816358593 3.1353716403245926 4.3490638881921759 11.42893533408642 3.8433587849140194 5.2593330740928677 35.905062332749367 8.9004098176956159 12.844909623265265 3.1353716403245926 2.0228204131126404 31.252575382590294 39.040433973073959 34.994793146848679 13.856319829821585 2.9330895990133303 6.8775894045829737 2.3262434750795364 105.89464862644672 4.9559100121259672 15.171153098344801 73.12495793402195 27.510357618331909 170.32147878408432 10.51866614818573 2.1239614337682724
leaf_count=39 33 31 43 113 38 52 355 88 127 31 20 309 386 346 137 29 68 23 1047 49 150 723 272 1684 104 21
internal_value=-2.28981 -2.04136 -2.30989 -2.25203 -2.1628 -1.91121 -2.29437 -2.21199 -2.034 -2.24702 -2.16068 -2.32241 -2.30597 -2.27235 -2.28056 -2.05739 -1.87755 -1.92158 -2.32854 -2.31541 -2.32716 -2.33244 -2.32116 -2.33516 -1.85186 -2.33988
internal_weight=0 47.2329 591.776 105.288 33.8822 28.9263 71.4056 20.3293 16.1826 18.3065 8.09128 486.488 184.279 74.0352 17.6997 4.95591 24.9818 9.20383 110.244 10.2152 51.0762 302.209 58.7629 243.446 15.778 7.07987
internal_count=6318 467 5851 1041 335 286 706 201 160 181 80 4810 1822 732 175 49 247 91 1090 101 505 2988 581 2407 156 70
is_linear=0
shrinkage=1


Tree=7
num_leaves=28
num_cat=0
split_feature=1 6 3 4 4 3 7 2 7 3 6 7 1 0 5 4 7 5 0 3 5 7 9 4 2 5 6
split_gain=1057.28 1169.96 424.378 352.916 250.097 206.649 136.504 80.7591 56.6527 122.024 54.1366 52.4935 34.3623 78.9732 95.6014 27.7535 21.2176 7.50174 5.36287 13.5712 17.3976 4.43709 3.08102 2.57322 0.352598 0.305747 0.151033
threshold=299.47108139127334 -196.10228302148633 200.97809510341969 176.89645805146856 -309.25641712293225 110.22270865184655 61.004471748908514 648.93840986249063 -313.34270628869001 123.00317887489288 -414.76248321398214 243.99976852684415 6.3423296937280105 -443.95540792716969 282.41833170780399 224.67655773041858 -199.72440353421808 624.77594324371194 -555.33199018225025 -64.973746008973663 72.512856127007183 -73.231708036045333 -254.49097621709913 -143.69123209410972 266.46286709573718 849.94355595326363 -713.72793843567638
decision_type=2 2 2 2 2 2 2 2 2 2 2 2 2 2 2 2 2 2 2 2 2 2 2 2 2 2 2
left_child=12 2 4 8 10 6 -5 -7 9 -3 -2 -6 18 14 15 -14 -4 21 19 20 -1 -15 -21 -10 -18 26 -20
right_child=1 3 16 5 11 7 -8 -9 23 -11 -12 -13 13 17 -16 -17 24 -19 25 22 -22 -23 -24 -25 -26 -27 -28
leaf_value=-2.2667001032946108 -1.9944385263285498 -1.9912115552961298 -2.1003418483925134 -1.8417147881942018 -1.8374229167210832 -2.2491789496715979 -2.1801360411941704 -1.9219783586005743 -2.276802069238502 -2.2738282115104544 -2.2678168693308751 -2.0914236739029164 -2.2449608941697616 -2.2498586363401403 -1.9129208376345774 -2.1067119730279398 -2.2787053381844529 -2.1811628047044858 -2.2706328526550763 -2.2176352302665605 -2.1554937169466002 -2.2766652329090546 -2.2745741250017719 -2.2599771717562991 -2.2552951301492605 -2.2625603671256997 -2.2785265660726912
leaf_weight=8.3296995162963849 2.9901485443115234 6.0870881080627468 2.2426114082336417 11.213057041168215 42.716407775878906 11.853803157806395 4.0580587387084952 2.2426114082336417 52.541181564331055 10.251937866210936 4.5920138359069815 2.1358203887939444 11.853803157806402 22.532905101776123 3.4173126220703116 5.2327599525451651 6.5142521858215314 2.5629844665527335 6.1938791275024405 2.4561934471130362 6.0870881080627433 49.017077922821045 72.617893218994141 40.046632289886475 2.1358203887939453 3.0969395637512198 279.68567991256714
leaf_count=78 28 57 21 105 400 111 38 21 492 96 43 20 111 211 32 49 61 24 58 23 57 459 680 375 20 29 2619
internal_value=-2.22827 -2.1314 -1.95341 -2.2129 -1.89442 -2.05908 -1.93164 -2.19712 -2.25438 -2.16854 -2.16001 -1.84952 -2.26814 -2.24119 -2.15434 -2.20262 -2.23739 -2.26521 -2.27487 -2.26418 -2.21975 -2.26822 -2.27271 -2.26952 -2.27293 -2.27819 -2.27836
internal_weight=0 201.621 63.3271 138.294 52.4344 29.3675 15.2711 14.0964 108.927 16.339 7.58216 44.8522 473.084 94.6168 20.5039 17.0866 10.8927 74.113 378.467 89.4909 14.4168 71.55 75.0741 92.5878 8.65007 288.976 285.88
internal_count=6318 1888 593 1295 491 275 143 132 1020 153 71 420 4430 886 192 160 102 694 3544 838 135 670 703 867 81 2706 2677
is_linear=0
shrinkage=1


Tree=8
num_leaves=28
num_cat=0
split_feature=7 4 3 1 2 1 4 1 4 7 1 3 0 6 7 4 1 1 7 2 0 7 1 1 2 8 0
split_gain=408.612 465.495 237.841 187.943 184.101 171.669 102.61 120.663 57.1077 72.0379 140.892 88.7976 54.7809 44.0941 36.1892 16.3366 15.8508 12.2379 24.7184 7.06633 43.7235 2.9097 1.71948 1.49505 2.08796 0.438825 1.42109e-14
threshold=185.77600215106341 -398.9407572474492 329.36781476895857 137.94362646714532 -637.13857649341992 -133.80548614132769 -68.276815885672661 -74.096035256149619 -84.722422135098086 -25.799519603726779 -111.46859412008661 298.59235115933654 304.42889900303419 -262.66428922717358 391.45272445221559 217.26282062866707 269.30414298224696 -354.97001350398864 -173.88894494400498 -718.50742966712551 1.0000000180025095e-35 360.45116320417014 145.64887990445149 322.13249013993146 194.04046869594382 177.69042663439174 663.31977405928399
decision_type=2 2 2 2 2 2 2 2 2 2 2 2 2 2 2 2 2 2 2 2 2 2 2 2 2 2 2
left_child=8 2 3 12 5 21 7 -6 9 17 11 -11 -2 -5 -7 -8 -12 18 -1 20 -10 -3 -19 24 -21 -22 -25
right_child=1 4 -4 13 6 14 15 -9 19 10 16 -13 -14 -15 -16 -17 -18 22 -20 23 25 -23 -24 26 -26 -27 -28
leaf_value=-2.4073888629629949 -1.9319449591238231 -1.970639682584622 -2.4262993655199696 -2.0863401036434408 -2.1982398105601928 -2.4262993655199696 -2.3763995366574022 -2.3712249637432126 -2.159188516902697 -2.1924112592680292 -2.3562979017444086 -2.4175416327784198 -2.1120513083231782 -2.3562375035875704 -2.159188516902697 -2.4219911260261426 -2.4241709922242145 -2.4093154387292763 -2.3235644237440956 -2.4209653547180889 -2.4262993655199696 -1.8920776682854241 -2.4249867814972803 -2.4262993655199696 -2.4074127398601628 -2.3995882806582425 -2.4262993655199696
leaf_weight=31.728401273488998 12.541609942913061 3.1821995377540588 5.9900226593017569 2.0590702891349792 16.004591792821884 3.9309523701667768 34.068253874778748 27.23588427901268 1.8718820810317982 18.812414914369587 13.571145087480543 5.709240347146987 6.3643990755081168 5.709240347146987 1.8718820810317991 46.422675609588623 23.492120116949081 32.383560001850128 12.167233526706694 121.85952347517014 8.6106575727462751 1.8718820810317991 38.092800348997116 73.939342200756073 37.063265204429626 1.8718820810317982 2.9014172255992881
leaf_count=339 134 34 64 22 171 42 364 291 20 201 145 61 68 61 20 496 251 346 130 1302 92 20 407 790 396 20 31
internal_value=-2.37669 -2.31091 -2.14159 -2.07765 -2.352 -2.15458 -2.36932 -2.3072 -2.40319 -2.3814 -2.3378 -2.24483 -1.99257 -2.2847 -2.34013 -2.40269 -2.39932 -2.40488 -2.38415 -2.41864 -2.38178 -1.94154 -2.41779 -2.42057 -2.4178 -2.42153 -2.4263
internal_weight=0 167.253 32.6643 26.6743 134.588 10.8569 123.731 43.2405 424.075 175.957 61.5849 24.5217 18.906 7.76831 5.80283 80.4909 37.0633 114.372 43.8956 248.118 12.3544 5.05408 70.4764 235.764 158.923 10.4825 76.8408
internal_count=6318 1787 349 285 1438 116 1322 462 4531 1880 658 262 202 83 62 860 396 1222 469 2651 132 54 753 2519 1698 112 821
is_linear=0
shrinkage=1


Tree=9
num_leaves=32
num_cat=0
split_feature=1 7 3 6 9 6 8 2 7 6 5 1 0 3 7 2 9 8 2 5 9 5 6 9 0 1 2 2 5 1 3
split_gain=905.799 259.55 236.875 259.573 152.56 150.045 105.247 83.8495 70.7758 62.8202 31.2201 27.9837 52.062 84.1873 25.8283 16.2613 13.0492 10.3079 8.73588 3.9833 5.61095 3.11362 2.47098 2.37401 11.4576 16.4018 0.775553 0.710418 1.93408 0.594625 3.55271e-15
threshold=231.94025347562641 -52.932076286538489 -78.374416363249793 -262.66428922717358 -41.503108081562402 266.40577988761197 -16.140923404210792 205.27907030755441 -410.11493854723852 352.72871059651237 19.258977956003555 1.0000000180025095e-35 -381.00955219650126 -115.50530292123581 281.51874855348012 577.81531662047416 223.15992752620616 -348.49942476943318 453.78765190466623 -53.302163325046664 -276.81307013646341 191.35674322823544 -90.618246835338269 -228.90050530047517 -528.57073002922368 -161.72666792283508 832.59354805276485 586.06396137162108 -83.208050178244619 -14.707640331677601 -244.17162601316519
decision_type=2 2 2 2 2 2 2 2 2 2 2 2 2 2 2 2 2 2 2 2 2 2 2 2 2 2 2 2 2 2 2
left_child=11 6 3 10 17 -5 8 -6 18 -10 -3 23 13 14 -13 22 -17 -4 -2 30 -21 -15 -8 24 25 -1 -26 29 -29 -25 -14
right_child=1 2 4 5 7 -7 15 -9 9 -11 -12 12 19 21 -16 16 -18 -19 -20 20 -22 -23 -24 27 26 -27 -28 28 -30 -31 -32
leaf_value=-2.3453368529895617 -2.3597139318272369 -2.1557148402115747 -2.2339144919975786 -1.9997025267862638 -2.2451930624650651 -2.2561143931439887 -2.3559446602218537 -2.0675345877067404 -2.1498784289534751 -2.3139686809800883 -2.3237712347330488 -2.1919813453876928 -2.3597139318272369 -2.3537939581881941 -2.0002869608853562 -2.1628104607895109 -2.3357521337644447 -2.3429406731832825 -2.2855584725592277 -2.2734514588011856 -2.3417425832801428 -2.2842342679294418 -2.3308682004013277 -2.3593324323887845 -2.3572830247773884 -2.1680195473249007 -2.3398508623804486 -2.3311231500477692 -2.3597139318272369 -2.3437393997853753 -2.3597139318272369
leaf_weight=3.4777579084038734 6.8561513051390675 3.6764869317412368 2.384748280048373 36.665504805743694 14.407854191958906 6.7567867934703818 26.53032461553812 12.321199446916578 24.543034382164478 7.6510673984885207 11.128825306892393 4.7694965600967434 5.365683630108836 8.4459834918379766 2.7822063267230988 2.2853837683796874 2.0866547450423241 23.847482800483704 9.4396286085247976 3.4777579084038761 22.25765061378479 1.9872902333736409 15.600228331983088 262.12358178198338 41.136907830834389 2.0866547450423232 7.5517028868198386 8.7440770268440264 18.283070147037506 6.2599642351269713 22.853837683796883
leaf_count=35 69 37 24 369 145 68 267 124 247 77 112 48 54 85 28 23 21 240 95 35 224 20 157 2638 414 21 76 88 184 63 230
internal_value=-2.30975 -2.2227 -2.17085 -2.10125 -2.24737 -2.0396 -2.28339 -2.1633 -2.23185 -2.18888 -2.28204 -2.35058 -2.32218 -2.24851 -2.12136 -2.33713 -2.24535 -2.33303 -2.31676 -2.34674 -2.33251 -2.34054 -2.34666 -2.35643 -2.34681 -2.27884 -2.35458 -2.35819 -2.35046 -2.35897 -2.35971
internal_weight=0 206.181 111.189 58.2276 52.9613 43.4223 94.9925 26.7291 48.4899 32.1941 14.8053 421.604 71.9399 17.985 7.5517 46.5026 4.37204 26.2322 16.2958 53.9549 25.7354 10.4333 42.1306 349.664 54.253 5.56441 48.6886 295.411 27.0271 268.384 28.2195
internal_count=6318 2075 1119 586 533 437 956 269 488 324 149 4243 724 181 76 468 44 264 164 543 259 105 424 3519 546 56 490 2973 272 2701 284
is_linear=0
shrinkage=1


Tree=10
num_leaves=24
num_cat=0
split_feature=0 4 4 1 0 4 3 5 7 1 5 4 0 4 4 0 0 0 7 5 0 0 3
split_gain=1934.76 425.455 303.079 95.2463 61.7801 95.5107 50.2216 44.4174 44.6906 35.6981 20.4565 11.9838 37.5102 8.91019 6.69687 5.29089 4.83651 4.07754 3.04499 2.5878 2.38384 0.445398 0.00121549
threshold=813.97218941104927 742.82337114571635 116.25915559076675 299.47108139127334 552.6574765465258 172.31130143125768 323.36888658066619 97.079997635477781 97.192853155731029 -466.44456588412748 -278.5058338753758 569.96597935563352 166.22822739449057 -278.30819072561275 303.66519787573708 1083.8856300506411 192.27561576940772 330.73646824388709 -226.44450660401705 276.54588167120113 1083.8856300506411 575.85180204005962 411.73352056744704
decision_type=2 2 2 2 2 2 2 2 2 2 2 2 2 2 2 2 2 2 2 2 2 2 2
left_child=1 4 7 17 11 10 -7 8 9 -2 -6 16 -13 -10 15 -4 -1 -3 -16 -9 -20 -19 -21
right_child=2 3 14 -5 5 6 -8 19 13 -11 -12 12 -14 -15 18 -17 -18 21 20 22 -22 -23 -24
leaf_value=-0.047814186173242582 0.018422076790720748 0.30600864399078853 0.20674030043116295 0.035131933585507612 0.040082906338972837 0.23948754370660419 -0.029143500626923887 0.014618165312185611 -0.035850606843839304 0.25034683998890878 -0.045734843770718445 -0.049670466335753768 0.13705283603954363 0.089175475570259011 0.2656714363064151 0.29445562409890652 -0.035528979903972351 0.40502361817715765 0.33028157948374992 -0.051578059679614631 0.30276471623775281 0.37727127569216568 -0.049922798375804364
leaf_weight=380.32030749320984 2.1801507920026779 1.9667881578206996 3.2902859672904006 2.9466180503368378 9.977507568895815 6.3722308203577978 2.3933587595820427 2.2832924723625174 3.3320111855864525 6.9431738108396548 22.840750224888325 9.5553396716713888 3.7432885542511931 2.4899306818842879 4.4011961519718161 3.6003255620598793 101.49324234575033 2.5236120894551277 10.331936553120611 2.4161472544074059 33.041827902197838 3.384876437485218 2.0501308143138885
leaf_count=4031 21 20 27 31 99 57 24 20 30 54 227 101 38 21 33 26 1049 23 80 20 236 29 21
internal_value=0 -0.0327589 0.235899 0.277633 -0.0390177 0.0195179 0.16614 0.077777 0.125856 0.194925 -0.0196443 -0.043934 0.00288828 0.0176206 0.298652 0.252571 -0.0452263 0.368367 0.305298 -0.028682 0.309319 0.389125 -0.0508183
internal_weight=0 547.518 76.3604 10.8219 536.696 41.5838 8.76559 21.6948 14.9453 9.12332 32.8183 495.112 13.2986 5.82194 54.6656 6.89061 481.814 7.87528 47.775 6.74957 43.3738 5.90849 4.46628
internal_count=6318 5729 589 103 5626 407 81 187 126 75 326 5219 139 51 402 53 5080 72 349 61 316 52 41
is_linear=0
shrinkage=0.05


Tree=11
num_leaves=30
num_cat=0
split_feature=4 1 3 2 7 5 9 6 3 6 1 3 4 5 8 1 2 8 1 9 8 5 9 3 7 5 6 2 5
split_gain=494.185 612.785 516.675 365.605 256.902 56.6428 66.1446 34.5797 39.547 24.6766 44.0554 57.6269 51.1739 29.5456 60.7736 61.4816 11.6922 5.16619 25.5473 4.61882 3.76903 2.87852 3.96787 1.8447 1.61515 1.28278 0.378316 0.284525 4.87453e-05
threshold=91.91444767756721 -56.576072155958073 -78.374416363249793 234.97349370999254 -129.26496365444996 -443.56198567247804 213.68811802670774 -233.13653782906729 -225.2407111084955 -326.8622306155554 -89.951971694190945 148.52037751746914 -180.42716010442675 650.36415868026745 -195.39871415280558 -321.71705063555987 311.76835979881582 -583.95534580653327 -326.15268123391547 404.31801642214981 -426.43118770611102 -383.09221707741182 42.721096705877223 -769.62408799194361 178.58094983578084 -599.79072570993173 340.27647597648553 54.285157465935505 552.54434405992117
decision_type=2 2 2 2 2 2 2 2 2 2 2 2 2 2 2 2 2 2 2 2 2 2 2 2 2 2 2 2 2
left_child=9 2 7 4 -4 6 27 8 -2 10 11 12 -1 17 15 -15 -5 18 -11 -19 -9 22 -7 -23 -13 -12 -16 -3 -27
right_child=1 5 3 16 -6 21 -8 20 -10 13 25 24 -14 14 26 -17 -18 19 -20 -21 -22 23 -24 -25 -26 28 -28 -29 -30
leaf_value=0.012341256518821481 -0.050400757059986069 -0.050432383103946765 -0.035581866426991675 0.063752398838214305 0.23163839144102027 -0.050288387825484941 0.22395762221411131 0.00021234355147105151 0.14823515493809572 0.12915225362302157 -0.015409065809320508 -0.050368298578440822 0.18057751099369679 0.28056988580777403 -0.050314546086122881 -0.050298781757145632 -0.050380496459731583 -0.048947195955806683 -0.050346807219977578 -0.026523897029051481 -0.046383989375733417 -0.0024831880427824563 0.040033978205242675 -0.049903278493252004 -0.0028400999275544729 -0.05033526318920889 -0.026952605346977212 -0.026575109403104522 -0.050561223188350914
leaf_weight=9.547065004706381 4.4451779052615166 3.0791856124997121 9.9905188381671888 2.6018380820751217 90.202486224472523 2.7165126577019683 4.3330234438180923 4.9066975414752951 5.7432124391198141 2.4846695214509955 2.8550475835800162 11.8412769138813 8.5844759196043032 3.5993203967809677 9.3356936499476415 2.3019747287035015 16.313460387289524 281.16288116574287 9.8032142147421819 25.00793768465519 37.55994775891304 2.0916288569569579 2.2011861652135849 105.28552080690861 2.1053277775645247 30.189322724938393 2.1278968378901473 2.1034557819366455 2.5916640684008589
leaf_count=89 42 29 92 22 631 26 31 45 46 20 27 112 66 26 89 22 154 2661 93 233 355 20 20 996 20 287 20 20 24
internal_value=0 0.0484392 0.109273 0.166931 0.204993 -0.0373412 0.0797867 -0.0211534 0.0615706 -0.0368247 -0.00928959 0.0332183 0.0919936 -0.0423767 0.0211347 0.151505 -0.0346813 -0.0458399 -0.0140512 -0.0471157 -0.0410001 -0.0472664 -0.00985965 -0.0489796 -0.0431936 -0.0475535 -0.0459781 -0.0407495 -0.0503531
internal_weight=0 293.574 171.763 119.108 100.193 121.811 9.51566 52.655 10.1884 403.538 67.7142 32.0781 18.1315 335.824 17.3649 5.9013 18.9153 318.459 12.2879 306.171 42.4666 112.295 4.9177 107.377 13.9466 35.636 11.4636 5.18264 32.781
internal_count=6318 2529 1387 899 723 1142 80 488 88 3789 625 287 155 3164 157 48 176 3007 113 2894 400 1062 46 1016 132 338 109 49 311
is_linear=0
shrinkage=0.05


Tree=12
num_leaves=23
num_cat=0
split_feature=3 5 1 4 2 1 8 3 5 1 2 9 5 1 7 2 4 3 1 3 5 5
split_gain=689.508 366.168 459.663 192.198 174.395 126.804 64.2379 68.254 61.5854 91.0684 51.1834 15.1008 13.2754 18.9309 15.0034 7.03539 6.39705 4.81156 3.04992 4.65188 0.479267 8.16824e-06
threshold=214.72671371484441 145.36431288906502 332.47573356504148 91.91444767756721 -275.81145482758569 -612.24410656692874 498.88920121627717 82.260360720841348 -263.33915295561638 177.54506954860543 205.27907030755441 -167.32409228079578 367.50066314318491 -828.37825677981516 -167.21354958545587 -3.1006722696986011 197.37107442681133 -103.54194166907915 -267.99627278354791 -27.378549106804481 243.8891153747189 249.15490550653274
decision_type=2 2 2 2 2 2 2 2 2 2 2 2 2 2 2 2 2 2 2 2 2 2
left_child=6 5 3 10 -5 -2 12 11 16 -10 -3 -8 18 -14 -15 -4 -7 -13 19 -1 -20 -17
right_child=1 2 15 4 -6 8 7 -9 9 -11 -12 17 13 14 -16 21 -18 -19 20 -21 -22 -23
leaf_value=-0.044168056705628851 0.2646753299142362 0.29210090977302289 0.031372681082087843 0.31736327414919724 -0.0077498374251580432 -0.045075222235287697 0.12031833143218312 0.2872172371412875 0.11207226009707115 -0.029721933438886107 0.13689617106539503 -0.035768277884056218 0.12067967330870454 0.051258761775529821 -0.032491677688232218 -0.049642829382532887 0.017978538243454769 0.0428779053183658 -0.048258843467697543 -0.023007121303470688 -0.040489417613264189 -0.04956975673232792
leaf_weight=83.75626640021801 4.7291501984000197 41.35025979578495 3.0872315689921406 5.8263996466994312 14.123887918889521 44.718402452766895 2.6432644277811042 2.8061164394021025 22.7258510440588 22.569765046238899 6.0949956104159346 7.1355559378862363 2.3332291543483725 5.9177488833665839 55.500997193157673 5.0848315060138729 4.420114889740943 2.6734119802713394 197.85899461060762 37.644636213779449 22.062314204871655 15.427765987813471
leaf_count=906 35 306 33 48 138 483 27 24 204 239 49 74 21 58 593 54 45 25 2147 405 238 166
internal_value=0 0.0784804 0.15091 0.21741 0.0871981 0.0120164 -0.0362622 0.0644501 -0.000636468 0.0414195 0.272163 0.0142494 -0.0400559 -0.0191117 -0.0244223 -0.0389969 -0.0394034 -0.0143334 -0.0439678 -0.0376064 -0.0474794 -0.0495879
internal_weight=0 190.159 90.9954 67.3955 19.9503 99.1633 420.333 15.2583 94.4341 45.2956 47.4453 12.4522 405.074 63.752 61.4187 23.5998 49.1385 9.80897 341.322 121.401 219.921 20.5126
internal_count=6318 1800 794 541 186 1006 4518 150 971 443 355 126 4368 672 651 253 528 99 3696 1311 2385 220
is_linear=0
shrinkage=0.05


Tree=13
num_leaves=28
num_cat=0
split_feature=1 7 2 3 1 7 3 2 3 1 7 3 5 3 3 2 8 8 3 7 2 7 1 4 0 7 4
split_gain=640.673 590.591 131.655 130.142 121.589 201.029 63.6611 56.3788 58.6322 52.949 77.6884 84.176 29.0997 16.719 16.4752 15.2781 16.675 11.1994 13.1831 10.2068 8.26596 7.7884 3.59562 6.95182 2.49531 2.04711 6.86244e-05
threshold=-544.36036361722324 -141.38761256322707 539.32144315549874 244.08322091436588 196.42184178426575 91.064833235667749 153.19917115401788 437.46545421957569 -205.10888302735654 -321.71705063555987 -99.276371407548439 34.586521991299442 -363.98168425941117 -681.53260183376858 -864.0524207857369 -229.44473776035792 -1.0000000180025095e-35 293.03934468680472 -81.534458024140989 -270.05534252321371 279.53006975159099 4.6741422868228666 374.71078087886048 -65.108642462168646 25.884064812010269 -93.074623291227311 -522.9350333484706
decision_type=2 2 2 2 2 2 2 2 2 2 2 2 2 2 2 2 2 2 2 2 2 2 2 2 2 2 2
left_child=1 3 9 15 5 6 -4 17 -9 10 11 -2 -7 -12 -11 16 -1 25 -19 -17 -16 -10 23 -6 -5 -3 -24
right_child=2 7 4 24 22 12 -8 8 21 14 13 -13 -14 -15 20 19 -18 18 -20 -21 -22 -23 26 -25 -26 -27 -28
leaf_value=0.090934977799264405 0.1453253565336253 -0.010924432455357029 0.23582577918600645 -0.050008413154850974 0.064365446529613651 0.14813533960416292 0.04083135681518496 0.24555418516514901 0.075403823182800769 0.062593662942624556 0.089543720729947221 -0.03567027237183229 -0.031623185353598905 -0.034714369435253405 -0.04295336420184024 0.29198862966047801 0.25909146713835585 0.12199820838791581 -0.049879053692776398 0.23360949231294642 -0.023199684686119527 -0.037989898280289293 -0.050120232657644717 -0.049844896795352207 0.024876321923958212 -0.049785404847919983 -0.049816435144618337
leaf_weight=2.4551551267504692 16.53292998671532 3.8330786377191499 18.425021484494213 2.5020489618182173 2.1866066381335258 2.5118163973093059 5.4161246716976157 4.027906209230423 2.3760946169495565 3.9794513359665862 2.8536076322197905 10.505769893527029 21.713776670396328 52.71948230266571 318.65715481340885 28.697112485766407 3.6901391744613639 2.3118934109807014 2.1560648828744879 10.130027048289778 63.514355786144733 4.175107903778553 2.0362662747502389 3.4105492904782322 2.0030011981725693 29.242351099848751 21.338051028549668
leaf_count=20 139 38 147 25 22 22 45 30 21 37 26 106 216 537 3263 202 27 20 22 74 639 42 20 35 20 303 220
internal_value=0 0.118198 -0.0208888 0.239498 0.0396864 0.0884535 0.191528 -0.00651646 0.0954356 -0.030844 0.00548722 0.0750003 -0.012985 -0.0283339 -0.0386166 0.265163 0.19191 -0.0352449 0.0390569 0.276757 -0.0396704 0.00313755 -0.0412233 -0.00522704 -0.0167137 -0.0452818 -0.0498429
internal_weight=0 97.6 545.801 49.4775 77.0382 48.0667 23.8411 48.1225 10.5791 468.763 82.6118 27.0387 24.2256 55.5731 386.151 44.9724 6.14529 37.5434 4.46796 38.8271 382.172 6.5512 28.9715 5.59716 4.50505 33.0754 23.3743
internal_count=6318 844 5474 368 727 430 192 476 93 4747 808 245 238 563 3939 323 47 383 42 276 3902 63 297 57 45 341 240
is_linear=0
shrinkage=0.05


Tree=14
num_leaves=29
num_cat=0
split_feature=1 6 6 1 3 2 3 3 9 2 6 1 0 6 9 4 4 5 6 0 4 0 3 9 0 7 9 0
split_gain=833.002 1055.23 125.765 56.2307 53.3037 73.8757 32.1108 29.8568 50.2193 27.7457 15.2126 14.7523 32.6524 36.0895 14.6742 13.2279 12.5708 10.0057 2.8159 11.6844 1.27956 1.06889 1.88837 1.04291 12.225 0.467992 0.253647 9.3746e-06
threshold=215.65562737025044 234.52711076660367 11.146420399577199 357.48905814216317 -86.582381246058773 608.72454078798398 -1.0000000180025095e-35 -78.374416363249793 142.84583066551684 173.20659916803496 -157.19174646952692 -9.6888343365618859 -329.46304330166669 291.80900507551013 -176.46962265887854 -375.29745251463572 42.106054843627909 380.78351613451713 535.63081982797655 -167.11566244682297 -315.71110444752696 7.1324535663922735 292.34460329472239 -294.88394124437667 -374.76499741133432 -418.68655537997222 603.2527641015007 158.5313606025878
decision_type=2 2 2 2 2 2 2 2 2 2 2 2 2 2 2 2 2 2 2 2 2 2 2 2 2 2 2 2
left_child=11 2 10 6 15 -6 -3 8 -5 -9 20 18 13 16 -8 -4 -13 -12 23 -20 -2 22 -14 24 -1 -23 -25 -21
right_child=1 3 4 7 5 -7 14 9 -10 -11 17 12 21 -15 -16 -17 -18 -19 19 27 -22 25 -24 26 -26 -27 -28 -29
leaf_value=0.047857868692399143 -0.030668027204455075 -0.031764728804843809 0.088984877485712321 0.22307037960467835 0.15168325103071134 -0.042157578466432699 0.26445473594145763 0.29697657121892418 -0.0313754843729541 0.22596205959560445 -0.01252585827791329 0.051161803636236736 -0.050019431579512164 0.1674542458005189 0.1228594803243976 -0.011865629192958464 -0.035753475945778858 0.083178334384144612 0.075718279004303307 -0.049941551493804796 -0.048050113825554755 -0.024939017425932644 -0.013499228966324368 -0.049299649306397471 -0.049810485369648987 -0.049827959790121459 -0.035862348075378837 -0.049825671904709594
leaf_weight=3.5583130791783324 12.971254788339136 2.6423322781920442 3.9547235518693951 9.0749131888151151 22.419989898800853 6.2955342605710021 2.6863757520914069 24.45371900498867 2.4661795124411574 31.436072453856468 30.624833196401596 6.9113916531205239 7.3176736906170827 3.8835037574172011 5.7382819205522511 18.283339284360409 10.450814954936503 2.9984223693609229 2.3763762861490241 2.4740192741155607 57.613767832517624 1.9958722889423359 6.8559644669294357 287.17591327428818 32.168403953313828 35.177732191979885 3.5554119497537604 5.9257337749004364
leaf_count=33 131 24 39 68 189 62 21 178 20 236 303 68 73 32 48 179 103 29 22 25 597 20 69 2958 332 362 36 61
internal_value=0 0.0753829 -0.000193667 0.22477 0.0641819 0.109186 0.120312 0.241914 0.168699 0.257033 -0.0316707 -0.0429132 -0.0224668 0.0296651 0.16801 0.0060692 -0.00115502 -0.00399124 -0.0473145 -0.022167 -0.0448558 -0.0440371 -0.0323542 -0.0481446 -0.0400829 -0.0484917 -0.0491353 -0.0498598
internal_weight=0 233.66 155.162 78.4979 50.9536 28.7155 11.067 67.4309 11.5411 55.8898 104.208 409.827 72.593 21.2457 8.42466 22.2381 17.3622 33.6233 337.234 10.7761 70.585 51.3472 14.1736 326.458 35.7267 37.1736 290.731 8.39975
internal_count=6318 2124 1529 595 469 251 93 502 88 414 1060 4194 727 203 69 218 171 332 3467 108 728 524 142 3359 365 382 2994 86
is_linear=0
shrinkage=0.05


Tree=15
num_leaves=27
num_cat=0
split_feature=5 6 1 0 3 7 3 1 0 4 2 5 6 7 5 8 3 2 8 8 4 7 8 5 3 5
split_gain=259.68 299.196 192.025 109.733 111.724 42.7084 25.1564 41.4313 36.9683 16.9149 13.6953 16.3845 8.65166 7.26633 6.98337 11.9279 13.3795 6.20519 25.4726 4.34438 2.77687 1.78121 0.634594 1.61902 0.470706 0.29036
threshold=51.50046335054892 56.224562353488317 357.48905814216317 922.14656245439278 205.29529423345045 406.9061327243117 -17.785236292124413 215.65562737025044 -502.26813478488435 159.7183935022295 787.65012973724379 150.18639737876597 230.97094111976281 277.6676611951994 150.18639737876597 -278.18218912020001 12.04974556476677 279.53006975159099 338.70832036277017 -195.39871415280558 233.67415665103303 -164.08956033915402 -243.1972677769925 339.32874676639693 -142.81209196871603 157.97066582141909
decision_type=2 2 2 2 2 2 2 2 2 2 2 2 2 2 2 2 2 2 2 2 2 2 2 2 2 2
left_child=1 6 3 4 -3 13 7 8 -1 -5 14 -12 24 -4 15 16 -2 21 -19 -9 -17 -8 23 -16 -13 -24
right_child=10 2 5 9 -6 -7 17 19 -10 -11 11 12 -14 -15 22 20 -18 18 -20 -21 -22 -23 25 -25 -26 -27
leaf_value=-0.041739878997654689 0.09986903321380862 0.1616147847944838 -0.040614042059185056 0.11589565025468984 0.030488616639266282 0.21006860790208709 -0.024311582453434007 -0.001336749487388194 0.056147218305143 -0.049431433718701345 0.10989177173585603 -0.019754720490733346 0.07058676784074551 0.035182528947755524 -0.02994056604825612 -0.045544532492867183 -0.022648874654836518 -0.030511862201595238 0.16816224252584 -0.047341059967228656 -0.015206089269555904 -0.045554823594963913 -0.033363037804067623 -0.04902777814611383 -0.04920877907161391 -0.048676383493383137
leaf_weight=12.848061695694922 3.6747817173600179 75.603077605366707 29.543499827384949 1.8144510686397541 20.690229423344135 1.9198857843875874 12.004482321441172 6.2681144103407851 38.693685047328472 10.500103101134298 3.129731871187686 1.7028571739792804 2.0862885862588874 3.5409326180815688 18.251828745007515 28.179742947220802 5.6611920967698097 13.228254340589045 1.8374628424644459 28.308240406215191 10.29892861843109 55.434489771723747 3.1695317029952994 28.39178441464901 6.6676732748746872 132.60193093121052
leaf_count=142 38 765 350 20 236 19 136 73 403 116 32 20 24 39 214 332 66 147 20 334 119 645 37 339 77 1575
internal_value=0 0.0296079 0.0826438 0.115467 0.13344 -0.0191975 -0.0155616 0.00334129 0.0317464 -0.0250718 -0.0392533 0.0095277 -0.0205113 -0.0325018 -0.042132 -0.0251233 0.025576 -0.0352923 -0.00628094 -0.0390012 -0.0374244 -0.0417734 -0.0465904 -0.0415589 -0.0432168 -0.0483189
internal_weight=0 312.235 143.612 108.608 96.2933 35.0043 168.623 86.1181 51.5417 12.3146 243.816 13.5866 10.4568 33.0844 230.23 47.8146 9.33597 82.5047 15.0657 34.5764 38.4787 67.439 182.415 46.6436 8.37053 135.771
internal_count=6318 3445 1545 1137 1001 408 1900 952 545 136 2873 153 121 389 2720 555 104 948 167 407 451 781 2165 553 97 1612
is_linear=0
shrinkage=0.05


Tree=16
num_leaves=23
num_cat=0
split_feature=3 5 5 3 3 9 7 6 6 4 2 9 3 5 2 2 5 3 5 3 8 4
split_gain=1467.79 808.29 216.44 247.74 141.204 95.5981 69.4858 67.5167 39.6617 31.6425 19.537 17.5477 15.7488 50.9148 42.0818 12.3328 5.32389 15.7265 2.90273 1.82916 1.55922 0.422129
threshold=448.22372280126064 -15.561879959762999 -575.70031270614788 140.13243118405418 984.10467997145668 290.23057703827016 254.08710175107518 -210.36626692182799 266.40577988761197 313.54608861324908 -11.081520822136708 94.758200443842838 292.34460329472239 -258.69014390727904 12.842168426689829 -262.34676907419941 -462.17333851281848 163.58697805869181 -29.149093092414038 102.93636236398628 -185.98507002601175 202.57616474607875
decision_type=2 2 2 2 2 2 2 2 2 2 2 2 2 2 2 2 2 2 2 2 2 2
left_child=2 5 3 15 6 8 9 -6 11 -3 20 -2 16 14 -14 -1 17 -4 -15 -18 -5 -17
right_child=1 4 12 10 7 -7 -8 -9 -10 -11 -12 -13 13 18 -16 21 19 -19 -20 -21 -22 -23
leaf_value=0.065267649644157641 0.31775972094333482 -0.043136588625001603 -0.037992866483856524 0.33506262950070859 0.40113406989723643 0.014202619010393753 0.21803028673779892 0.042371127187742552 0.10632568563623657 0.069043190207785224 0.14593731943741134 0.22779700095153299 0.24363687319694227 -0.0064996674370580571 -0.01680060255594552 -0.05023880180857461 -0.049168417627289553 0.083432050151310722 -0.045865540516438402 -0.040948503953562712 0.28961898013209952 -0.025580109185860251
leaf_weight=2.9907471984624907 49.894664861261845 37.27961477637291 24.992394089698795 2.582910142838954 3.321487158536911 3.0981530472636214 3.1693047210574141 2.1669769436120978 2.5492380112409583 7.5610558763146392 2.5413714200258246 6.0810760408639899 3.2230348065495482 5.7524398714303997 2.989931583404541 11.892529487609862 343.76565144211054 2.9850806668400756 25.184102758765221 84.27037039399147 7.0114927142858496 2.0321538150310525
leaf_count=24 393 383 252 20 31 30 31 22 24 76 23 50 28 58 29 116 3505 28 259 865 51 20
internal_value=0 0.161429 -0.0358059 0.0968197 0.0192362 0.284874 -0.00822895 0.259486 0.299202 -0.0242208 0.269202 0.307986 -0.0436186 -0.0123139 0.118304 -0.0268542 -0.0461689 -0.0250373 -0.0385457 -0.0475501 0.301853 -0.0466401
internal_weight=0 115.122 522.214 29.0512 53.4984 61.6231 48.01 5.48846 58.525 44.8407 12.1358 55.9757 493.163 37.1495 6.21297 16.9154 456.013 27.9775 30.9365 428.036 9.5944 13.9247
internal_count=6318 1040 5278 254 543 497 490 53 467 459 94 443 5024 374 57 160 4650 280 317 4370 71 136
is_linear=0
shrinkage=0.05


Tree=17
num_leaves=29
num_cat=0
split_feature=1 6 3 4 4 7 7 3 6 7 5 1 0 6 5 3 4 5 0 3 5 8 7 2 0 5 6 7
split_gain=897.183 750.86 253.273 241.27 134.808 127.562 98.4962 68.9251 43.7142 43.445 85.3602 33.7571 70.1423 63.6407 33.9972 20.7434 9.7209 7.08789 5.51751 13.0311 15.3007 5.10074 4.43115 3.08824 2.59677 0.315883 0.156597 7.56987e-05
threshold=299.47108139127334 -170.22952535081478 345.57978061856682 176.89645805146856 -146.32592959631054 -232.68162997514477 30.9883371749882 384.59190784109052 34.682111455461218 -313.34270628869001 87.209704786351196 6.3423296937280105 -443.95540792716969 37.896131242543071 286.91842157846048 -41.702661909966146 224.67655773041858 624.77594324371194 -555.33199018225025 -64.973746008973663 72.512856127007183 435.41922130555201 -73.231708036045333 362.42366170329871 -656.38307722381694 849.94355595326363 -713.72793843567638 18.300481437540999
decision_type=2 2 2 2 2 2 2 2 2 2 2 2 2 2 2 2 2 2 2 2 2 2 2 2 2 2 2 2
left_child=11 2 4 9 6 7 -2 -5 -7 10 -3 18 13 14 -13 -6 -15 22 19 20 -1 -11 -14 27 -21 26 -20 -4
right_child=1 3 23 5 15 8 -8 -9 -10 21 -12 12 17 16 -16 -17 -18 -19 25 24 -22 -23 -24 -25 -26 -27 -28 -29
leaf_value=-0.037779744535082954 0.21722407510386721 0.18462164113356919 -0.05056279929994674 0.28063655505858337 0.27599307681425683 0.1635888246151308 -0.030455830251294353 -0.02686908285882364 -0.01368084409629575 -0.042430143617433122 -0.04543086562591004 0.096811547584484486 -0.020862939948654794 -0.044029129521457426 0.29735095407356377 0.14645184913462853 0.048513259490221006 0.044202630507586077 -0.041707787114758359 -0.046985920230532205 0.065627268352712612 0.030252854077217124 -0.048020350283182016 0.016460794065170408 -0.015152175332958016 -0.033365997614553854 -0.049923973462071641 -0.050214224815052104
leaf_weight=8.0483439639210683 8.9038650915026682 6.771769322454932 2.1604400500655156 12.891574949026106 54.671911671757698 4.8766011446714428 7.3090371116995803 2.1222520321607581 12.123451530933378 84.213850930333138 9.9669012576341611 6.4484349414706248 22.082256466150284 7.6516525223851186 3.1437378078699112 3.2754715234041205 4.5104301273822784 2.6360868364572516 5.9284634217619887 64.407223336398602 6.439373403787612 2.4850649163126937 46.967955142259598 2.230573296546936 7.1137251034378997 2.9758081361651412 266.41957174241543 5.5812070071697235
leaf_count=78 68 55 20 92 377 40 65 20 110 823 94 60 211 71 23 26 38 24 58 635 57 24 459 20 68 29 2619 54
internal_value=0 0.0838842 0.201201 0.0110158 0.233013 0.130966 0.105566 0.23717 0.0371704 -0.0261086 0.0476388 -0.0391874 -0.0123993 0.0662398 0.162536 0.268671 -0.00970886 -0.0362635 -0.0461148 -0.0350603 0.0081817 -0.0403468 -0.0393354 -0.035376 -0.0438196 -0.0495681 -0.0497451 -0.0503115
internal_weight=0 219.584 84.1325 135.451 74.1603 32.0139 16.2129 15.0138 17.0001 103.438 16.7387 454.773 93.4406 21.7543 9.59217 57.9474 12.1621 71.6863 361.333 86.0087 14.4877 86.6989 69.0502 9.97222 71.5209 275.324 272.348 7.74165
internal_count=6318 1888 630 1258 536 262 133 112 150 996 149 4430 886 192 83 403 109 694 3544 838 135 847 670 94 703 2706 2677 74
is_linear=0
shrinkage=0.05


Tree=18
num_leaves=30
num_cat=0
split_feature=7 5 4 1 2 9 4 4 1 7 3 4 1 0 5 9 9 2 2 0 5 9 4 4 7 2 5 1 2
split_gain=355.448 411.801 358.627 180.59 128.593 107.049 45.9415 42.4302 50.4013 85.6469 77.4221 35.0953 76.7191 111.925 28.6692 15.3143 11.3767 6.30698 3.6025 20.8016 2.75832 4.65539 1.65627 1.6104 1.48342 3.99936 1.1615 0.576713 0.444815
threshold=156.48617830237745 27.645146098129604 -217.94396753339788 332.47573356504148 -628.19795466178994 -223.37662241767327 224.67655773041858 -89.814652945604763 97.520755189847748 -86.986173067345234 298.59235115933654 -73.83442492679518 -122.22514640564567 -13.114708186771807 594.8365231552483 -108.22304455451643 471.50263701897859 491.64469402049764 -692.1655003950724 -61.067634399385106 -19.94806495087516 -49.96122183010754 53.420859073487847 -774.38893400202437 40.401669003236641 569.83448912020549 410.01145189803555 120.06653776626048 -745.21491528805495
decision_type=2 2 2 2 2 2 2 2 2 2 2 2 2 2 2 2 2 2 2 2 2 2 2 2 2 2 2 2 2
left_child=7 11 3 14 5 -4 -6 8 9 16 -11 12 13 -2 -3 -5 -1 -14 19 -9 22 -22 -13 -10 27 -26 -25 -20 -21
right_child=1 2 4 15 6 -7 -8 18 23 10 -12 20 17 -15 -16 -17 -18 -19 24 28 21 -23 -24 26 25 -27 -28 -29 -30
leaf_value=-0.029436278256281034 0.25647085798016128 0.31084280665756192 -0.049650069378046259 -0.049701480538414007 0.055698532888228548 0.31666978968633042 -0.046803975246705515 0.11667296346136831 -0.0026161213001724948 0.10986586193671069 -0.03761278397068616 -0.026151027766934627 -0.03571537473897525 -0.0050134613220194444 0.13866100029144754 0.091551790131457714 0.085988110255450015 0.045226282555679759 -0.04332927977974823 -0.049393803890167912 -0.049479445582084135 0.056659659699322275 -0.04821551172613555 -0.04936608101539048 -0.040399794873191869 0.011024742933225093 -0.027409028057370846 -0.049316053621570009 -0.022867043547085276
leaf_weight=59.944031737744808 6.9913552552461651 29.377134688198566 2.8020631447434425 3.5061718821525574 24.655276589095592 6.9186026379466039 19.638540841639042 2.3946483731269845 2.1399122998118392 30.284647904336452 12.602288037538527 10.676747113466261 28.638051345944408 9.8693976327776891 2.6343759149312964 4.2384686693549147 2.21364951878786 2.6274820417165747 90.70389261841774 9.7840903773903829 2.2844913601875305 1.8860112130641926 41.817053772509098 51.207838900387287 44.667189039289951 4.1304795742034903 6.825815610587596 72.284355759620667 1.8847752287983865
leaf_count=659 61 239 30 37 258 55 220 23 24 292 137 115 304 91 23 43 24 27 1008 109 25 21 464 572 500 45 76 815 21
internal_value=0 0.0541628 0.130282 0.244257 0.0463929 0.211075 0.010252 -0.027981 -0.00872517 0.0121764 0.0665294 -0.0139516 0.017446 0.103412 0.296673 0.0276033 -0.0253256 -0.0289132 -0.0420674 -0.0175619 -0.0406184 -0.00148054 -0.0437278 -0.0452128 -0.0436947 -0.036047 -0.0467835 -0.0459844 -0.0451092
internal_weight=0 198.561 93.7706 39.7562 54.0145 9.72067 44.2938 391.068 165.218 105.045 42.8869 104.791 48.1263 16.8608 32.0115 7.74464 62.1577 31.2655 225.849 14.0635 56.6643 4.1705 52.4938 60.1736 211.786 48.7977 58.0337 162.988 11.6689
internal_count=6318 2013 905 342 563 85 478 4305 1784 1112 429 1108 483 152 262 80 683 331 2521 153 625 46 579 672 2368 545 648 1823 130
is_linear=0
shrinkage=0.05


Tree=19
num_leaves=32
num_cat=0
split_feature=1 4 6 6 3 3 1 0 3 6 9 6 4 6 6 5 3 3 2 5 9 6 9 0 2 2 2 5 1 5 0
split_gain=784.075 326.851 221.993 253.417 139.164 36.1262 27.5414 46.6477 63.7305 20.1814 28.9731 17.0919 17.369 15.31 15.0968 9.96762 9.61585 10.7812 7.11025 3.94634 5.12821 3.21838 2.43439 10.9122 15.0525 0.792506 0.73706 1.99175 0.596661 0.453422 2.12101e-05
threshold=231.94025347562641 122.8428396247032 291.80900507551013 -262.66428922717358 545.97520039348126 -704.78827009095755 1.0000000180025095e-35 -381.00955219650126 -115.50530292123581 425.02909866900359 -35.849555042874265 -130.83364219327811 176.89645805146856 -199.18478433883479 269.27519025044904 80.647225690517601 273.31078014493937 713.90080551874564 205.27907030755441 -53.302163325046664 -276.81307013646341 352.72871059651237 -228.90050530047517 -528.57073002922368 -172.40297779601823 832.59354805276485 586.06396137162108 -83.208050178244619 -14.707640331677601 -263.33915295561638 840.14924248422108
decision_type=2 2 2 2 2 2 2 2 2 2 2 2 2 2 2 2 2 2 2 2 2 2 2 2 2 2 2 2 2 2 2
left_child=6 2 3 5 -5 -2 22 8 13 10 -4 16 14 -8 -13 -14 29 -18 -11 30 -21 -10 23 24 -1 -25 28 -28 -24 -3 -9
right_child=1 11 9 4 -6 -7 7 19 21 18 -12 12 15 -15 -16 -17 17 -19 -20 20 -22 -23 26 25 -26 -27 27 -29 -30 -31 -32
leaf_value=0.11280089523665122 0.15251939420670418 -0.025456343447406334 -0.021569348610231031 0.21542847673929258 -0.0054660419619719661 -0.0030730683990518037 0.049169810842573498 -0.049696058036987817 -0.043717922813607091 -0.049970083817801852 0.11219454434194881 0.17021160579598388 -0.026251730969446475 0.19550727476788532 0.0060617896224966286 0.033113680461447623 0.10944710309623756 -0.050211080473461178 0.0075542095886549339 0.033066868750471365 -0.031349310579209165 0.028084295811797107 -0.049268097826276988 -0.047123911229172151 -0.050081621165651007 -0.02916880201421336 -0.02007389849205192 -0.049679167073114663 -0.033455225018240699 -0.049972688720690737 -0.049563036817943662
leaf_weight=2.7608264461159706 4.4380798116326359 2.0233955606818226 7.0419897958636311 78.168261118233204 7.8457709401845923 23.404444187879562 2.4976768791675568 23.474909707903866 8.2192289009690267 9.6376045197248477 9.5219613760709745 2.9385799020528784 18.718579843640331 6.2844769507646578 2.6764356419444084 11.362964309751986 2.1860140711069098 2.0479643940925598 12.136493459343908 3.6033271029591587 21.675389938056469 1.9264181330800045 249.50951098650694 39.197829052805901 2.917104370892047 7.2883284315466872 8.4270840957760829 17.435107551515102 6.1116124987602225 27.765043534338474 3.4351946189999572
leaf_count=27 43 20 71 662 78 233 22 247 85 97 88 26 181 54 27 107 20 20 120 35 224 20 2638 414 29 76 88 184 63 282 37
internal_value=0 0.0767279 0.117798 0.152839 0.19528 0.0217283 -0.0402161 -0.011966 0.0552756 0.0137334 0.0553262 -0.0129276 0.0112414 0.153888 0.0919685 -0.00382712 -0.0382859 0.0322209 -0.0179071 -0.0363531 -0.0221672 -0.0300844 -0.0462376 -0.0363165 0.0291181 -0.0443088 -0.0480762 -0.0400324 -0.04889 -0.0483074 -0.0496791
internal_weight=0 221.914 152.195 113.857 86.014 27.8425 404.764 71.1166 18.9278 38.338 16.564 69.719 35.6966 8.78215 5.61502 30.0815 34.0224 4.23398 21.7741 52.1888 25.2787 10.1456 333.647 52.1641 5.67793 46.4862 281.483 25.8622 255.621 29.7884 26.9101
internal_count=6318 2075 1392 1016 740 276 4243 724 181 376 159 683 341 76 53 288 342 40 217 543 259 105 3519 546 56 490 2973 272 2701 302 284
is_linear=0
shrinkage=0.05


Tree=20
num_leaves=23
num_cat=0
split_feature=0 4 4 9 0 1 0 4 1 5 3 1 4 1 4 0 1 5 0 0 6 9
split_gain=1504.78 259.17 250.214 46.2667 39.2491 36.6413 30.6604 51.9597 35.1876 16.2765 20.7291 13.2072 13.0992 17.1665 9.19763 30.0863 8.48973 5.25857 3.27816 2.47836 0.854808 0.360719
threshold=720.86577192140123 742.82337114571635 -6.8278283074356692 -71.975943888584098 1083.8856300506411 276.96994638979533 491.24272392549148 172.31130143125768 128.01029632406158 -147.90329895450711 110.22270865184655 -241.06580042575214 303.66519787573708 -530.63892627776715 569.96597935563352 166.22822739449057 231.94025347562641 -284.3312476778928 173.36969323423816 922.14656245439278 222.13748304930658 -281.57812443048834
decision_type=2 2 2 2 2 2 2 2 2 2 2 2 2 2 2 2 2 2 2 2 2 2
left_child=1 6 4 -3 9 12 14 17 -9 10 -2 -6 13 -4 18 -16 20 -8 -1 -14 -5 -11
right_child=2 3 5 16 11 -7 7 8 -10 21 -12 -13 19 -15 15 -17 -18 -19 -20 -21 -22 -23
leaf_value=-0.04757339617287086 0.11077308738907894 -0.0055611211466541285 0.055994254262356005 0.26050340228170521 0.03492158304620465 0.04646101025155102 0.00013872549036260284 0.17933093858137583 -0.021440397159076346 -0.027093171272698752 -0.050238943253441054 0.17869758200943561 0.2593237229588003 0.20469517758011035 -0.049436461667105212 0.12405382969939811 0.16085400954781989 -0.041607642130681147 -0.03694966155525533 0.22970468162102581 0.29575968937896419 -0.050348568929480225
leaf_weight=356.17808362096548 5.2218588516116196 2.2189097404479972 2.323385387659072 4.2975571081042272 2.3136162832379341 3.0329537242650977 10.966096073389052 5.8332380056381208 3.4868993386626244 2.1240921691060093 3.2387850880622864 5.1587019935250273 8.130719065666197 11.788382858037947 9.1543135419487935 3.4372600540518752 2.127341628074646 24.169095054268837 91.207614414393902 53.759817853569984 2.8656321689486504 7.7569071352481798
leaf_count=3957 42 21 20 29 20 24 111 46 35 20 32 35 52 79 101 32 20 250 985 311 20 76
internal_value=0 -0.0350363 0.17274 0.199568 0.0375872 0.216883 -0.0403892 -0.00073733 0.104217 -0.0017648 0.0491367 0.134181 0.223684 0.180213 -0.0442214 -0.00207691 0.24856 -0.0285781 -0.0454076 0.233596 0.274608 -0.0453494
internal_weight=0 515.942 104.849 11.5094 25.814 79.0353 504.433 44.4553 9.32014 18.3416 8.46064 7.47232 76.0023 14.1118 459.977 12.5916 9.29053 35.1352 447.386 61.8905 7.16319 9.881
internal_count=6318 5607 711 90 225 486 5517 442 81 170 74 55 462 99 5075 133 69 361 4942 363 49 96
is_linear=0
shrinkage=0.05


Tree=21
num_leaves=20
num_cat=0
split_feature=0 1 0 5 6 0 9 3 1 0 5 1 1 5 3 5 6 3 1
split_gain=2430.84 130.964 38.7294 37.586 29.7536 15.2562 29.6068 10.507 6.90012 3.25138 14.924 3.78589 3.19967 12.7682 1.54958 0.347407 3.07132 0.428399 0.000307924
threshold=-708.07206686386246 44.786954260108807 -595.03848687488528 -480.55212445446381 403.09396395680892 -819.81079286685519 -2.0469457071917256 200.97809510341969 -207.69488056835513 -493.82766180622173 -505.86539309411074 -418.00309684274436 -341.43300680905674 43.662711412781277 -78.374416363249793 -343.52281542067573 -544.80066251195603 -716.84915010765553 259.17679597614006
decision_type=2 2 2 2 2 2 2 2 2 2 2 2 2 2 2 2 2 2 2
left_child=1 5 3 -2 8 12 -7 -8 -5 10 -4 -12 14 -14 -1 16 -11 -17 -3
right_child=2 18 9 4 -6 6 7 -9 -10 15 11 -13 13 -15 -16 17 -18 -19 -20
leaf_value=0.25174613792151279 0.16181852672183394 -0.050818796612538714 0.082451927293396426 0.022137447387132702 0.15668712449789246 0.053050975476366724 0.2147532588207012 0.11279523895037327 -0.047045770177861004 0.0074394747496421641 0.0049190416715576462 -0.050190729584638522 0.21489010384834395 0.11124995003327527 0.22152268328145294 -0.042114705892535687 -0.047611528776890816 -0.049830022697410256 -0.050022720057931569
leaf_weight=4.5651665627956381 3.723660163581374 3.0841431990265837 2.608049243688586 4.759420320391663 2.3877575471997252 4.263698615133765 16.114446282386783 2.9967303052544585 14.847061313688751 2.5986415892839423 3.5975930094718995 23.29848854243755 29.678560003638268 3.3024324625730506 59.719841539859772 18.864611431956291 101.18910485506058 388.99474422633648 2.004010871052742
leaf_count=28 27 28 21 40 18 33 99 20 141 25 33 227 167 20 333 187 1003 3848 20
internal_value=0 0.197977 -0.0450362 0.0149141 -0.00995711 0.208457 0.172187 0.198766 -0.0302517 -0.0478853 -0.0317458 -0.0428193 0.217173 0.204512 0.223669 -0.0488159 -0.0462332 -0.0494732 -0.0505053
internal_weight=0 125.729 566.869 25.7179 21.9942 120.641 23.3749 19.1112 19.6065 541.151 29.5041 26.8961 97.266 32.981 64.285 511.647 103.788 407.859 5.08815
internal_count=6318 748 5570 226 199 700 152 119 181 5344 281 260 548 187 361 5063 1028 4035 48
is_linear=0
shrinkage=0.05


Tree=22
num_leaves=30
num_cat=0
split_feature=3 1 5 4 9 7 5 3 4 1 1 2 9 1 5 2 4 6 5 1 1 3 9 1 3 1 6 6 6
split_gain=600.973 284.642 384.478 147.363 108.795 58.9668 30.1624 33.3462 51.5311 52.8025 19.6235 12.0015 25.0935 32.1155 9.0175 13.4676 8.94585 6.32923 6.73136 12.9588 4.29357 2.55662 1.37493 1.29364 12.1732 0.593245 0.520786 0.493226 0.000103616
threshold=214.72671371484441 221.638443220911 -263.33915295561638 294.24490534593178 -326.12292989189933 -189.76861322230425 232.49893375124554 -38.068498933321116 131.29223837127569 -4.9488307476888398 -447.16571689292317 200.42663014841395 -2.0469457071917256 593.55241211306804 750.36330911785024 -280.0780481108718 197.37107442681133 -320.04849822518332 -49.575600826688934 39.600080641544373 -161.72666792283508 -218.76556091239303 -71.975943888584098 -724.50834411057428 -7.9887532205173768 -289.30381655343029 502.80390166470261 -441.64408832962431 243.79741256689735
decision_type=2 2 2 2 2 2 2 2 2 2 2 2 2 2 2 2 2 2 2 2 2 2 2 2 2 2 2 2 2
left_child=6 2 10 4 -4 -5 17 14 9 -9 -2 12 22 -14 21 -16 -12 18 25 -20 -10 -8 -3 24 -19 -1 -25 -13 -29
right_child=1 11 3 5 -6 -7 7 8 20 -11 16 27 13 -15 15 -17 -18 23 19 -21 -22 -23 -24 26 -26 -27 -28 28 -30
leaf_value=-0.033262084577719696 0.10809734548216683 -0.04949650596421884 -0.033344356670931198 0.21010413905418607 0.1969764966224552 -0.014602595705576439 -0.045260533393605105 0.13455548075834722 -0.046498607329417872 -0.025295352796038364 -0.04476170716704405 -0.023009711221857507 0.12798299463671553 -0.049405429434064174 -0.0494608816080064 0.13453333296134518 0.041991713627165299 -0.049223122950142278 0.04473724472965715 -0.039758406054577207 0.019660448441756573 -0.02246933293704452 -0.0078988157462723304 -0.04842385999718285 0.08910407861689347 -0.049261417372067316 -0.038385730194070017 -0.049469124972467783 -0.049277077147959474
leaf_weight=9.2438344955444354 2.4888824969530097 12.573560826480387 5.4656870365142813 3.6138770580291775 82.794991530478001 15.195783123373984 47.372484929859638 13.755279012024404 16.790907032787803 8.2733871787786466 33.240713454782963 1.8940130844712282 6.4230072200298292 4.2331843674182892 2.0884338766336445 1.8987568393349636 3.2633135691285124 13.39221005886793 7.9590664878487614 10.555939048528669 2.8717642351984969 16.622289054095745 2.3591864407062557 223.41345828771591 1.8048365786671627 15.524255558848379 13.714064739644526 13.684171035885813 14.429176792502401
leaf_count=101 20 139 45 27 552 139 520 130 185 91 378 21 61 47 23 20 33 154 87 121 30 181 24 2523 20 177 155 150 164
internal_value=0 0.0700306 0.10668 0.155634 0.182714 0.02857 -0.0355984 -0.0132044 0.0220016 0.0745197 -0.0277445 -0.0262543 -0.00109769 0.0575152 -0.0347952 0.0381598 -0.0370063 -0.0439068 -0.026242 -0.00343616 -0.036836 -0.0393406 -0.0429246 -0.046937 -0.0327951 -0.0432902 -0.0478433 -0.0477067 -0.0493706
internal_weight=0 201.66 146.063 107.07 88.2607 18.8097 405.281 109.673 41.6913 22.0287 38.9929 55.5963 25.5889 10.6562 67.982 3.98719 36.504 295.608 43.2831 18.515 19.6627 63.9948 14.9327 252.325 15.197 24.7681 237.128 30.0074 28.1133
internal_count=6318 1800 1194 763 597 166 4518 1180 436 221 431 606 271 108 744 43 411 3338 486 208 215 701 163 2852 174 278 2678 335 314
is_linear=0
shrinkage=0.05


Tree=23
num_leaves=30
num_cat=0
split_feature=1 3 2 9 4 8 2 1 0 8 4 9 9 1 8 3 0 3 5 5 8 3 1 4 1 2 4 4 8
split_gain=537.432 386.353 170.745 71.4112 62.3817 56.5546 52.6146 62.6036 79.4631 40.0667 33.9389 29.9616 29.4479 23.3031 24.5396 29.6379 21.5035 15.3573 13.8728 11.0598 8.75872 14.0013 7.12131 2.26483 1.71724 0.00301539 7.17256e-05 5.30499e-05 3.42762e-06
threshold=-389.55037228320748 -38.068498933321116 -19.669799194508265 -242.483161743332 359.86939690429671 160.73052027073251 512.02228890349636 374.71078087886048 71.985230975078792 174.87442181633 -345.68697287424362 285.34781783666875 48.801429524109011 -321.71705063555987 22.459958506328956 -33.114568819098544 354.70135971030294 -864.0524207857369 -37.785725575557819 -314.78915581782934 -66.038605863895881 128.60821706769801 269.30414298224696 24.936226366881908 -373.74461056182372 470.07774047001811 303.66519787573708 -557.20870991989887 -176.12679795009237
decision_type=2 2 2 2 2 2 2 2 2 2 2 2 2 2 2 2 2 2 2 2 2 2 2 2 2 2 2 2 2
left_child=1 2 5 9 16 10 13 8 11 18 -1 -8 -7 14 24 -16 -4 -15 -3 -10 25 -22 -19 -11 -2 -5 27 -9 -28
right_child=6 3 4 20 -6 12 7 26 19 23 -12 -13 -14 17 15 -17 -18 22 -20 -21 21 -23 -24 -25 -26 -27 28 -29 -30
leaf_value=0.11174901957392949 -0.0054340555054843247 0.24560364544074559 0.21675788152579778 -0.049633644505160127 -0.021626346324122855 0.21552723601929263 0.087393207298498907 -0.049851808758420005 0.066358368429962511 -0.050303145704693492 -0.030698000263807385 0.23215417136425512 0.068069334938880538 0.057095365131151411 0.10560061797131377 -0.040549240133947263 0.15277159522139222 -0.03343351105744425 0.10494982914877003 -0.031707103326803224 0.043100377831069743 -0.039524927756023918 -0.047635244471934679 0.021599612034797006 -0.046006849309174626 -0.051679149230941038 -0.049360273012953648 -0.049583614770334787 -0.049445078039213206
leaf_weight=5.4931885078549412 3.3307556435465804 3.5105589032173157 43.287885665893555 36.331112630665302 3.4320645332336417 5.9256825149059278 16.489468388259414 2.0464716702699723 3.392499782145026 2.3677095994353294 17.511311672627926 4.5636359080672255 7.8991126194596291 4.1691878363490096 9.5827353745698911 5.4370670542120925 18.847085528075695 209.4729807600379 3.5017498508095724 18.851915210485458 7.9191344827413586 14.543008252978323 152.5578877851367 2.0377245172858238 12.017862975597383 1.8957096189260472 2.7720062658190727 18.623053982853889 2.0896984115242949
leaf_count=45 32 25 279 388 33 38 135 21 28 23 166 35 65 37 87 57 130 2219 29 185 70 151 1633 17 120 16 31 200 23
internal_value=0 0.0750652 0.137497 -0.0135921 0.185887 0.0513485 -0.027825 0.0125288 0.0491464 0.101125 0.00331658 0.118773 0.131274 -0.0348289 0.00725985 0.0526954 0.197349 -0.0383192 0.175365 -0.0167511 -0.0351746 -0.010395 -0.039418 -0.0170447 -0.0372023 -0.0497351 -0.0495695 -0.0496102 -0.0493967
internal_weight=0 174.503 102.396 72.1067 65.567 36.8293 465.397 68.8287 43.2975 11.4177 23.0045 21.0531 13.8248 396.568 30.3684 15.0198 62.135 366.2 7.01231 22.2444 60.689 22.4621 362.031 4.40543 15.3486 38.2268 25.5312 20.6695 4.8617
internal_count=6318 1475 756 719 442 314 4843 658 383 94 211 170 103 4185 296 144 409 3889 54 213 625 221 3852 40 152 404 275 221 54
is_linear=0
shrinkage=0.05


Tree=24
num_leaves=28
num_cat=0
split_feature=1 6 6 9 6 3 5 1 4 7 3 4 1 0 6 4 8 8 5 6 8 8 8 3 9 0 4
split_gain=732.633 758.826 68.1768 64.4512 50.5221 39.3766 33.8108 28.4436 20.3158 18.0358 16.5545 15.3485 14.7283 30.4236 29.9687 35.3424 10.7702 3.31829 4.2548 2.03525 9.46095 1.26657 1.17427 3.10411 0.500767 0.482071 0.239288
threshold=215.65562737025044 154.50312261772277 257.88438071624546 -179.95136707620472 -157.19174646952692 -346.54523758465706 324.4791989462563 342.49084167362224 42.106054843627909 -270.05534252321371 -38.068498933321116 131.29223837127569 -9.6888343365618859 -329.46304330166669 105.44597235788019 180.61326700166282 -734.34956994820425 -380.81645977713691 -41.923678177057404 535.63081982797655 -146.12141827462361 45.904535923104788 -435.56494057736603 255.66688947378063 -463.36177493139797 7.1324535663922735 -315.71110444752696
decision_type=2 2 2 2 2 2 2 2 2 2 2 2 2 2 2 2 2 2 2 2 2 2 2 2 2 2 2
left_child=12 4 3 8 17 -4 11 -7 -3 -5 -8 -6 16 14 21 -16 -1 18 -2 24 -21 -14 23 -15 -18 -24 -19
right_child=1 2 5 9 6 7 10 -9 -10 -11 -12 -13 13 22 15 -17 19 26 -20 20 -22 -23 25 -25 -26 -27 -28
leaf_value=0.062864833423890876 -0.04956376253571828 0.29537308329120371 -0.02881215929805114 0.13132787412433841 0.019680022313357977 0.1063969312357531 0.0055723876699746936 0.19840959005956135 0.12144801815397377 0.018618794289162278 0.1546586764649274 -0.037911064320557061 -0.01562832499525801 -0.049571317622810196 0.15717315548837818 -0.027462010004477944 -0.039417209869967364 -0.040288807004637391 0.052517721713981592 0.069110302347367647 -0.049799697613603242 -0.049912172559123391 -0.037996235509682286 0.030439502053829129 -0.048877072051926554 -0.049562289583501687 -0.04853682606232726
leaf_weight=2.2180943042039862 2.1318657845258713 4.0300587415695217 2.1406792998313895 4.6521087288856569 40.610779382288456 9.4369121938943845 2.6875132918357849 76.369176357984543 2.8780312016606331 14.974569760262961 6.0618606284260732 16.177548795938492 5.828112944960596 3.4341306239366522 6.7097898423671705 4.2231215685606003 14.687412969768046 10.560604155063627 1.9585375040769566 2.0916626900434485 8.3528215289115888 5.0095395445823669 12.659167692065237 1.8735615387558935 294.46623229980469 31.245130926370621 52.551352314651012
leaf_count=23 23 32 17 40 384 71 26 469 23 126 50 158 59 37 56 37 157 110 21 20 87 51 130 20 3180 337 574
internal_value=0 0.0674855 0.161811 0.0915652 -0.0138658 0.183006 0.0173703 0.18829 0.222913 0.0453342 0.108864 0.00327379 -0.0423852 -0.0217699 0.0274454 0.085853 -0.0469322 -0.0443281 -0.00068584 -0.0476943 -0.0259862 -0.0314755 -0.0435419 -0.0213283 -0.0484276 -0.0462274 -0.0471567
internal_weight=0 247.222 114.482 26.5348 132.74 87.9468 65.5377 85.8061 6.90809 19.6267 8.74937 56.7883 392.799 70.9826 21.7706 10.9329 321.816 67.2024 4.0904 319.598 10.4445 10.8377 49.212 5.30769 309.154 43.9043 63.112
internal_count=6318 2124 778 221 1346 557 618 540 55 166 76 542 4194 727 203 93 3467 728 44 3444 107 110 524 57 3337 467 684
is_linear=0
shrinkage=0.05


Tree=25
num_leaves=28
num_cat=0
split_feature=5 6 1 0 3 7 3 1 0 3 2 7 5 9 1 5 8 6 6 8 2 0 8 5 0 5 5
split_gain=237.11 247.086 147.399 86.1119 95.7034 34.8722 23.6389 37.4398 35.3025 21.2608 13.3526 14.6548 49.5855 10.6488 9.43229 7.02721 11.2783 12.7614 3.45303 3.22529 2.40643 1.4836 0.655005 1.6448 0.445745 0.297973 0.000528449
threshold=51.50046335054892 56.224562353488317 242.63669804369556 922.14656245439278 323.36888658066619 437.94836058801155 -17.785236292124413 259.17679597614006 -443.95540792716969 -417.92017171956894 787.65012973724379 72.291151813602923 276.54588167120113 -526.34017836907344 -453.79834247712353 150.18639737876597 -278.18218912020001 -70.81825831531556 34.682111455461218 -160.41185055793838 498.74632172013816 813.97218941104927 -243.1972677769925 339.32874676639693 368.92843650286358 157.97066582141909 172.93838882833555
decision_type=2 2 2 2 2 2 2 2 2 2 2 2 2 2 2 2 2 2 2 2 2 2 2 2 2 2 2
left_child=1 6 3 4 -3 9 7 8 -1 -4 15 24 -13 -8 -5 16 17 -2 -15 -9 -18 -14 23 -17 26 -24 -12
right_child=10 2 5 14 -6 -7 13 19 -10 -11 11 12 21 18 -16 22 20 -19 -20 -21 -22 -23 25 -25 -26 -27 -28
leaf_value=-0.036276159395884973 -0.049503232615662168 0.1380621785299378 0.10749497900213859 0.054749440603246727 -0.0029147982015046707 0.19670361204821551 0.064258880997914034 -0.012513875886219272 0.053812434008879639 -0.027423002574822691 -0.050107278431899119 0.26697824117899199 0.0094067025430175002 -0.040171728946359508 -0.049215224261029838 -0.029175854498929545 -0.041353863307007216 0.069907093828539546 0.012574748712738516 -0.048841149023488198 -0.0010767908342361151 -0.049015976525155026 -0.032636702218564982 -0.04879429951377718 -0.020015581544081201 -0.048425780034882938 -0.049068172898916032
leaf_weight=15.081973880529402 3.6201715394854546 85.966309398412704 3.1707383021712294 2.8789422288537017 13.998819351196287 2.0092617198824874 2.6364390254020682 8.2168681845068914 38.979118466377258 36.922400057315826 2.012967534363268 2.0489939749240875 1.7067621573805807 73.402098327875137 9.0075182169675809 17.684366039931774 32.912045799195766 5.8580520898103696 3.2397451549768439 23.829801559448242 4.1794207021594039 2.9909059256315231 3.0606720000505439 26.98824692517519 1.7123017758131025 126.12104690819979 3.1200165897607803
leaf_count=167 40 763 33 32 157 16 29 99 389 440 20 20 20 881 104 214 400 64 38 297 51 36 37 339 20 1575 37
internal_value=0 0.0275912 0.0731761 0.103192 0.11832 -0.00656627 -0.0148428 0.00329524 0.0286795 -0.0167531 -0.0386606 0.0094364 0.0617327 -0.0345433 -0.0240346 -0.0416264 -0.024377 0.0242988 -0.0379421 -0.0395267 -0.0368155 -0.0277898 -0.0462469 -0.041028 -0.0421064 -0.0480517 -0.0494757
internal_weight=0 319.34 153.954 111.852 99.9651 42.1024 165.386 86.1078 54.0611 40.0931 234.016 13.5919 6.74666 79.2783 11.8865 220.424 46.5697 9.47822 76.6418 32.0467 37.0915 4.69767 173.854 44.6726 6.84529 129.182 5.13298
internal_count=6318 3445 1545 1056 920 489 1900 952 556 473 2873 153 76 948 136 2720 555 104 919 396 451 56 2165 553 77 1612 57
is_linear=0
shrinkage=0.05


Tree=26
num_leaves=24
num_cat=0
split_feature=3 5 3 5 3 7 1 6 3 4 2 4 2 2 8 5 3 1 2 3 7 7 2
split_gain=1197.62 640.593 151.564 68.2459 103.09 68.229 56.5718 37.9171 34.0883 31.1476 21.5074 18.4457 16.6183 15.0792 8.72029 5.48913 16.6326 2.99741 2.39603 15.8221 1.2862 0.729766 0.00238078
threshold=329.36781476895857 -122.26603791634595 984.10467997145668 -567.96558129922914 99.209742963090719 277.6676611951994 -447.16571689292317 -173.66422573307258 686.8845795888019 197.37107442681133 -66.99408169789929 313.54608861324908 326.64694412115932 -41.45833415876087 -199.59190748733906 -462.17333851281848 205.29529423345045 -271.02172828964729 -479.58979468336304 132.11034013640321 143.59382906782582 600.64893847066526 -102.90838834857081
decision_type=2 2 2 2 2 2 2 2 2 2 2 2 2 2 2 2 2 2 2 2 2 2 2
left_child=3 6 5 4 14 11 -2 20 -7 12 -6 -3 -8 -11 -1 16 17 -5 19 -17 -4 -20 -16
right_child=1 2 7 15 10 8 9 -9 -10 13 -12 -13 -14 -15 22 18 -18 -19 21 -21 -22 -23 -24
leaf_value=0.040659941562264795 -0.0013302793661510211 -0.036598404648495529 0.2482085676141812 -0.012034610228977505 0.23383979872405833 0.038859432558341955 0.23248678575398316 0.024629247020732565 0.28927950667797114 0.17800496710274166 0.062049613953497118 0.03143150285069507 0.12386665047791963 0.010561503768726884 -0.051328391345829928 -0.047033182599355162 0.092094286987107546 -0.049777258109604691 -0.048879647823266648 0.030370311326732027 0.29327520267799917 -0.035719088311163188 -0.049791687803521029
leaf_weight=3.2755368053913161 3.0199019089341155 53.531384997069836 2.8211813792586327 7.9464676007628485 5.8776019960641861 2.8022031784057608 72.88813840597868 2.0086608901619893 2.6385639682412148 3.0201961994171143 2.6403963938355428 12.242848560214041 3.700081765651702 2.4234833791851988 3.3321637585759207 56.217416800558567 2.7903909385204306 15.562715530395508 343.44907534122467 7.4806402102112761 3.6079116314649582 10.866835176944731 10.346827030181879
leaf_count=30 27 569 20 83 35 27 455 20 21 21 22 119 30 21 28 594 24 163 3680 78 25 118 108
internal_value=0 0.115775 0.0138808 -0.040914 0.0386776 -0.00985997 0.211201 0.214254 0.160304 0.219025 0.180589 -0.0239357 0.227239 0.10346 -0.0326189 -0.045477 -0.0233206 -0.0370197 -0.046871 -0.037943 0.273499 -0.048476 -0.050166
internal_weight=0 164.705 79.6528 469.786 25.4725 71.215 85.0518 8.43775 5.44077 82.0319 8.518 65.7742 76.5882 5.44368 16.9545 444.314 26.2996 23.5092 418.014 63.6981 6.42909 354.316 13.679
internal_count=6318 1355 801 4963 223 736 554 65 48 527 57 688 485 42 166 4740 270 246 4470 672 45 3798 136
is_linear=0
shrinkage=0.05


Tree=27
num_leaves=28
num_cat=0
split_feature=1 6 3 4 7 7 3 4 4 1 5 7 3 4 9 9 6 7 6 1 5 6 2 5 7 1 5
split_gain=781.282 538.5 214.131 173.409 128.626 87.6995 90.1726 61.7551 35.0781 22.4833 37.7803 19.5477 45.988 13.6308 44.1627 7.59473 4.25315 3.07754 2.92318 4.08007 11.5769 1.79645 0.838606 0.716064 2.00596 0.0569586 0.000180078
threshold=259.17679597614006 -99.68908094235077 364.21127668841046 176.89645805146856 104.00692577175805 33.086447627200606 345.57978061856682 -35.21734945675329 -309.25641712293225 6.3423296937280105 624.77594324371194 -313.34270628869001 123.00317887489288 148.00355214077015 -242.483161743332 451.61322974379237 80.028261899479318 -295.64637139141615 -199.18478433883479 -189.24633170734344 479.62269587723199 192.15584065377399 1.0000000180025095e-35 392.53641547469141 30.9883371749882 -43.356121949866655 -278.5058338753758
decision_type=2 2 2 2 2 2 2 2 2 2 2 2 2 2 2 2 2 2 2 2 2 2 2 2 2 2 2
left_child=9 2 4 11 8 6 -5 -6 -2 18 13 12 -3 15 -15 -11 -7 -4 19 22 -21 -13 -1 25 -25 -20 -19
right_child=1 3 17 5 7 16 -8 -9 -10 10 -12 21 -14 14 -16 -17 -18 26 23 20 -22 -23 -24 24 -26 -27 -28
leaf_value=-0.049899212687624803 0.093022727693960069 0.12554585928462975 0.013410979918962371 0.20533315590966189 -0.030292833318018582 0.033489920878211309 -0.031161951399055955 0.15443578918146098 0.21087940664400412 -0.04565444939063288 0.1240857444572175 -0.033716134824877675 -0.050060554213441535 0.13729375294934415 -0.026332486488261309 0.039321976075445138 -0.043535586149114125 -0.049706107458565657 -0.049841133354203961 -0.032749891785370605 0.076230325207937308 -0.048682253192179809 -0.038339461306335643 -0.049844459572003327 -0.028661575169621235 -0.046658060478217328 -0.050124014139979037
leaf_weight=32.322735726833344 6.8772453367710105 6.1624647602438918 2.3244729042053232 18.246447890996937 9.8409467712044734 2.3601289838552457 5.1733971759676924 8.3740776255726797 77.013570100069046 45.556741967797279 4.5204592645168296 36.987442225217819 9.438379801809786 5.0289180502295521 22.910028599202633 2.7904499024152747 7.4474577531218529 4.1880943700671187 193.05437584966421 20.427597671747211 2.7669713348150244 43.789566114544868 30.487710319459438 34.614885941147804 16.505161829292774 15.157666243612764 6.7040760889649365
leaf_count=330 53 44 20 114 92 20 49 55 447 455 34 374 94 43 220 27 72 44 1985 209 27 451 315 356 169 153 66
internal_value=0 0.0719598 0.150555 0.00202563 0.175068 0.100525 0.153092 0.0546333 0.201218 -0.0401029 -0.0163607 -0.0319333 0.0193055 -0.0246831 0.0031197 -0.0407499 -0.0249999 -0.0388174 -0.0456584 -0.0376703 -0.0197492 -0.0418293 -0.0442882 -0.0483076 -0.0430051 -0.0496094 -0.0499633
internal_weight=0 244.928 115.322 129.605 102.106 33.2274 23.4198 18.215 83.8908 426.144 80.8066 96.3779 15.6008 76.2861 27.9389 48.3472 9.80759 13.2166 345.337 86.005 23.1946 80.777 62.8104 259.332 51.12 208.212 10.8922
internal_count=6318 1995 777 1218 647 255 163 147 500 4323 779 963 138 745 263 482 92 130 3544 881 236 825 645 2663 525 2138 110
is_linear=0
shrinkage=0.05


Tree=28
num_leaves=30
num_cat=0
split_feature=7 5 9 0 1 1 7 0 5 1 5 1 0 2 6 9 2 6 7 5 2 2 0 1 2 1 5 7 1
split_gain=310.294 318.653 178.656 172.238 96.3765 36.4292 30.6802 66.2893 41.0647 29.2758 28.9628 55.3576 65.7469 14.9643 14.0521 11.2091 7.62033 15.2936 7.36643 4.2982 17.1002 2.76666 2.22834 2.16544 2.72023 2.07449 0.832609 0.58053 0.000108511
threshold=156.48617830237745 31.825823631030442 -196.65815050568901 720.86577192140123 569.28942701960545 -111.46859412008661 -31.744459864033931 -536.99557775322319 -136.54267153316246 12.320793719419862 -180.20075110031095 84.09605741323449 368.92843650286358 153.75691869059474 -66.239072779424617 483.48103905050658 248.82283249656297 37.896131242543071 -275.41602252973257 614.1317832414353 153.75691869059474 -91.427716537712939 -751.11714484447339 366.00124415552165 35.859901100358883 -460.45613123700036 -37.785725575557819 143.59382906782582 12.320793719419862
decision_type=2 2 2 2 2 2 2 2 2 2 2 2 2 2 2 2 2 2 2 2 2 2 2 2 2 2 2 2 2
left_child=5 10 9 4 -4 6 15 22 -9 14 16 12 -12 -5 -3 18 25 -18 -1 23 28 -11 -8 24 -7 -2 -13 -25 -21
right_child=1 2 3 13 -6 19 7 8 -10 21 11 26 -14 -15 -16 -17 17 -19 -20 20 -22 -23 -24 27 -26 -27 -28 -29 -30
leaf_value=-0.044106876866764996 -0.00083847659397957765 -0.01034918820120443 0.20079657440458495 0.07591266449918796 -0.0032471000749275353 -0.044524232899504135 -0.049218564986485053 -0.0082721993523271978 0.09469585027295141 -0.049583496199393819 0.15338671962170014 -0.049395179440833423 -0.042089493657798183 -0.049261169553067891 0.13997679450225356 0.069374100886123988 0.057075836945644901 -0.044301056753325414 -0.018258831137104952 -0.049527314585300075 0.11523033643831962 -0.0036536543221436513 -0.0063932413667504963 -0.049066711703188208 -0.025563743370400384 -0.043428580569110004 -0.026875757539617403 -0.019546361830955216 -0.049079751597982085
leaf_weight=49.222388684749603 3.0328299403190604 2.4796818122267723 59.212796866893768 3.1582957580685607 6.4140243604779235 52.923255793750286 24.767815716564659 15.621922641992567 25.469450116157532 13.883048176765445 11.968593090772631 10.765315867960455 6.7149668782949439 9.7850267365574819 4.1669797301292446 2.9337710291147223 6.5150707885622969 8.6723935306072217 62.643742367625237 2.0114311724901182 2.1266810148954391 4.2924806401133511 3.4621153995394698 102.8010281175375 29.43951903283596 49.91920917481184 6.6339094266295424 1.6928369179368008 4.1451394334435463
leaf_count=570 31 24 434 31 65 607 287 164 242 150 107 120 74 114 35 30 65 88 702 22 24 43 37 1219 332 559 73 20 49
internal_value=0 0.0488431 0.111035 0.147978 0.180854 -0.027195 -0.0112419 0.0150236 0.0555499 -0.00589938 -0.0128539 0.023367 0.0831316 -0.0187175 0.0838944 -0.0271021 -0.0320344 -0.000812715 -0.0296323 -0.0422474 -0.00700269 -0.0387363 -0.0439665 -0.0438098 -0.037747 -0.0409892 -0.0408091 -0.0485885 -0.049226
internal_weight=0 207.615 103.392 78.5701 65.6268 379.261 184.121 69.3213 41.0914 24.8222 104.222 36.0828 18.6836 12.9433 6.64666 114.8 68.1395 15.1875 111.866 195.14 8.28325 18.1755 28.2299 186.857 82.3628 52.952 17.3992 104.494 6.15657
internal_count=6318 2013 896 644 499 4305 2032 730 406 252 1117 374 181 145 59 1302 743 153 1272 2273 95 193 324 2178 939 590 193 1239 71
is_linear=0
shrinkage=0.05


Tree=29
num_leaves=31
num_cat=0
split_feature=1 4 3 2 7 9 7 8 1 0 3 9 7 3 9 7 4 1 2 5 9 9 0 1 1 7 2 5 1 5
split_gain=687.268 250.801 141.462 118.882 107.009 58.2247 53.8427 28.0612 27.1476 43.7661 53.9084 24.2066 14.4483 13.6321 16.0906 7.43504 10.1602 6.27197 6.16643 3.53542 4.90426 2.27719 8.59088 11.2115 1.24164 0.879669 0.858784 2.10737 0.0855351 6.38149e-05
threshold=231.94025347562641 122.8428396247032 -91.303876083608245 355.46077870938717 -141.38761256322707 166.76354605518787 -173.88894494400498 198.78603848069039 -14.707640331677601 -381.00955219650126 -115.50530292123581 -153.42428067735216 281.51874855348012 -205.10888302735654 404.31801642214981 110.21391970946236 298.11068566742046 467.67430927479046 -363.65341503310026 -53.302163325046664 -276.81307013646341 -228.90050530047517 -528.57073002922368 -245.96290767497035 391.9895006857202 451.16188592936521 586.06396137162108 -83.208050178244619 -117.49017592435429 -588.30477796259709
decision_type=2 2 2 2 2 2 2 2 2 2 2 2 2 2 2 2 2 2 2 2 2 2 2 2 2 2 2 2 2 2
left_child=8 2 4 5 11 -4 -5 -6 21 10 12 -2 -10 15 17 24 -17 -15 -12 29 -21 22 23 -1 -3 -24 28 -28 -23 -11
right_child=1 13 3 6 7 -7 -8 -9 9 19 18 -13 -14 14 -16 16 -18 -19 -20 20 -22 26 25 -25 -26 -27 27 -29 -30 -31
leaf_value=-0.049827069535977667 0.17506272899630559 -0.013965121861579262 -0.027596455109014498 0.071106270130396595 0.1913994657776002 0.086820572824247169 0.19720512285143246 0.10671314443906472 0.081091686882349912 -0.049288669329980328 0.053210624969966848 0.0030642833535131971 0.20098031758176371 -0.023448087112485822 0.1336871652497626 0.078898960844209165 -0.051025015868928908 0.020595514608738999 -0.044454473980701015 0.028557038723448593 -0.032648402883435866 -0.049399568619505854 -0.045742774322886072 0.093199642877083266 -0.049604852864066372 -0.018745761116336645 -0.017896165875511658 -0.049385098454336335 -0.046804260496987694 -0.049468072520412437
leaf_weight=2.7039766013622284 2.4266916215419778 2.7130840420722988 35.160078927874565 18.440170660614967 54.403981037437916 16.261535733938217 15.649656236171721 11.926157675683497 6.4117637500166911 6.4403946623206165 1.9409046620130528 13.02662996947765 4.1329209432005882 14.920141316950319 2.4340456426143637 3.0742954015731803 2.9473800659179688 17.639381103217602 9.6607842966914159 3.8010973781347301 23.553395912051201 200.1258889734745 40.654131516814232 2.777630202472209 24.623181156814098 3.2592680677771559 7.8936824202537563 16.253952026367188 37.733112543821335 21.517978347837925
leaf_count=28 20 25 341 166 393 135 124 92 53 73 20 121 29 146 21 27 26 172 103 36 251 2223 449 25 266 36 85 181 415 236
internal_value=0 0.0685814 0.101553 0.0565883 0.148567 0.00858671 0.128995 0.176173 -0.0396304 -0.0131416 0.0462553 0.0300738 0.128081 -0.0121183 0.00968304 -0.0349886 0.0153061 0.000412886 -0.0281156 -0.0369231 -0.0241435 -0.0462193 -0.0363718 0.0226472 -0.0460677 -0.043739 -0.0480758 -0.0390916 -0.0489879 -0.0494267
internal_weight=0 235.646 167.295 85.5114 81.7835 51.4216 34.0898 66.3301 388.861 77.4592 22.1464 15.4533 10.5447 68.3515 34.9936 33.3579 6.02168 32.5595 11.6017 55.3129 27.3545 311.402 49.395 5.48161 27.3363 43.9134 262.007 24.1476 237.859 27.9584
internal_count=6318 2075 1392 766 626 476 290 485 4243 801 205 141 82 683 339 344 53 318 123 596 287 3442 538 53 291 485 2904 266 2638 309
is_linear=0
shrinkage=0.05


Tree=30
num_leaves=23
num_cat=0
split_feature=0 4 4 3 1 9 1 0 4 3 1 4 0 4 0 2 3 0 8 3 0 0
split_gain=1227.88 215.012 167.366 33.3806 48.9395 36.5242 31.3773 29.9067 44.2563 27.7398 22.9563 9.01092 25.9928 8.66064 13.3174 7.0615 4.96008 3.36438 1.97757 1.8121 0.0010816 0.00031801
threshold=720.86577192140123 742.82337114571635 -6.8278283074356692 244.08322091436588 -274.78386903064853 63.376557114951808 299.47108139127334 491.24272392549148 172.31130143125768 273.31078014493937 286.95191615607661 569.96597935563352 166.22822739449057 303.66519787573708 863.90258843407184 -120.65197480256701 188.64684179013986 173.36969323423816 157.30657353628348 373.08936557511851 1015.7500741347277 813.97218941104927
decision_type=2 2 2 2 2 2 2 2 2 2 2 2 2 2 2 2 2 2 2 2 2 2
left_child=1 7 3 4 15 -6 18 11 16 -10 13 17 -13 14 -4 -2 -9 -1 -3 -15 21 -5
right_child=2 6 10 20 5 -7 -8 8 9 -11 -12 12 -14 19 -16 -17 -18 -19 -20 -21 -22 -23
leaf_value=-0.047241753025527917 0.051431505240584735 0.19188153251003115 0.079688919830408475 -0.049234404063476525 0.19970946568116527 -0.015170142946999594 0.027900467150160375 -0.010962806694790897 0.14635192720187984 -0.033801444188601031 0.036475903214407246 -0.049219222611169802 0.10770628835507486 0.18718996679500166 0.1784766471296633 -0.050522845104092329 -0.049371854796264186 -0.036261668281745742 0.2387678790752856 0.22285055101812989 -0.050956201733061549 -0.049976183379171903
leaf_weight=339.51079246401787 2.4203204438090342 6.6568112373352033 4.8938647806644466 2.5265592038631421 7.6361186876893061 2.6686819866299629 3.1974774077534667 19.167560562491417 7.007849916815756 3.0741001814603806 2.8093214929103842 8.7673247903585416 3.7750032469630233 68.644997090101242 11.263326928019522 5.6934447214007378 14.970323398709295 87.807336539030075 3.3963819742202759 3.757416456937789 2.2063605412840843 3.3749161660671234
leaf_count=3957 20 39 36 29 46 21 31 193 50 31 22 101 32 343 64 54 168 985 20 21 20 35
internal_value=0 -0.0343798 0.145091 0.0345266 0.0717403 0.144061 0.16433 -0.039819 -0.000622788 0.0914211 0.17719 -0.0437595 -0.00198762 0.181654 0.148555 -0.0201101 -0.0278061 -0.0449855 0.207722 0.189041 -0.0500117 -0.0496586
internal_weight=0 497.331 117.895 26.5264 18.4186 10.3048 13.2507 484.08 44.2198 10.082 91.3689 439.86 12.5423 88.5596 16.1572 8.11377 34.1379 427.318 10.0532 72.4024 8.10784 5.90148
internal_count=6318 5607 711 225 141 67 90 5517 442 81 486 5075 133 464 100 74 361 4942 59 364 84 64
is_linear=0
shrinkage=0.05


Tree=31
num_leaves=22
num_cat=0
split_feature=0 1 0 1 9 1 5 1 8 3 2 0 5 5 2 6 8 3 2 8 1
split_gain=1968.91 110.288 24.835 20.7866 15.277 12.0215 37.1555 31.6994 5.93493 5.34661 3.74192 3.27127 13.5242 3.73118 2.26598 1.17412 0.442274 1.43636 0.13403 0.000502342 0.000430569
threshold=-695.81163745978677 44.786954260108807 -595.03848687488528 -74.096035256149619 -10.023717397674956 -350.19022963889239 -203.96931176915291 -176.06434032894884 218.10343717085365 184.98131792991711 -102.90838834857081 -493.82766180622173 -505.86539309411074 446.03256102174834 -415.89262030596404 437.45073334206603 254.90847282421609 -753.28075434429104 -950.65815145488239 -199.59190748733906 259.17679597614006
decision_type=2 2 2 2 2 2 2 2 2 2 2 2 2 2 2 2 2 2 2 2 2
left_child=1 5 3 4 -2 14 9 -8 19 -7 -6 12 -4 -14 -1 -16 18 -18 -13 -5 -3
right_child=2 20 11 8 10 6 7 -9 -10 -11 -12 16 13 -15 15 -17 17 -19 -20 -21 -22
leaf_value=0.22285163090401469 -0.034251889447541761 -0.050659600511430217 0.073869726904386257 -0.050871862206608331 0.065993149163903142 0.17920540066138571 0.1380460350056886 -0.022349719350499717 0.039815248837486543 0.11857147143319316 0.14066454755729427 -0.042199103385090003 -0.047930395489207613 0.021793533140048775 0.17971643299667917 0.20836569083222656 -0.0065135533080966134 -0.046472698311080689 -0.049379565481957724 -0.050027644137203113 -0.049799777712977888
leaf_weight=3.3961836397647849 2.8913944959640503 3.3120171502232543 2.7728442624211338 2.2118488773703566 3.3647870570421219 43.383025050163269 8.442104794085024 4.850125551223754 2.2018373757600775 3.9682479947805396 3.3462361618876475 6.6138533428311339 23.818630032241348 2.0868817344307891 73.11796773225069 3.7601361721754065 2.29842685163021 104.36534285545349 373.85565353929996 8.6658791825175268 2.5982291325926781
leaf_count=19 24 31 21 20 25 215 47 35 20 22 24 69 239 21 358 20 23 1079 3892 87 27
internal_value=0 0.161316 -0.0452392 0.00596625 0.0618296 0.17019 0.153388 0.0795201 -0.0350461 0.174124 0.103226 -0.0474909 -0.0310801 -0.0423136 0.182883 0.181118 -0.048457 -0.0456116 -0.0492547 -0.0501993 -0.0502816
internal_weight=0 146.828 538.494 22.682 9.60242 140.918 60.6435 13.2922 13.0796 47.3513 6.71102 515.812 28.6784 25.9055 80.2743 76.8781 487.133 106.664 380.47 10.8777 5.91025
internal_count=6318 774 5544 200 73 716 319 82 127 237 49 5344 281 260 397 378 5063 1102 3961 107 58
is_linear=0
shrinkage=0.05


Tree=32
num_leaves=27
num_cat=0
split_feature=3 1 5 7 8 8 3 6 9 5 4 3 2 9 1 6 5 6 3 4 1 9 6 6 7 6
split_gain=529.093 227.695 287.261 100.127 102.814 56.9751 40.8322 16.8879 15.2755 13.045 17.0833 29.0197 11.6746 22.6562 26.2985 10.3869 7.62752 7.56686 8.47679 4.48684 4.23946 1.34563 0.503273 0.397373 0.000392016 0.000198226
threshold=214.72671371484441 221.638443220911 -296.55374801580598 254.08710175107518 -40.134372066487025 498.88920121627717 -7.9887532205173768 -78.019545820834722 264.64362981129312 367.50066314318491 131.29223837127569 12.04974556476677 200.42663014841395 -2.0469457071917256 593.55241211306804 -393.6038604708188 329.28298269062651 -350.62041052647345 -27.378549106804481 217.26282062866707 -724.50834411057428 -71.975943888584098 -441.64408832962431 91.232237227417983 -129.26496365444996 243.79741256689735
decision_type=2 2 2 2 2 2 2 2 2 2 2 2 2 2 2 2 2 2 2 2 2 2 2 2 2 2
left_child=5 2 15 4 -4 9 7 -7 -5 17 11 -11 13 21 -15 -2 -8 18 -1 -17 -19 -3 -14 -9 -12 -24
right_child=1 12 3 8 -6 6 16 23 -10 10 24 -13 22 14 -16 19 -18 20 -20 -21 -22 -23 25 -25 -26 -27
leaf_value=-0.035534949250248409 0.054486313615478787 -0.049223741098811953 0.076521087289435727 -0.04042476117926494 0.17916556075984891 0.097007690878715885 0.10108381653524486 -0.022850626064923465 0.10736985194208773 -0.024203977205044337 -0.049886792124637869 0.074946432456349507 -0.022066954782160551 0.11107429294465471 -0.04914296657277481 -0.04408403527450467 0.21690167851526657 -0.021351089825383019 0.017639544915670321 0.022662847667163664 -0.0477110100997492 -0.0078690499449131698 -0.049250012346283928 -0.049535206014148403 -0.049178583676709166 -0.048977490301593346
